FANN_FLO_2.1
num_layers=3
learning_rate=0.001000
connection_rate=0.500000
network_type=0
learning_momentum=0.000000
training_algorithm=2
train_error_function=1
train_stop_function=0
cascade_output_change_fraction=0.010000
quickprop_decay=-0.000100
quickprop_mu=1.750000
rprop_increase_factor=1.200000
rprop_decrease_factor=0.500000
rprop_delta_min=0.000000
rprop_delta_max=50.000000
rprop_delta_zero=0.100000
cascade_output_stagnation_epochs=12
cascade_candidate_change_fraction=0.010000
cascade_candidate_stagnation_epochs=12
cascade_max_out_epochs=150
cascade_min_out_epochs=50
cascade_max_cand_epochs=150
cascade_min_cand_epochs=50
cascade_num_candidate_groups=2
bit_fail_limit=3.49999994039535520000e-001
cascade_candidate_limit=1.00000000000000000000e+003
cascade_weight_multiplier=4.00000005960464480000e-001
cascade_activation_functions_count=10
cascade_activation_functions=3 5 7 8 10 11 14 15 16 17 
cascade_activation_steepnesses_count=4
cascade_activation_steepnesses=2.50000000000000000000e-001 5.00000000000000000000e-001 7.50000000000000000000e-001 1.00000000000000000000e+000 
layer_sizes=11 101 3 
scale_included=0
neurons (num_inputs, activation_function, activation_steepness)=(0, 0, 0.00000000000000000000e+000) (0, 0, 0.00000000000000000000e+000) (0, 0, 0.00000000000000000000e+000) (0, 0, 0.00000000000000000000e+000) (0, 0, 0.00000000000000000000e+000) (0, 0, 0.00000000000000000000e+000) (0, 0, 0.00000000000000000000e+000) (0, 0, 0.00000000000000000000e+000) (0, 0, 0.00000000000000000000e+000) (0, 0, 0.00000000000000000000e+000) (0, 0, 0.00000000000000000000e+000) (6, 3, 1.00000000000000000000e+000) (6, 3, 1.00000000000000000000e+000) (6, 3, 1.00000000000000000000e+000) (6, 3, 1.00000000000000000000e+000) (6, 3, 1.00000000000000000000e+000) (6, 3, 1.00000000000000000000e+000) (6, 3, 1.00000000000000000000e+000) (6, 3, 1.00000000000000000000e+000) (6, 3, 1.00000000000000000000e+000) (6, 3, 1.00000000000000000000e+000) (6, 3, 1.00000000000000000000e+000) (6, 3, 1.00000000000000000000e+000) (6, 3, 1.00000000000000000000e+000) (6, 3, 1.00000000000000000000e+000) (6, 3, 1.00000000000000000000e+000) (6, 3, 1.00000000000000000000e+000) (6, 3, 1.00000000000000000000e+000) (6, 3, 1.00000000000000000000e+000) (6, 3, 1.00000000000000000000e+000) (6, 3, 1.00000000000000000000e+000) (6, 3, 1.00000000000000000000e+000) (6, 3, 1.00000000000000000000e+000) (6, 3, 1.00000000000000000000e+000) (6, 3, 1.00000000000000000000e+000) (6, 3, 1.00000000000000000000e+000) (6, 3, 1.00000000000000000000e+000) (6, 3, 1.00000000000000000000e+000) (6, 3, 1.00000000000000000000e+000) (6, 3, 1.00000000000000000000e+000) (6, 3, 1.00000000000000000000e+000) (6, 3, 1.00000000000000000000e+000) (6, 3, 1.00000000000000000000e+000) (6, 3, 1.00000000000000000000e+000) (6, 3, 1.00000000000000000000e+000) (6, 3, 1.00000000000000000000e+000) (6, 3, 1.00000000000000000000e+000) (6, 3, 1.00000000000000000000e+000) (6, 3, 1.00000000000000000000e+000) (6, 3, 1.00000000000000000000e+000) (6, 3, 1.00000000000000000000e+000) (6, 3, 1.00000000000000000000e+000) (6, 3, 1.00000000000000000000e+000) (6, 3, 1.00000000000000000000e+000) (6, 3, 1.00000000000000000000e+000) (6, 3, 1.00000000000000000000e+000) (6, 3, 1.00000000000000000000e+000) (6, 3, 1.00000000000000000000e+000) (6, 3, 1.00000000000000000000e+000) (6, 3, 1.00000000000000000000e+000) (6, 3, 1.00000000000000000000e+000) (6, 3, 1.00000000000000000000e+000) (6, 3, 1.00000000000000000000e+000) (6, 3, 1.00000000000000000000e+000) (6, 3, 1.00000000000000000000e+000) (6, 3, 1.00000000000000000000e+000) (6, 3, 1.00000000000000000000e+000) (6, 3, 1.00000000000000000000e+000) (6, 3, 1.00000000000000000000e+000) (6, 3, 1.00000000000000000000e+000) (6, 3, 1.00000000000000000000e+000) (6, 3, 1.00000000000000000000e+000) (6, 3, 1.00000000000000000000e+000) (6, 3, 1.00000000000000000000e+000) (6, 3, 1.00000000000000000000e+000) (6, 3, 1.00000000000000000000e+000) (6, 3, 1.00000000000000000000e+000) (6, 3, 1.00000000000000000000e+000) (6, 3, 1.00000000000000000000e+000) (6, 3, 1.00000000000000000000e+000) (6, 3, 1.00000000000000000000e+000) (6, 3, 1.00000000000000000000e+000) (6, 3, 1.00000000000000000000e+000) (6, 3, 1.00000000000000000000e+000) (6, 3, 1.00000000000000000000e+000) (6, 3, 1.00000000000000000000e+000) (6, 3, 1.00000000000000000000e+000) (6, 3, 1.00000000000000000000e+000) (6, 3, 1.00000000000000000000e+000) (6, 3, 1.00000000000000000000e+000) (6, 3, 1.00000000000000000000e+000) (6, 3, 1.00000000000000000000e+000) (6, 3, 1.00000000000000000000e+000) (6, 3, 1.00000000000000000000e+000) (6, 3, 1.00000000000000000000e+000) (6, 3, 1.00000000000000000000e+000) (6, 3, 1.00000000000000000000e+000) (6, 3, 1.00000000000000000000e+000) (6, 3, 1.00000000000000000000e+000) (6, 3, 1.00000000000000000000e+000) (6, 3, 1.00000000000000000000e+000) (6, 3, 1.00000000000000000000e+000) (6, 3, 1.00000000000000000000e+000) (6, 3, 1.00000000000000000000e+000) (6, 3, 1.00000000000000000000e+000) (6, 3, 1.00000000000000000000e+000) (6, 3, 1.00000000000000000000e+000) (6, 3, 1.00000000000000000000e+000) (6, 3, 1.00000000000000000000e+000) (6, 3, 1.00000000000000000000e+000) (6, 3, 1.00000000000000000000e+000) (0, 3, 1.00000000000000000000e+000) (51, 3, 1.00000000000000000000e+000) (51, 3, 1.00000000000000000000e+000) (0, 3, 1.00000000000000000000e+000) 
connections (connected_to_neuron, weight)=(10, -7.22806155681610110000e-001) (2, -8.01167392730712890000e+000) (3, 6.02812242507934570000e+000) (4, -6.46363258361816410000e-001) (9, 4.05771636962890620000e+000) (1, 9.71634292602539060000e+000) (10, -9.13645476102828980000e-002) (9, -3.39468812942504880000e+000) (3, -5.01104533672332760000e-001) (5, -2.14330494403839110000e-001) (0, 6.83231174945831300000e-001) (2, 1.06363737583160400000e+000) (10, -2.52304345369338990000e-001) (4, 5.19004762172698970000e-001) (3, -7.26709365844726560000e-001) (8, 3.83921051025390620000e+000) (1, -2.04126000404357910000e-001) (2, 1.09914326667785640000e+000) (10, 4.67846989631652830000e-002) (1, 6.25472784042358400000e-001) (7, 3.99536520242691040000e-001) (5, 6.11862242221832280000e-001) (8, 6.26807570457458500000e-001) (3, 7.84512460231781010000e-001) (10, 9.61606979370117190000e-001) (7, 1.00485861301422120000e+000) (2, -1.03053414821624760000e+000) (3, 2.75413250923156740000e+000) (9, 3.71149492263793950000e+000) (0, -7.80149996280670170000e-001) (10, -2.03301477432250980000e+000) (7, -1.53106868267059330000e-001) (2, 2.34477472305297850000e+000) (5, -1.53212618827819820000e+000) (1, 1.86484885215759280000e+000) (9, 3.13689589500427250000e-001) (10, -6.78672611713409420000e-001) (7, 1.57624506950378420000e+000) (4, 2.29539775848388670000e+000) (6, 5.34691572189331050000e-001) (0, 9.69928979873657230000e-001) (8, 2.71354389190673830000e+000) (10, 3.30386161804199220000e-001) (5, 1.30682480335235600000e+000) (8, -2.19375538825988770000e+000) (7, 1.00049066543579100000e+001) (3, 1.51643395423889160000e+000) (0, -1.33615350723266600000e+000) (10, -2.23215237259864810000e-001) (3, -1.22849822044372560000e+000) (2, 1.36311864852905270000e+000) (4, -2.17026427388191220000e-001) (9, -2.75434184074401860000e+000) (8, 1.99467492103576660000e+000) (10, 9.60447732359170910000e-003) (6, -5.84284126758575440000e-001) (4, 4.12232011556625370000e-001) (3, 2.56302142143249510000e+000) (8, -1.28526949882507320000e+000) (1, -6.40351295471191410000e-001) (10, 3.81245160102844240000e+000) (7, 2.21907830238342290000e+000) (3, 1.45854794979095460000e+000) (1, 8.41203022003173830000e+000) (6, -3.44471478462219240000e+000) (8, -9.44000363349914550000e-001) (10, 1.43993288278579710000e-001) (4, -2.57193058729171750000e-001) (2, -3.57209295034408570000e-001) (9, 7.45297479629516600000e+000) (7, -7.25199460983276370000e-001) (5, 7.13128685951232910000e-001) (10, 7.95342586934566500000e-003) (4, -5.94876930117607120000e-002) (1, -2.28796616196632390000e-001) (7, 8.46290230751037600000e-001) (3, 2.40674352645874020000e+000) (6, -6.52966499328613280000e-001) (10, -1.49872645735740660000e-001) (6, -6.95807754993438720000e-001) (3, 1.59820723533630370000e+000) (9, -1.09028196334838870000e+000) (7, 1.27118432521820070000e+000) (5, -1.34638309478759770000e-001) (10, -1.93550780415534970000e-001) (4, 3.07678008079528810000e+000) (9, -1.76529192924499510000e+000) (2, 6.00672885775566100000e-003) (1, -2.18798756599426270000e+000) (6, 4.58725166320800780000e+000) (10, 2.30229869484901430000e-002) (7, 7.25075125694274900000e-001) (5, 2.55443364381790160000e-001) (0, -1.06381726264953610000e+000) (3, 1.01309716701507570000e+000) (6, -3.20146584510803220000e+000) (10, 5.19902765750885010000e-001) (2, -1.43909215927124020000e+000) (8, 1.77953529357910160000e+000) (1, 2.73831319808959960000e+000) (9, 9.23372149467468260000e-001) (4, 2.58145999908447270000e+000) (10, -5.64267814159393310000e-001) (7, 5.33582568168640140000e-001) (9, 7.93694853782653810000e-001) (8, 2.07733854651451110000e-001) (6, 8.21545571088790890000e-002) (4, 1.84922850131988530000e+000) (10, 7.07394361495971680000e-001) (4, -8.48583817481994630000e-001) (7, 7.68744897842407230000e+000) (0, 1.07880282402038570000e+000) (8, -1.10364503860473630000e+001) (5, 1.48148882389068600000e+000) (10, -5.31610012054443360000e-001) (4, 2.07822036743164060000e+000) (6, 2.17980191111564640000e-001) (1, 1.52827784419059750000e-001) (0, 4.27633315324783330000e-001) (7, 4.72890943288803100000e-001) (10, -8.49423527717590330000e-001) (5, -4.41379137337207790000e-002) (4, 1.93387305736541750000e+000) (6, 3.98879742622375490000e+000) (8, 3.27057290077209470000e+000) (7, -1.76625013351440430000e+000) (10, 1.18909096717834470000e+000) (0, -5.90626299381256100000e-001) (9, 9.96133232116699220000e+000) (7, 6.15443801879882810000e+000) (6, -1.87137579917907710000e+000) (5, 1.52956175804138180000e+000) (10, 6.30641169846057890000e-003) (7, 7.23958611488342290000e-001) (4, -5.34490823745727540000e-001) (1, 3.22956472635269170000e-001) (2, -1.51820027828216550000e+000) (6, -1.72876745462417600000e-001) (10, -6.83531463146209720000e-001) (2, -4.82602357864379880000e-001) (6, -1.06570407748222350000e-001) (1, -9.85732376575469970000e-001) (0, 1.86029863357543950000e+000) (7, -2.78954911231994630000e+000) (10, -1.53278976678848270000e-001) (0, -3.57511311769485470000e-001) (1, 1.01657831668853760000e+000) (6, -9.56081092357635500000e-001) (5, 1.52384328842163090000e+000) (7, 3.88139247894287110000e-001) (10, -5.78860759735107420000e-001) (5, -8.15584599971771240000e-001) (6, 4.99884039163589480000e-001) (3, -6.97565734386444090000e-001) (7, 1.08062788844108580000e-001) (0, 3.58950942754745480000e-001) (10, 4.54144597053527830000e-001) (4, 2.68417549133300780000e+000) (2, -1.68671119213104250000e+000) (3, 3.76049613952636720000e+000) (0, 1.37627089023590090000e+000) (6, -5.38261592388153080000e-001) (10, 1.69096279144287110000e+000) (1, 3.45433783531188960000e+000) (4, -6.99948370456695560000e-001) (9, 2.66216754913330080000e+000) (8, -6.07978391647338870000e+000) (7, 3.61400413513183590000e+000) (10, -1.04517590999603270000e+000) (4, 1.47593152523040770000e+000) (2, 6.51876866817474370000e-001) (8, -5.32370567321777340000e-001) (5, -8.69179904460906980000e-001) (3, -3.36297065019607540000e-001) (10, -1.56057566404342650000e-001) (7, -1.06959950923919680000e+000) (6, 4.59303140640258790000e-001) (3, -4.40677911043167110000e-001) (2, 1.38870036602020260000e+000) (4, 9.11109149456024170000e-001) (10, -5.85278928279876710000e-001) (2, 7.79622197151184080000e-001) (6, 3.28187823295593260000e-001) (4, 1.94485545158386230000e+000) (0, 1.53716176748275760000e-001) (5, -8.16175580024719240000e-001) (10, 5.72398714721202850000e-002) (1, 1.11761927604675290000e+000) (2, -1.22543525695800780000e+000) (0, -3.27353894710540770000e-001) (8, -4.31260967254638670000e+000) (5, 8.62446069717407230000e-001) (10, -6.00348711013793950000e-001) (5, -8.75586390495300290000e-001) (7, -3.48906628787517550000e-002) (6, 4.91493284702301030000e-001) (1, -7.82785490155220030000e-002) (2, 1.14338827133178710000e+000) (10, -3.22468549013137820000e-001) (7, -5.06680190563201900000e-001) (2, 1.11650431156158450000e+000) (8, 4.62105572223663330000e-001) (3, -1.36560881137847900000e+000) (1, -1.55930459499359130000e+000) (10, -7.14581847190856930000e-001) (4, 2.67510437965393070000e+000) (3, -3.73334705829620360000e-001) (2, 9.68159615993499760000e-001) (9, 1.03200745582580570000e+000) (6, 5.14756202697753910000e-001) (10, 6.90970897674560550000e-001) (8, 6.77592158317565920000e-001) (0, -7.91317522525787350000e-001) (7, 2.95589351654052730000e+000) (6, -2.94071841239929200000e+000) (5, 1.80191397666931150000e+000) (10, -6.30156025290489200000e-002) (6, 6.76278114318847660000e-001) (4, 1.36139285564422610000e+000) (3, -6.93437874317169190000e-001) (1, -1.01918005943298340000e+000) (7, -5.07097363471984860000e-001) (10, 7.27340131998062130000e-002) (6, -9.21622216701507570000e-001) (2, -1.34031569957733150000e+000) (1, 7.78666198253631590000e-001) (4, -1.07200264930725100000e+000) (5, 2.81872463226318360000e+000) (10, 1.01517863571643830000e-001) (3, 7.03270018100738530000e-001) (5, -2.36160904169082640000e-002) (4, 3.90897184610366820000e-001) (2, -4.94831472635269170000e-001) (6, -1.13650119304656980000e+000) (10, -2.23166197538375850000e-001) (5, 1.85369062423706050000e+000) (4, -5.80951154232025150000e-001) (2, -3.01668596267700200000e+000) (7, -9.27641212940216060000e-001) (3, 3.52192401885986330000e+000) (10, -1.48675823211669920000e+000) (4, 1.70559942722320560000e+000) (2, 5.83627283573150630000e-001) (1, 2.22464537620544430000e+000) (7, 2.05475401878356930000e+000) (9, 1.17448404431343080000e-001) (10, 7.45868906378746030000e-002) (2, 1.07691895961761470000e+000) (6, 9.87903177738189700000e-001) (7, 8.41933667659759520000e-001) (1, -1.02394700050354000000e+000) (8, 1.32614290714263920000e+000) (10, 1.72506287693977360000e-001) (6, -1.16643941402435300000e+000) (8, 7.44998276233673100000e-001) (3, 1.47610223293304440000e+000) (0, 1.31275221705436710000e-001) (1, 7.34949469566345210000e-001) (10, 3.77417683601379390000e-001) (6, 2.86797785758972170000e+000) (5, -2.33624267578125000000e+001) (4, 6.09602737426757810000e+000) (7, 5.62291502952575680000e-001) (3, -1.42099285125732420000e+001) (10, 2.32754200696945190000e-001) (3, 1.49559652805328370000e+000) (9, 3.58415007591247560000e+000) (8, -1.72790616750717160000e-001) (5, 1.18438154458999630000e-001) (7, 1.30589616298675540000e+000) (10, 3.43252643942832950000e-002) (9, -9.91841971874237060000e-001) (8, 3.03579807281494140000e+000) (6, -7.34807550907135010000e-001) (5, -9.55561578273773190000e-001) (1, -1.42856860160827640000e+000) (10, 6.88351809978485110000e-001) (1, 1.10542845726013180000e+000) (3, 3.11483883857727050000e+000) (5, -4.27322244644165040000e+000) (6, -9.56492805480957030000e+000) (2, -4.79067385196685790000e-001) (10, 4.66307938098907470000e-001) (3, 2.85519289970397950000e+000) (0, 7.91240453720092770000e-001) (1, 1.16780626773834230000e+000) (6, -7.67187356948852540000e+000) (4, -5.40821552276611330000e-001) (10, -2.79798293113708500000e+000) (0, 3.75638580322265620000e+000) (5, 1.74090355634689330000e-001) (8, -3.09562772512435910000e-001) (4, 2.28063583374023440000e-001) (2, 3.12208414077758790000e+000) (10, -2.10848525166511540000e-002) (6, -1.41892409324646000000e+000) (7, 5.80673396587371830000e-001) (2, -2.91734367609024050000e-001) (3, 1.72293794155120850000e+000) (4, 7.82775282859802250000e-002) (10, -1.93906629085540770000e+000) (3, -1.03399550914764400000e+000) (6, 6.56212389469146730000e-001) (8, -5.47876358032226560000e-001) (7, 2.02482295036315920000e+000) (5, -1.21337819099426270000e+000) (10, 1.10441613197326660000e+000) (8, -3.72093296051025390000e+000) (5, 1.21641230583190920000e+000) (7, 3.99805158376693730000e-001) (2, -1.68316185474395750000e+000) (1, 1.24584650993347170000e+000) (10, -5.81422686576843260000e-001) (5, -8.02731633186340330000e-001) (4, 2.08199191093444820000e+000) (7, -1.20519429445266720000e-001) (0, 2.75034755468368530000e-001) (2, 6.72748088836669920000e-001) (10, -6.29660189151763920000e-001) (5, 1.58877283334732060000e-001) (9, 9.20039694756269450000e-003) (3, 4.94048774242401120000e-001) (1, 1.46138823032379150000e+000) (4, 1.69386640191078190000e-001) (10, -3.15309137105941770000e-001) (6, 2.28026103973388670000e+001) (5, -6.38352215290069580000e-001) (1, -3.06412434577941890000e+000) (4, 4.01548922061920170000e-001) (9, -1.02651605606079100000e+001) (10, 4.52327817678451540000e-001) (6, -5.07813751697540280000e-001) (5, 2.65921545028686520000e+000) (7, -2.48642206192016600000e-001) (9, 1.76083159446716310000e+000) (1, 2.02450823783874510000e+000) (10, -5.30822053551673890000e-002) (9, -2.20394325256347660000e+000) (2, 1.37148761749267580000e+000) (1, -9.85513865947723390000e-001) (8, 2.36531257629394530000e+000) (5, -4.38571304082870480000e-001) (10, 4.76089268922805790000e-001) (5, -7.95063972473144530000e-001) (3, 2.45976972579956050000e+000) (2, -3.63032490015029910000e-001) (7, 8.12043309211730960000e-001) (0, -6.17356114089488980000e-002) (10, -8.01497921347618100000e-002) (6, -1.71484291553497310000e-001) (3, -1.57879602909088130000e+000) (5, -6.36485338211059570000e-001) (0, 1.67557275295257570000e+000) (8, 4.52353429794311520000e+000) (10, -1.07309818267822270000e+000) (6, -5.77056817710399630000e-002) (5, -8.42112302780151370000e-001) (4, 1.06960844993591310000e+000) (7, 9.40859094262123110000e-002) (2, 8.03521454334259030000e-001) (10, -2.95835524797439580000e-001) (2, 1.02707529067993160000e+000) (5, -7.73911237716674800000e-001) (9, -1.21365613937377930000e+001) (1, 2.48913979530334470000e+000) (8, 2.33170318603515620000e+000) (10, -3.40970456600189210000e-001) (6, 8.39006245136260990000e-001) (1, -4.06040400266647340000e-001) (5, 9.86521720886230470000e-001) (2, 1.17232525348663330000e+000) (9, -3.26769091188907620000e-002) (10, 7.81028449535369870000e-001) (1, 2.06550621986389160000e+000) (7, -1.37069988250732420000e+000) (2, -9.76032197475433350000e-001) (5, 3.54095888137817380000e+000) (8, -5.68038654327392580000e+000) (10, -2.24798083305358890000e+000) (7, 9.21831250190734860000e-001) (6, 1.20976495742797850000e+000) (8, -9.57335233688354490000e-002) (5, 2.02822351455688480000e+000) (1, -3.97869497537612920000e-001) (10, -1.27972853183746340000e+000) (4, 1.94864690303802490000e+000) (6, 5.96296370029449460000e-001) (8, 2.08775758743286130000e+000) (2, 1.34036493301391600000e+000) (1, -9.94082927703857420000e-001) (10, -1.06215365231037140000e-001) (6, -3.69708895683288570000e-001) (9, 1.64133107662200930000e+000) (7, 6.12465083599090580000e-001) (5, 3.06544274091720580000e-001) (3, 9.14638519287109380000e-001) (10, 2.33354908414185050000e-003) (7, 4.24947530031204220000e-001) (5, 5.25814890861511230000e-001) (1, 9.54508185386657710000e-001) (0, -4.81786936521530150000e-001) (2, -3.79612833261489870000e-001) (10, 5.46863913536071780000e-001) (5, 4.54899597167968750000e+000) (4, -5.58127641677856450000e+000) (3, 2.05948853492736820000e+000) (1, 3.44128537178039550000e+000) (2, -1.58978652954101560000e+000) (10, 1.76888549327850340000e+000) (3, 1.31865584850311280000e+000) (2, -6.59757852554321290000e-001) (7, 1.18901884555816650000e+000) (5, 1.66530466079711910000e+000) (8, -3.51802080869674680000e-001) (10, -3.79964470863342290000e-001) (7, -5.06966531276702880000e-001) (1, -6.00766479969024660000e-001) (4, 2.48558878898620610000e+000) (0, 1.27205300331115720000e+000) (5, -1.39099037647247310000e+000) (10, 8.99109542369842530000e-001) (3, 1.81951487064361570000e+000) (2, 3.94289404153823850000e-001) (7, 3.23229932785034180000e+000) (5, 1.69068300724029540000e+000) (6, -4.20920705795288090000e+000) (10, 7.79422149062156680000e-002) (7, -6.46104812622070310000e-001) (3, -1.18733012676239010000e+000) (8, 2.99875020980834960000e+000) (6, 7.29981362819671630000e-001) (2, 1.18463540077209470000e+000) (10, -7.51151382923126220000e-001) (3, 1.09696149826049800000e+001) (8, 9.51823830604553220000e-001) (0, -1.05618274211883540000e+000) (4, 2.40004912018775940000e-001) (1, 2.28774166107177730000e+000) (10, -4.44024503231048580000e-001) (1, -2.13658094406127930000e-001) (2, 7.89377570152282710000e-001) (5, -9.34156417846679690000e-001) (9, 1.21549844741821290000e+000) (6, 4.07128363847732540000e-001) (10, -2.85942435264587400000e-001) (8, 3.12730693817138670000e+000) (4, 5.55173540115356450000e+000) (6, 3.49925765991210940000e+001) (7, -3.71991300582885740000e+000) (3, -9.71293032169342040000e-001) (10, -1.00130367279052730000e+000) (2, 1.09455621242523190000e+000) (7, -3.89784753322601320000e-001) (3, -4.48295146226882930000e-001) (8, 6.42083835601806640000e+000) (5, -5.53075432777404790000e-001) (10, 1.16712145507335660000e-001) (7, 8.35810840129852290000e-001) (4, -3.36607247591018680000e-001) (3, 1.33857774734497070000e+000) (9, 6.48286998271942140000e-001) (0, -1.57757592201232910000e+000) (10, 7.22805559635162350000e-001) (5, -7.51330137252807620000e+000) (4, 4.17710542678833010000e+000) (1, -7.94561100006103520000e+000) (7, -1.26731896400451660000e+000) (9, -1.96979582309722900000e-001) (10, 2.23166465759277340000e-001) (1, -1.40011382102966310000e+000) (2, -4.35512661933898930000e-001) (3, 3.97616291046142580000e+000) (6, -6.54624760150909420000e-001) (4, 1.59913539886474610000e+000) (10, -1.80660045146942140000e+000) (8, 6.79250717163085940000e+000) (7, -2.75971412658691410000e+000) (6, 1.87227690219879150000e+000) (3, 3.00858795642852780000e-001) (9, -3.73227190971374510000e+000) (10, -1.95234119892120360000e-001) (9, -4.32838678359985350000e+000) (8, 7.64578390121459960000e+000) (1, -2.54310309886932370000e-001) (5, -2.25420284271240230000e+000) (6, 2.63070607185363770000e+000) (10, -2.43742033839225770000e-001) (0, 1.06256842613220210000e+000) (3, -8.45888733863830570000e-001) (8, 1.33510351181030270000e+000) (1, -4.82534497976303100000e-001) (9, -3.12450885772705080000e+000) (10, -2.49335572123527530000e-001) (2, 1.00321400165557860000e+000) (5, -4.61142092943191530000e-001) (7, -1.44982254505157470000e+000) (6, 1.86273860931396480000e+000) (1, -1.61379551887512210000e+000) (10, 3.75342339277267460000e-001) (7, 2.40691137313842770000e+000) (4, -6.63598823547363280000e+000) (5, 7.28175878524780270000e-001) (6, -2.19674510955810550000e+001) (0, 3.81122922897338870000e+000) (10, -9.42318327724933620000e-003) (7, -6.19460880756378170000e-001) (9, 6.35868835449218750000e+000) (6, 2.03837156295776370000e-001) (4, -8.06513577699661250000e-002) (5, 4.55968290567398070000e-001) (10, 2.52867549657821660000e-001) (5, -7.79139399528503420000e-001) (7, -1.68178427219390870000e+000) (1, -2.40246343612670900000e+000) (8, 7.02913713455200200000e+000) (4, 1.79302203655242920000e+000) (10, -1.65213859081268310000e+000) (2, 1.52980983257293700000e+000) (9, 5.78448593616485600000e-001) (6, -6.31071627140045170000e-001) (7, 2.37905591726303100000e-001) (5, -1.24773526191711430000e+000) (10, -5.84429025650024410000e-001) (9, 1.25863566994667050000e-001) (2, 1.17170810699462890000e+000) (0, 3.80552411079406740000e-001) (5, -7.04391300678253170000e-001) (6, 4.56959635019302370000e-001) (10, -4.41255718469619750000e-001) (6, 3.56980514526367190000e+001) (4, 5.79750871658325200000e+000) (7, -2.72827720642089840000e+000) (3, -1.11673784255981450000e+000) (8, 2.08823752403259280000e+000) (10, -1.53076648712158200000e-001) (3, -7.48669445514678960000e-001) (6, 3.39247393608093260000e+000) (9, -2.43667984008789060000e+000) (7, -4.26427078247070310000e+000) (8, 3.75285887718200680000e+000) (10, 1.57728597521781920000e-001) (8, 2.81490492820739750000e+000) (1, -8.85544538497924800000e-001) (9, -3.03151106834411620000e+000) (4, 6.56962037086486820000e-001) (5, -6.34878754615783690000e-001) (10, 2.18254983425140380000e-001) (2, 4.25037612915039060000e+001) (6, -3.32158654928207400000e-001) (4, 1.19695043563842770000e+001) (3, -5.13378219604492190000e+001) (1, -6.89203023910522460000e+000) (10, 5.76079130172729490000e-001) (2, -1.67966022491455080000e+001) (3, 3.34310302734375000000e+001) (1, 1.08254137039184570000e+001) (8, 1.72066435217857360000e-001) (4, -1.33938825130462650000e+000) (10, 6.66792690753936770000e-001) (5, -5.76327264308929440000e-001) (6, 8.24744045734405520000e-001) (9, 6.05257225036621090000e+000) (3, 2.39883756637573240000e+000) (8, -3.16636443138122560000e+000) (10, -9.74107608199119570000e-002) (4, 1.36466073989868160000e+000) (0, 1.32700276374816890000e+000) (1, -6.12341046333312990000e-001) (7, -9.96715247631073000000e-001) (8, 1.01255989074707030000e+000) (10, -2.82969021797180180000e+000) (1, 4.33378982543945310000e+000) (9, 6.56972527503967290000e-001) (3, 2.35484504699707030000e+000) (6, -1.03946161270141600000e+000) (5, 2.15341582894325260000e-001) (10, -6.53869435191154480000e-002) (3, -7.16813385486602780000e-001) (6, 1.35855472087860110000e+000) (5, -7.29627907276153560000e-001) (2, 9.29056704044342040000e-001) (1, -4.05957341194152830000e-001) (10, -3.83735775947570800000e-001) (1, -6.46925985813140870000e-001) (5, -2.42214846611022950000e+000) (7, -1.75776398181915280000e+000) (6, 1.10974063873291020000e+001) (9, -6.49884119629859920000e-002) (10, 1.36533784866333010000e+000) (6, -9.54443037509918210000e-001) (7, 9.99713003635406490000e-001) (0, 3.08410555124282840000e-001) (3, 2.69982910156250000000e+000) (5, 1.39168882369995120000e+000) (10, -1.83873367309570310000e+000) (1, 4.79395961761474610000e+000) (2, 1.27045845985412600000e+000) (6, 5.89603662490844730000e-001) (8, -1.61962211132049560000e+000) (7, 5.22492361068725590000e+000) (111, 1.23573038727045060000e-002) (15, -1.65249240398406980000e+000) (16, 2.28765344619750980000e+000) (17, 2.91804075241088870000e-001) (18, -3.17496150732040410000e-001) (19, 1.41160264611244200000e-001) (21, -7.98475801944732670000e-001) (26, -2.72122353315353390000e-001) (27, -4.32984709739685060000e-001) (28, 2.54238814115524290000e-001) (29, -1.04390203952789310000e+000) (30, 1.32277414202690120000e-001) (34, 1.25626277923583980000e+000) (36, 1.20880722999572750000e-001) (37, -2.69207477569580080000e+000) (38, -6.16039812564849850000e-001) (39, 2.87835538387298580000e-001) (41, 1.19942821562290190000e-001) (43, 2.24656671285629270000e-001) (44, 2.68207401037216190000e-001) (45, 3.12087029218673710000e-001) (49, -9.06659215688705440000e-002) (51, 2.98797130584716800000e-001) (53, -3.52017968893051150000e-001) (55, -3.39987933635711670000e-001) (57, -2.86212623119354250000e-001) (58, -9.87434089183807370000e-002) (60, -8.93453434109687810000e-002) (61, 1.88124573230743410000e+000) (63, 6.85792639851570130000e-002) (64, -6.83888867497444150000e-002) (70, 5.93504250049591060000e-001) (71, 2.86170065402984620000e-001) (72, 2.16971814632415770000e-001) (73, -3.59044879674911500000e-001) (75, 5.86009025573730470000e-001) (78, -9.26072478294372560000e-001) (80, 1.67768746614456180000e-001) (81, -6.94543898105621340000e-001) (84, 2.07704558968544010000e-001) (87, -9.07561630010604860000e-002) (91, 2.62956500053405760000e-001) (92, 2.69599556922912600000e-001) (93, 2.72050738334655760000e-001) (94, -7.61091172695159910000e-001) (97, 1.11103355884552000000e+000) (98, 8.39083716273307800000e-002) (100, 9.76215183734893800000e-001) (104, -7.26320266723632810000e-001) (106, -1.94646000862121580000e+000) (108, 5.00430405139923100000e-001) (111, 5.43450079858303070000e-002) (11, 8.16117644309997560000e-001) (12, -1.63830205798149110000e-001) (13, -7.85274952650070190000e-002) (14, 2.23319202661514280000e-001) (20, 5.54539024829864500000e-001) (22, 1.63372501730918880000e-001) (23, 5.42570948600769040000e-001) (24, 2.15639293193817140000e-001) (25, -1.22115962207317350000e-001) (31, -5.14516055583953860000e-001) (32, 4.35942709445953370000e-001) (33, 2.50952810049057010000e-001) (35, 2.04803690314292910000e-001) (40, -1.27956733107566830000e-001) (42, 6.33365869522094730000e-001) (46, 3.65087598562240600000e-001) (47, -8.76677185297012330000e-002) (48, 1.88211977481842040000e-001) (50, -5.86060225963592530000e-001) (52, -2.96120464801788330000e-001) (54, -6.16328358650207520000e-001) (56, -3.01545411348342900000e-001) (59, -4.10727769136428830000e-001) (62, 7.48482763767242430000e-001) (65, -7.99494624137878420000e-001) (66, 8.04698228836059570000e-001) (67, -4.13605451583862300000e-001) (68, 1.83339118957519530000e+000) (69, -1.44110664725303650000e-001) (74, -8.38741207122802730000e+000) (76, 1.47767201066017150000e-001) (77, 2.03055977821350100000e-001) (79, 2.40067553520202640000e+000) (82, -3.87754946947097780000e-001) (83, 2.28271767497062680000e-001) (85, -2.97425806522369380000e-001) (86, -1.25949606299400330000e-001) (88, -4.93981927633285520000e-001) (89, 8.71620476245880130000e-001) (90, -4.95926469564437870000e-001) (95, 2.09763213992118840000e-001) (96, -1.44803717732429500000e-001) (99, -7.14424133300781250000e-001) (101, -2.93634146451950070000e-001) (102, -1.20934069156646730000e-001) (103, 6.17638468742370610000e-001) (105, -6.77885413169860840000e-002) (107, -1.20837897062301640000e-001) (109, 6.72706544399261470000e-001) (110, -1.51389312744140630000e+000) 