solver_type L2R_LR
nr_class 2
label 1 2
nr_feature 5679
bias -1
w
-0.011309232887681568 
-0.040234074250190967 
0.020535248574616791 
0.0035374382834727704 
0.016453022529930965 
-0.034286787862577127 
-0.00066682728535910727 
-0.020116811185569249 
0.0028512914954326924 
-0.023027716339233794 
-0.50598549380088897 
-0.095013809367533647 
-0.19890966689005954 
-0.061544274271659552 
-0.0047635370764078063 
0.048767611586537446 
-0.0023211742421185857 
-0.080732702438144857 
0.024099372816575183 
-0.044470209444960135 
-0.13350251523187887 
0.0057673660094741137 
0.010488134154080378 
0.06435768271819256 
-0.026435443459567842 
0.0025524387577814354 
-0.071233174007370906 
-0.090314695298519432 
0.0020474985977827582 
-0.026805049073786825 
-0.031756094985621632 
0.016465619470713011 
0.0031344199934439693 
-2.5710409172753104 
-0.1384913619536243 
-0.051956056792656947 
-0.027949557801687251 
-0.05431410689916908 
-0.095898421118811597 
-0.036043111233358086 
-0.0095992827207675626 
-0.018314693770194748 
0.15022977008275326 
0.011854914061814487 
-0.013870364329702102 
-0.010128818907081649 
0.0037443199832200521 
0.0028167131920251638 
-0.019064570184541316 
0.035423158034846865 
0.00072946947949078351 
-0.011173905217616822 
-0.0058198804895103025 
0 
0.0024832454329027243 
0.0096678872248059135 
-0.0084283203530701352 
0.0049829101088824873 
0.0077390304149281717 
0.0015282258564353617 
0.0012000369128922614 
0.018491526116563347 
-0.0095555097044851128 
-0.039027499157591072 
-0.069642712790097566 
-0.11125111244160617 
-0.10654765109185971 
0.065976095518657865 
-0.010903338749749232 
-0.014036332149607733 
0.022554741624427634 
0.00094215302025438534 
-0.043305258225738677 
-0.077248111633049302 
0.0015503864097771204 
-0.026107105193140995 
0.021674655429098764 
-0.00056726693840280791 
-0.022353706672967013 
0.00075035056946526335 
0.0021561433713893695 
-0.028907600319654149 
0.0090611254593434588 
0.010298153527858836 
-0.02487564768031288 
-0.010504899122907857 
-0.020127870223120067 
0.0017153292589283905 
0.011339110377210642 
-0.0097306892757383183 
-0.01518572899151919 
0.0086078864034393812 
0.015160656852684478 
-0.74516911248584783 
-0.11942331132831942 
-0.0067364617878723542 
-0.031553932193326369 
-0.052790782875626649 
-0.0078358545926350432 
-0.02604694374134996 
-0.0096092997273017795 
-0.0063425739145392557 
0.0096858967481293374 
0.013035942726518535 
0.4536719163374629 
0.0098465176236524985 
-0.049580893405207813 
0.0027963973133405223 
-0.092734500901184333 
-0.012902388031945948 
-0.020877925296837966 
0.026222598163061894 
0.22143600303140487 
-0.61366212254297936 
-0.035108739236795743 
0.0056195696042797829 
-0.065507605486147771 
0 
0.0012494286827934916 
-0.063692465024824771 
0.003321919934744978 
0.015858803223769841 
0.0069018509840340263 
-0.013426269262435462 
0.0042266146730873567 
-0.0027533668957774298 
-0.034418655046557146 
0.062255844057001755 
0.013858275133764511 
-0.01852650855710461 
0.019274706064293705 
-0.010171767852289772 
0.0093290420672296776 
0.03213866332720397 
-0.0098837421607769968 
0.082167959000535556 
-0.062906609491097998 
-0.0056852723449506183 
-0.010810682495585245 
0.01532008062841856 
-0.00022018085437382529 
-0.026948880637528289 
-0.001520858199979094 
-1.4263804901066226 
-0.07780902435184342 
-0.1754005709985958 
-0.039487758908124088 
-0.0274178009490148 
-0.0028663331352662743 
-0.87940370727637962 
-0.030921019554213027 
0.001421521991715028 
-0.017129557046848921 
0.00074627901701672589 
0.0016794665342870889 
-0.0093672655529024179 
-0.011099653726989634 
0.038211130035964477 
0.33811976736352273 
-0.0053892824028801021 
-0.009699808079566611 
-0.028911644826221342 
0.010135782364835691 
-0.00039844937115650158 
0.0087666070416950303 
-0.17220858668416225 
0.038515236148047347 
-0.0006089393061105969 
0.00050411775701736643 
-0.01942681892179059 
0.006294993686224948 
-0.032246474489362596 
-0.027140053512953507 
0.025584954544205438 
-0.48821742219896852 
-0.0083417423707436537 
0.0049504395047342987 
0 
-0.0091126823122975788 
-0.013899562753069875 
-0.035063791084795702 
0.004418770524769319 
0.050497793859107618 
0.75558263802702574 
-0.0013231951848898689 
0.0038933501106692176 
-0.00022223429244407698 
-0.022696250674874324 
0.0029778053520483983 
-0.0060470551123400123 
-0.10720251513916845 
-0.0047938238012862925 
0.0070282951619347559 
0.017261270542706347 
0.0030842534301274045 
0.0025900384216585347 
-0.01549849566085125 
-0.054243370488416785 
0.053880290283165891 
-0.0079712561583174871 
0.35427027642711434 
0.0046697368563734893 
-0.020086271204342157 
0.031714711493761927 
0.0032597138278378599 
0.0049193129756480592 
-0.0027117645513551635 
-0.0037772830583705942 
-0.0023867018510239629 
0.0093092769305192901 
-0.0058210847612598432 
-0.045776680025267823 
0.011044899658347835 
0.00046792801491819786 
0.0017421388249714111 
0.0010332944282198026 
0.0016673926043931772 
0.015540393854107753 
0.032015421063411875 
-0.027600402781839839 
-0.04717271974966495 
0.22173830187081794 
0.004831869120640488 
0.0022132446598876888 
-0.016028424116136225 
0.0047715958191845709 
0.00080555614298862899 
-0.013103574438611267 
-0.0033198942181009799 
-0.003370240619373556 
-0.017903387976392394 
0.0037174032559125878 
0.0015416256508657602 
0.039754296250805427 
-0.059477537988056835 
0.0034855494676485329 
-0.03487788041258387 
0.0085191420987101845 
0.0051514452287432675 
0.0085408130777142738 
0.018580602867634223 
0.0080793126867014509 
-0.43777542607210618 
0.012738897967878544 
-0.034048732838006183 
-0.00019267935275013375 
0.0013383756775077918 
-0.055452182399896133 
-0.15812464229154347 
-0.025707137119800393 
-0.010572800320547441 
0.0037903600476647081 
0.0015277532933031185 
0.026207041010579867 
0.0042090811100875484 
0.018157898398207143 
-0.0058892507433209538 
-0.01931871644919347 
-0.024728269717140164 
0 
0.016268713601842847 
0.00020912949119640124 
-0.020084365349209495 
-0.05536783554072093 
-0.048920139726301826 
0.012584376819608297 
0.035810261462753068 
0.015078504091981975 
-0.040608014390950825 
0.0045134790791854819 
-0.024505250738503206 
0.012325217016941096 
0.0017335208763656657 
0.0031792653447782187 
0.092236392224506747 
-0.0048754491994066158 
0.0036981047948200377 
0.0023615380321896978 
-0.027314554012043312 
-0.009142290089222755 
0.01015074452184692 
-0.11471821801281624 
-2.1542565732819541 
-0.018701139031766779 
-0.031633122163924006 
0.0088298871907920608 
0.011559214067539694 
-0.054501565918974704 
0.0013007264927159935 
-0.07241584746263513 
0.0090120886625181182 
0.0041930082864729216 
0.0043951006068931302 
-0.15317073053209487 
-0.0077502924205040246 
-0.032390514915080659 
-0.0036266910135467991 
-0.0051455848705524452 
0.0034782143940146983 
0.0004261643429569302 
-0.019377675233775999 
-0.00092717564406944071 
-0.07867071817309533 
-0.035867501554379067 
-0.034296041840165437 
0.0095807790646447264 
0.00027186718700514527 
-0.89365010983628457 
-0.10806122179269451 
0.01511265682586656 
-0.14113016462960321 
0.0099246611856875586 
-0.014713048273206072 
0.00063086049846970585 
0.034457100532793737 
0.23093084798868849 
0.0028237288033380356 
0.00075112401091622575 
1.3227412211537299 
0.021185409432749332 
0.017692449242047593 
0.0037294382186067814 
-0.074534336664488832 
0.071263859002709123 
-0.023701917771063216 
0.0026875718112525236 
0.0065055283268190649 
0.00019208948922789783 
-0.010816603727145739 
-0.0096032174720990307 
-0.0095065431591188649 
-0.0055381601319915196 
0.012381714234152496 
0.068364403884260586 
0.027777814624883324 
-0.010352747693968356 
-0.05829889845783686 
-0.0039728468428291037 
-0.0073033868335779985 
-0.18766823355475068 
0.010881802638038111 
0.019073022930720086 
0.20928517878475872 
0.007114119029873878 
0.0080385239791961119 
-0.020690338148472917 
0.0014216098172490433 
0.002522695703285188 
0.0029368671133465475 
-0.038101198235359339 
0.0097309724725060526 
-0.083438922455582404 
0.011863640389043632 
-0.045027321617532472 
0.036263991078211266 
-0.0046803528848892335 
-0.010938874568498111 
-0.01524927314865376 
0.0024441801798052109 
-0.22028457551230388 
0.13984661938421991 
0.0014235902808343325 
0.0046514914388306149 
0.0011516294252076915 
-0.20558575631169776 
0.016988589538822499 
-0.083189025432317709 
0 
0.025937868849486501 
0.00032167683501770409 
-0.011680453005287023 
0.074602308195852216 
-0.069517587104201944 
-0.10700675944130396 
-0.030878400117138081 
-0.062833963628623826 
-0.0028031115687903291 
-0.048416030345324476 
-0.015714760144581716 
0.0057077386935694713 
0.0066116875198320825 
0.017305679271418729 
0.25650605189314346 
-0.014296233397842951 
-0.040400383925676152 
-0.029255039514879927 
-0.02110368413371768 
-0.021092389871596971 
-0.039827668231362141 
-0.028716503308377533 
-0.016276840896965159 
0.042685719472875409 
0.013155585122810502 
-0.04327053729747108 
-0.01222348846947199 
-0.012039632107568135 
-0.00085439815600983485 
-0.36197008571925271 
-0.080508834360789733 
-0.00070754700032468754 
0.004652322200613671 
0.0062897576482169697 
-0.052327121275675292 
0.021759660586324534 
-0.1930042808713088 
0.024482599099164813 
0.012011203947773157 
0.0015927624929426684 
-0.00056375798567735074 
-0.038046326950004615 
0.01253333251155608 
-0.037252826698666662 
0.029962969425008337 
0.06228952850465206 
-0.023627709550435336 
0.04106274594025501 
0.0026699096476583846 
0.0024232155324041714 
0.0028679058868865204 
-0.023457364132583484 
0.017481008487503863 
0.26191239344293821 
0.0015259727544215862 
0.01934426616086132 
-0.023312830655308679 
0.056074535502221093 
-0.028554887858447484 
-0.010223399781894373 
-0.036017961755581467 
-0.0011377632614691252 
0.40355664028277477 
-0.007404066472166123 
0.0041894344904955519 
0.0022516895472706284 
0.0034973192934852839 
0.0036952864344751723 
0.026261575797777454 
-0.030242074792981067 
0 
-0.11251543298165843 
-0.0020880770401239365 
0.020496691694914033 
0.0016607748632014609 
-0.012519536699162613 
-0.070442996466059171 
-0.3223070999726253 
-0.0016559433594062515 
0.016670870763054395 
-0.40227774618461465 
0.018548201506549115 
0 
-0.085447793146745388 
0.051062615802160989 
-0.011925722328240369 
-0.0051712608014127569 
-0.022353049654524105 
0.023873360235791861 
-0.0098823934157303683 
0.0061562345506235017 
0.0022303027051607648 
0.00038302518346927645 
-0.037400769712417833 
-0.023564013540723298 
0 
0.035411838298516782 
0.046903382433879343 
-0.0050548329103593578 
0.024391554146647666 
-0.0021879800532933701 
-0.014182588914274997 
-0.0014446467135655733 
0.016235802686059252 
0.088490089996928922 
-0.088148644228452366 
-0.14648780444191259 
-0.016765024385022132 
0.067519312233162862 
0.014078719969824207 
-0.020225375480656133 
-0.039572428745121749 
0.0079297336292854376 
-0.029366218518967785 
0.0013889675770825064 
0.01569590290466347 
-0.01961214572092523 
0.00883950484386406 
0.004051141493165958 
-0.066364742405565641 
-0.011065585828865286 
-0.033980884773825833 
-0.088125055993697771 
0 
-0.41659450396580155 
-0.057727941880798959 
-0.039663550420476243 
0.0034803792222407913 
-0.054245766739213865 
-0.029731685980616911 
0.24628862827294254 
0.53188255420293429 
0.059198709900528265 
-0.057548647056556768 
0.027502290829433972 
0.1242981792335463 
-0.019551045466493971 
-0.023091219524748033 
0.00644250250074905 
0.028169500759582189 
-0.042821743357152081 
0 
0.0021196633045023131 
-0.068329037714788016 
0.08176176862346804 
-0.013847343373435218 
-0.21947641806717588 
-0.037102467021677417 
-0.014984711843304353 
0.01708730331163558 
-0.21084962484041633 
0.017537660717008595 
-0.028040403000062265 
-0.061874244428891154 
-0.034851297199683648 
0.23521380632231115 
-0.0107361833216839 
-0.0087459476871608287 
0.0031669040187933019 
-0.21846618573799162 
0.0022194115474353932 
-0.029819633699838598 
-0.036623126235814506 
-0.083389279832881524 
0.36043415133525142 
-0.0011533299747712189 
-0.031118717415497432 
-0.047068737180084114 
-0.012324630528071225 
-0.081620683966995025 
-0.15837719321893864 
0.0090728262199247615 
-0.005813552726424657 
0.0086005423788275658 
0.0018018850323521642 
-0.069032058992887183 
0.15206310840147896 
0.0098865158155708212 
0.003200183937585567 
-0.027175708626495532 
-0.0056341881830771707 
-0.01142874532969535 
0.020815146911130306 
-0.03265826150799199 
-0.030338310694432141 
-0.011019510376895207 
-0.067799691666617187 
-0.0076515541549740272 
0.20933692062666845 
-0.015620481543198436 
-0.011105078176488406 
0.10437273698684761 
-0.041675662055161516 
0.011166958792992126 
-0.029393445509681693 
0.011355603194518449 
-0.0031485677351287406 
-0.036066721569949556 
-0.0091230171367912873 
-0.004357117301990507 
-0.029457792743868987 
0.0022596584070043524 
-0.19017913558856131 
-0.0041412996395494769 
0.0047158479006600782 
-0.24701719196675315 
0.27760913097689111 
-0.013825312642485519 
0.0037947962103365243 
0.21743895432369609 
0.00071784824773606613 
0.0037576826316164606 
0.015183506057498204 
0.014019177088853191 
-0.0010349336965165077 
0.024106507053097873 
-0.0037011421778508414 
0.011767128970398721 
0.0048444012969851733 
0.017261906740405161 
0.0055772054401516218 
-0.29367535621947105 
0.14850761082516148 
0 
-0.041759752866294374 
0.0025629410512221572 
-0.020550555995164758 
-0.0036963786378072321 
-0.0030222961040072514 
-0.015920058955051289 
0.010118881845052477 
-0.045050392908984258 
-0.013544394868579024 
-0.09438092916362871 
-0.028074753202401981 
0.18976920604906322 
-0.30715971911846801 
0.0014539226718205251 
-0.096565258464419268 
0.032349995160167837 
0.0080802440361768032 
-0.0088698238000232601 
-0.020409494510206211 
-0.0024027756113586328 
0.0060503078428329983 
0.91356365480960067 
0.015339485607230514 
-0.046221351153718164 
-0.008196594418953226 
0.0011563162710111613 
0.019074437922675283 
-0.013901932385910103 
-0.024709954319902212 
0.0030386666901098618 
-0.013199145170895852 
0.017263809079274453 
-0.18624904301751438 
0.0022620628266548861 
0.08222768548181611 
-0.0044273594662822885 
-0.0094746271401959115 
0.011618386649158425 
-0.39620334042642164 
0.012920002140598089 
-0.017072881674043541 
0.00047016778724464427 
0.019811169610095877 
0.007685259753443357 
-0.0060459352337823308 
-0.011785739755503647 
-0.045006373936908338 
-0.080310044895193708 
-0.039577997155032831 
-0.016378424588694547 
0.0049743160663888487 
0.042804511990014907 
-0.019495914165744328 
-0.064279433551151718 
-0.0071094148963556907 
-0.061320548163926729 
-0.038325493217737892 
-0.28192468728984776 
-1.3170340004436811 
-0.049980805161228055 
0.0084197273005345626 
-0.057775978731884954 
0 
-0.017360602686081524 
0.025554867404752636 
0.00050521890977792377 
-0.0046864683468409605 
-0.0093537931452651133 
-0.051488111372788609 
0 
-0.032002397147416727 
0.032326278850723929 
0.0094012853972339841 
-0.033512240385277989 
-0.0031286290599497188 
0.014450447299870522 
-0.053254467903205469 
-0.025825664609866829 
-0.008747877683617707 
-0.017766207990963227 
0.00032203070011073431 
-0.010096767513151682 
0.0031731258540440132 
-0.0077419542794334821 
-0.044133765448306432 
-0.041567751464773553 
-0.048101648260393315 
0.045749804574641784 
-0.28042519578423541 
0.0041354245183996222 
0.80053447637207009 
0.055423792445620179 
-0.037535873470925678 
-0.01492712840250447 
0.014539967613306547 
-0.0053448323460657402 
0.0025107356693419916 
0.012014472550745789 
-0.022012996898589321 
-0.0099429405832069384 
-0.0019632223534158991 
0.050743594163546867 
0 
-0.033281052010286707 
-0.00071510451445697413 
0.017288630771529576 
-0.015772972837435905 
-0.024100868225942752 
-0.022779908674071925 
0.017576771735771154 
0.0056211338838001532 
0.013304578644765816 
0.21506205427806449 
-0.0079065347211541813 
0.00076523998581885149 
0.0040495379097037244 
0.020469074970525233 
0 
0.1256061156414611 
-0.0093368936757514294 
0 
0.026910374267763014 
0.0075428413675075875 
-0.020154857680319629 
0.28787551837787495 
0.010579829531268816 
0.0023473266509678862 
-0.01860762668066197 
0.0017721587425816615 
0.026356769200166181 
0.0059226966147488281 
-0.032454525635805649 
-0.35782731656159228 
-0.035441873211264734 
0.034749692074710792 
-0.080700104964048697 
-0.0062397059902592686 
0.0027504984871250093 
0.028348879374422247 
-0.052149212966099208 
0.0015281979347188234 
-0.25785132064104893 
0.0044900184704317926 
0.017442715303516515 
0.034965296196326622 
0.002879173012721364 
0.031789797856836867 
-0.0092702714843722108 
0.044662761962958618 
-0.02423824636235021 
0.0038550120299022167 
-0.065094309573207915 
0.0045567819808534091 
-0.12680141535544318 
-0.024421426700370636 
0.096899475515463893 
-0.023076789612938957 
-0.0031071704166308663 
0.0023924226839527937 
0.019422143904498111 
-0.00091236387768526325 
0.010015400491439666 
-0.24568873756360629 
-0.045255187192126421 
-0.12192148113749995 
-0.0059038972994496517 
-0.0083978431220895853 
0.0042907645431619103 
0 
-0.40730847238778239 
-0.0082537220319728478 
-0.027591738317151438 
0.0029463123558245079 
3.9882791129946474e-05 
-0.016760235473205858 
-0.018973904975966013 
0.016049264356580002 
0.00067749832360289991 
-0.0098771298607880243 
0.014760391591496046 
-0.0055201308570661028 
0.010055135213759283 
-0.041814687882802043 
-0.0044439525873991798 
-0.021333968720010987 
-0.17321353401382875 
-0.030514153635838256 
-0.0079538268116499181 
-0.0021287348044995123 
-0.010334350777458728 
0.0020197424958141538 
0.0033051183370027535 
1.2708241437510195 
-0.1353408156234347 
0.010258251333748289 
-0.021893335311740824 
-0.00091324742606254273 
0.038257988598630867 
-0.00013104555521317458 
-0.0090880475944343873 
0.013453355957881784 
-0.024397118576507369 
0.31281635960936954 
-0.12623475505615986 
-0.016021790526716654 
0.021463861140994044 
-0.22581511661197753 
-0.023282022748394464 
-0.021560895735166688 
-0.03688627683859648 
0.0019915686205760393 
-0.0036176257266824744 
0.025222408733415417 
-0.053455774217277298 
0.0022359008085640376 
0.0075831879100264014 
0.0049695594422813003 
-0.088979641097443538 
-0.027026613927850177 
-0.017601853308565882 
-0.041579912975492454 
0.0038012627846205271 
-0.088354107640244969 
-0.018216343527878459 
-0.0053099135027279924 
-0.070329108353693548 
0.001687110698889534 
-0.0029270927503454156 
0.00032694541824997538 
0.0056501276060959144 
0.043781249255644084 
-0.1898853585339414 
-0.014279934298030093 
0.022080362018713474 
-0.031647430177610104 
-0.0098665576667668776 
0.0045058029152962066 
-0.12364722750278181 
-0.15945758445762734 
0.028878399493362066 
0.0090060800721032692 
-0.094948831879355419 
0.048751010617021411 
0.0037587116517747259 
0 
-0.0071339182044152533 
0.00023620253603900406 
-0.0060784579867219262 
-0.0051373540436236136 
-0.0059420045118080966 
-0.0045356702667686726 
0.035715606718022083 
0.0018289048276920244 
-0.0025653141517190422 
-0.019692892972980616 
0.0070794672979617029 
0.7589279804859308 
0.0038504811297431522 
-0.012833557813688518 
-0.0085414561701132249 
0.0057492434829686367 
-0.028850081332649592 
0.025364617887224456 
-0.0037741874436755022 
0.017311263124398121 
0.0060479914082031795 
-0.0096666905066815582 
-0.052811133107231636 
-0.00082340581829473279 
-0.047506681900285383 
-0.064729592586338577 
-0.0090050133111988419 
-0.044930621344579903 
0.003341416514981608 
-0.020785485898043014 
-0.28896820606177381 
0.0041117034234309817 
-0.007527945417490846 
0.0020760651656311548 
0.0048333933274865111 
0.0024471529596663084 
-0.036686483810330642 
-0.032325114663878912 
0.0098888620300242661 
0.0043141682569699568 
0.0055864789943794952 
-0.021936634261974435 
-0.0044524602872876799 
-0.024636372959772963 
0.0086708178681354567 
-0.16010905542474524 
0.0094281677434382843 
-0.04764398373607056 
0.00029359756150298239 
0 
0.0036487291990156974 
-0.025796752157476722 
-0.017624286338363385 
-0.1134830877155722 
0.012314750677966309 
0.0075886808896321592 
0.0062449353360773978 
-0.020403559959135533 
0.005911350958621729 
0.010273628372833786 
-0.0060146214254090001 
0.015975838032963645 
0.0073459210176773258 
0.0051507795956551011 
-0.16441789325639053 
-0.013390262420868415 
0.0020290941766203268 
-0.32752626485810565 
-0.017108327595228588 
-0.063634652386561005 
0.0011724155689958953 
0.029160053988665124 
-0.077437994415989725 
0.0012755499764107992 
-0.031234597947453323 
0.0036969331650892751 
-0.010961691849901541 
-0.062327742358713849 
-0.0015011584821729182 
-0.037341315899145092 
0.016736228714564195 
-0.0089065955091368089 
0.0005939237011793662 
-0.080955950341105781 
0.004722746850283452 
-0.0066676804056363453 
-0.00019146126786110767 
-0.017692863317044151 
0.01079714874026743 
0.0065738040401683521 
0.003327608629498352 
0.0028296718926579998 
-0.24049911843294308 
0.11297480791163947 
0.0084811809934003061 
0.015735369123276582 
0.030167113795522699 
0 
-0.041420956456568875 
0.0024277812194955961 
-0.013373066491533072 
0.0035483569652883015 
-0.03742973195253 
0.0035859617673296117 
0.017062260053034944 
-0.021791632804577424 
-0.042837954527616552 
0.015996484383757798 
-0.0028987020038093959 
0.11868586635818064 
-0.013659445651856932 
0.0046364148725264991 
-0.091062682619358903 
0.0047922632989018787 
0.017774931670605273 
0.0070403356958076372 
0.00043308000712298002 
0.0090169773229307713 
-0.84256266112458122 
0.0045090740694825309 
-0.023065912942603756 
0.022390810358566399 
-0.082460423585457951 
-0.0028596128553799744 
-0.16034588673040498 
-0.022859190335001969 
0.004629936989132887 
-0.11094771805403535 
0 
0 
0 
0.005322420974255746 
0 
-0.20233709614660234 
0 
0.061479200783204214 
-0.15282606681615246 
-0.037134584644300063 
-0.00090579981358707249 
-0.019521811081841544 
-0.013730974745974928 
-0.0062438045607912506 
-0.008568132582697334 
-0.020055747947629418 
0.012418128994130849 
0 
0 
-0.040046307044879784 
-0.0077601871624394603 
0.001306691004097517 
0.010850040103480998 
0.0055522316765952151 
-0.039887191254980525 
-0.28762069491706321 
0.031934516875785003 
0.0063829883809438668 
0.067809342331591596 
0.0083092711447775424 
-0.0055602906909841803 
-0.055786788787235406 
-0.028466432078202319 
-0.039388510349853079 
0.079323032417876527 
0 
0.0050008157610588041 
-0.047272449475463447 
-0.086759921098972514 
-0.037610652690945004 
-0.012233890121448768 
-0.053244884138734662 
-0.060617684806722832 
0.0017523849952187477 
-0.19600808818717269 
0.0078449538480286837 
-0.011075393972484563 
-0.05622164965244629 
0.069701321980820102 
0.0093410490068209749 
-0.026868358927207372 
-0.0288273930824888 
0.037176317661207291 
-0.039763316489261034 
0.0037841608944046952 
0.069525469282890787 
0.0042570289765118917 
-0.052346629603316652 
0.053431769677890081 
-0.0077564237377165755 
0.0057679182359945784 
0.0078295727169137418 
0.0033868842571481233 
0.024830143262591552 
0.0064303051820979104 
-0.039111044390161664 
-0.070203991822783127 
0.056073826854056805 
-0.069178220436564755 
-0.076082251535540268 
0 
0.0024636469686295406 
0 
-0.030505452566200599 
0.018208957058226845 
-0.036011692715269772 
0.003668046788098984 
0.027968704372786077 
-0.041599170548789491 
-0.0026920495797375979 
0.02122822410992789 
-0.0044967281258601315 
0.034020857136508834 
0.013341081916992072 
-0.078770214350008444 
-0.017800014479795911 
-0.00061000859073558024 
0.00078496233651228803 
0.014877557577552339 
-0.026705525137600591 
0.0037231652570235444 
0.12963885481184828 
0.016477467129320227 
0.021302547062868847 
-0.022401050535881723 
0.0063539622522849563 
0.00095236502094385369 
-0.016423707947970746 
-0.019082069594923572 
0.004107671943994742 
-0.022978052144046714 
-0.12459720148167734 
1.2891503942385103 
-0.0068671598524233657 
0.0050832682561568962 
0.056708838319133793 
0.010129978799652087 
0.00036496301654893035 
-0.18957357626574942 
-0.11094771805403535 
0.036209017615366053 
-0.069406901369361271 
-0.09088962770493432 
0.0080655732360627695 
-0.0048021052241897268 
0.0070021928011184693 
-0.01312083674378953 
-0.034605749880973945 
-0.0081951218798188702 
0.086685811037424176 
-0.020423540204589502 
-0.0037369022302509883 
0.31384835177888448 
-0.030364613346873855 
0.001756366309544679 
0.051177949270791799 
0.0086342564376040692 
-0.0090769408819841441 
0.035372798295747132 
0.0083913783037409088 
-0.0049457103323464879 
-0.0014915772544449603 
0.011590609369915227 
0.13275283431229909 
0.014095626403815249 
-0.025336697069742137 
-0.12792193628864321 
0.14641723484275007 
-0.023418461858206487 
-0.03775762042673611 
-0.02820296982264419 
0.0059938296607937322 
-0.03304081779705411 
-0.11642909069995046 
-0.10087025018488685 
0.018240442702152287 
0.0026483710105152866 
-0.027798539787715789 
0.00071996101368221224 
0.0079412605006893879 
0.033660452651577903 
-0.022724373469899774 
-0.0089415881499005662 
0.12040428621490797 
0.00042851863816901884 
0.097267595358278378 
0.0012553978546096995 
0.011447577138199985 
0 
-0.0010777553191329288 
0.017125111997609205 
0.028612474648232928 
-0.011627232722485632 
-0.032888053125917006 
-0.066562098902599551 
0.10362993511053156 
-0.06409167582330548 
0.0096591996413571742 
0.0083956911189783413 
0.069617695431146945 
-0.026131969554645772 
-0.017062610853415771 
-0.0024279471166198914 
0.0019036153112521196 
0.0077132894968667109 
-0.040946793839890132 
0.0093117688307761334 
-0.085210253527143495 
-0.027631683807407038 
0.0050521865585715703 
0 
0.0091438830641831729 
0.0028861792686853812 
0.012679979116570265 
-0.16247394339482649 
0 
0 
0.0059822079882944287 
0.016482027526946944 
-0.12602295276011963 
0.030550486847024584 
-0.0091851879383542442 
-0.0040822704826667128 
0.5210530169009927 
0.0021474924786130077 
-0.016128460342189659 
0.04575322337913925 
0.0023161010926252808 
0.011048384514303573 
-0.030048388747507104 
0.0027566241063497138 
0.0021424423456439042 
0.025657267019220702 
0.0030069893876376796 
0.0082146292004890813 
-0.19480320827818165 
-0.13181401273551863 
0.0013354560639321869 
0.010515291975636104 
-0.01361650023934829 
-0.034283759814983182 
-0.016435336517403108 
0.011791775790438034 
-0.0048402876018771822 
-0.050519897251064587 
-0.025386770100777681 
0 
-0.00036392538606926545 
0.15807239792361999 
-0.015407811326895938 
0.0034934004919290455 
-0.022294728868960296 
-0.012414305181632595 
0.0045518422103208384 
-0.019270398404843764 
0.0037950568091965732 
0.11350100415787812 
0.090651686631427142 
-0.013121473747474979 
-0.010255855716470587 
-0.016774537860765094 
0.0055769013604135935 
-0.026548072209067759 
0.002371869664212193 
-0.040128824911978896 
0.0086768870299563355 
0.014544282258894117 
0.049993014013239023 
-0.020804908049910337 
0.014770145634292185 
-0.018433511300273375 
-0.10509484253153473 
0.0012559411082016217 
0.0022705706806033081 
-0.036657770113137499 
0.023752526612211854 
-0.034120090077360304 
-0.003225280449690155 
0.01252633946777066 
0.0075320513059490418 
-0.006156267412530475 
-0.11572799752125054 
-0.0052392118867132667 
2.0671190473597707 
-0.013467590334572276 
0.0021327756165771261 
0.0034333897549331119 
0.0022413144076204095 
0.0048034734268344792 
-0.018712695650605203 
0.030724387231598326 
0.016468379466180696 
0.019643546405947069 
0.0011512251599564095 
0.020584867988523287 
-0.023188154751700777 
-0.35700505195420712 
-0.046310207423652487 
-0.18785141757837212 
-0.3352120119127357 
0.092557554506039641 
0.0012649569800095674 
-0.011970113171849549 
-0.017039870118237096 
-0.0038999591711038071 
0.026912794161648778 
0.002657018681682501 
-0.029118551366907573 
0.0049695878400446078 
0.0074251063556145915 
0.00075988533969054606 
-0.0044575835806467661 
0.0031392328927796857 
-0.32203188771183155 
-0.072931694972868527 
0.0019779662737300923 
0.17241606787195271 
-0.0061396247791629553 
0.021023075639678247 
0.002109046197882066 
0.16196065110209723 
0.0010751346262508777 
-0.0031750329522204301 
0.017566322820994171 
0.00670553750829893 
-0.011513846759033931 
-0.12591931917908092 
0.0077437928251131057 
-0.014236201800552496 
0.041903193533885962 
-0.009405062342654728 
0.0004249011933155928 
-1.267757749527439 
0.13826691895264445 
-0.11862825157905203 
-0.034148426384377352 
-0.028965053038103313 
-0.0033148968677304352 
-0.046228194936332137 
0 
-0.021887025835580869 
0 
-0.010796533572251516 
0.027635811023399921 
0.0016445509227519979 
0.0049871045536040845 
-0.048027792817111906 
0.30887508903192351 
0.022535130196980998 
-0.025385601517943605 
-0.088171090691920265 
0.0044363361182216078 
0.0048244895587657493 
-0.075019659081036555 
0 
-0.024554772439976377 
-0.040401776529081147 
-0.023370413006198638 
0.0033278418866675747 
-0.0049813703544198768 
-0.01417080435476901 
-0.041645671356686169 
-0.0036364832136920461 
0.0094673327063995796 
-0.013235331114073882 
0.044176412582704917 
0.66273883572514125 
-0.004163764732265509 
0.0084040916917264997 
-0.018759215061030444 
0.001273467223490187 
0 
0.0018361030257282986 
0.005688776894353079 
0.014759230096410754 
-0.15103776800913415 
-0.022330950736392713 
0.067131117159916057 
-0.052592194164788927 
-0.20058938317613406 
-0.044524378021868864 
-0.078206990187584424 
-0.0081593854014638898 
-0.057098734472085251 
-0.054814895726653275 
0.0090904579070632645 
-0.094991249005882475 
-0.090434763740737459 
0.047897024426608294 
-0.0058736358482305833 
0.0020027057466166986 
0.0055729831979501503 
0.0097283280570688337 
0 
-0.054343901087000455 
0.0049525403995654364 
0.11971828268593962 
-0.077486528039888813 
-0.063000565439705239 
0.033146450476428904 
0.0020855775072502305 
-0.016762231383763992 
-0.506266568094627 
0.13635715217643185 
0.022573142366484764 
0.025614326951583569 
-0.091197721908170395 
-0.001141656586734725 
0.032630137407463039 
-0.029183150553841474 
-0.10578791867863593 
0.025017088555715317 
0.0050655736227945471 
0.021389404655536431 
0.31900067698858603 
-0.0027490574844390723 
0.0028218494532282852 
-0.0023005245923542433 
0.00032817222618759714 
-0.11237790598122234 
0.00029357664710760305 
0 
0.00040066830739452619 
0.00096690936718437758 
-0.013958769225677308 
-0.0045062574884976395 
0.0065594107079380666 
0.0071776547728765374 
-0.021276282962947125 
0.014038353004493296 
-0.064484630954261365 
1.9780309291927927 
-0.019835766590218275 
0 
0.0031005188014957348 
-0.19573514353232691 
-0.23974843937996149 
0.017764032655222178 
-0.0029010062215480883 
0 
-0.063931943324063129 
-0.0073619780730543524 
0.0020825515407649027 
-0.057525175642001061 
0.0013712124625465671 
-0.077820468535600609 
-0.029041697981385419 
0.057476878659228375 
-0.0030622182589479883 
0.004369263878909342 
0.014752487523822241 
0.0023456614546658863 
0.0045447286055799339 
0.0043106997380029377 
0.19888530199322874 
-7.4007760816429739e-05 
-0.021719818097994684 
-0.16722061374755878 
-0.0058260745332230903 
-0.045074831873806384 
-0.014287184533287553 
-0.10381946271697841 
0.0089290600248048326 
-0.16691014738113541 
0.0032714512100102816 
-0.031138657638596141 
-0.08627924460026265 
1.4658289039466337 
-0.029488560713096228 
0.0011604562313591101 
0.00097394849048758531 
0.0086796157669704142 
0.00070616048285184895 
-0.018381032268068857 
0.0064269152440388057 
-0.017072756918055512 
-0.097449404883060267 
-0.067727717266469561 
-0.0076616355894946883 
-0.011633251330062421 
-0.460753487001197 
0.0073553585943541937 
-0.044516762949389055 
0.0039970913572053429 
0.011452808472258713 
-0.14924951990716431 
0.0044015409024775014 
0.19740176799510017 
0.084766568423009406 
-0.043502334617145297 
0.0063081343391947113 
0.0078945733567015539 
0 
-0.030680303600397231 
0.10730575993002481 
0.01102307213727575 
-0.058880619211047529 
-0.0716763176491753 
-0.0022946730196085558 
-0.010038043431656344 
0.015722504078155512 
-0.02149877297118033 
0.21530180687291506 
-0.044276279954084098 
0.0040583583729929592 
-0.23825987390058376 
-0.0022430735694529348 
-0.10677197484055187 
0.0086230912818299026 
-0.013092568094620999 
-0.0081509182787977384 
0.00064305855406683317 
0.076663906598622725 
0.070136912134429713 
0.012581466612303553 
-0.31193206238378374 
0.061226830253941184 
-0.055660767160985759 
-0.010562779196501436 
-0.012474665923584463 
-0.20180546925920362 
-0.018402578318067377 
-0.014798593291401974 
-0.013292003441157179 
-0.015088975476907036 
-0.012436179049252224 
-0.020964685377371926 
-0.0047071698119194958 
-0.3299565712187767 
0.0023395031035148475 
2.7518225186199272 
0.039207519817175795 
0.00025682520415396833 
-0.015399042731665079 
0.093253845456121975 
-0.0070822452699237093 
0.0037925733779221615 
-0.05749981192229138 
-0.0061391460772164232 
-0.021348308501634314 
0.039318324068331245 
0.028416447629447263 
-0.064225051935463601 
0.0001725737113118023 
0.0056002052513898608 
0.059886046014761267 
-0.058515468463495666 
0.22127822798720087 
0.0011064645618145681 
-0.015972426480467823 
0.015670877253907676 
0 
0.00065545608492992844 
-0.26218369618322873 
0.095888259898372047 
0.0050126863391444457 
-0.31018741020950352 
-0.0021817609424495538 
-0.067364291140855515 
-0.0050967255028508181 
-0.08299112142836583 
0.0051873717658105778 
0.0048489111813312087 
-0.9150589233863623 
0.015089993159393741 
0.0053543741984945067 
-0.08450332253605429 
-0.010196691285246794 
-0.01114700757981219 
-0.059997647382786047 
0.0023693510396974606 
-0.0067459463833037091 
-0.036046522190656703 
-0.0075177346824583753 
-0.0059476314632454065 
0.0055052994671156118 
0.10316076065884913 
-0.024726993453516973 
-0.10781625622790314 
0.0058227217978179839 
0.0021238641240669512 
0.0063516161578842274 
-0.028620357514763987 
-0.019393777709308363 
0.0019177847864538906 
0.030840223099359555 
0.0050438579649831616 
0 
0.084859289496249476 
0.0011487921162169296 
-0.0090474731515975213 
0.0062086942111878353 
0.00478587061714151 
-0.012335312762411933 
0.0052658324351193744 
0.042920018454578615 
-0.037542609965558298 
-0.10447388860200885 
-0.040484194641462717 
-0.023277482177188641 
-0.032301674646788202 
0.0089156324566997194 
0.019934555384221966 
0.0083521624767774125 
-0.024631973123271048 
-0.1397795799378512 
0.031828425173020307 
0.062185124860402896 
0.13678138508397444 
0.012704614406608061 
0.043506405560451634 
0.0051999409009173044 
-0.12733015431029052 
0.0012957616478552975 
0.0025793736513964566 
-0.060719216435070535 
-0.0032656043203670437 
0.056171102645688059 
-0.039213836140723123 
-0.0019405313790867083 
-0.018401083905974711 
0.002507090038151564 
0.0010017016745060931 
0 
-0.019733007348808295 
-0.0066596416257651368 
-0.0019493172238716195 
-0.084119305409953743 
0.064953495948687101 
-0.015649974583255951 
-0.045155183201591384 
-0.0089908545787459344 
-0.26032454058084409 
-0.14349273977264859 
-0.06097665853792697 
0 
-0.010556101076243381 
0 
-1.6448930311387455 
0.0026147781772296185 
-0.014493225513071847 
-0.042644971324125681 
-0.37109918499428746 
-0.043569012812870477 
-0.013693272068335174 
0.0041546170752512906 
-0.075479142873820557 
0.049900305508714923 
-0.0053055079462870167 
0.0026654491762100772 
-0.043919214952754672 
-0.13545603353494051 
0 
-0.011403529058287856 
0 
0.0078044801523980923 
0.020718295371729586 
-0.024899437105712918 
0.0093752114599477913 
-0.039945471853506422 
-0.0091919770439694709 
0.0060627246243551694 
0.001770463736485059 
0.0016000531200728711 
-0.015547405088646278 
-0.013826453431457431 
0.040468106525298399 
0.092105407450611451 
-0.0058817478881107157 
-0.018837961823331511 
0.0016879989225391833 
0.00095947366078667155 
-0.0047200998887972903 
0.26418767841229107 
0.00075745357716368875 
-0.060519136364245843 
0.14726250464063825 
-0.012801869548917785 
0.0068855858014606518 
0.029047939609686525 
0.00039336534880637404 
-0.1646150725894612 
-0.012369050472570026 
-0.042443878773251009 
0.0028257138158322187 
-0.0047066977564473259 
0.0022558246701910542 
0.00471230566484799 
-0.16506578578331785 
0.00449209595522329 
-0.034534457863827549 
-0.010438929546364391 
-0.072234234553970281 
0.065086837227236724 
-0.013968453568613695 
-0.038791098296157164 
0.0037700495320390575 
-0.049987711828005883 
0.0009994877330239411 
-0.10045680941483313 
-0.00041273921034383509 
0.027381162882596025 
0.0031042362600678403 
-0.01888028749023268 
0 
-0.01229170475394648 
0.015797787016136461 
-0.021597606722749584 
0.073858845285790536 
0.00073763353691872033 
0.15278040570479262 
0.0068987610253962292 
0.0077359722024930612 
-0.0029989811496131725 
-0.062445131476286581 
0.026122655734090488 
0.028919538610912551 
-0.011366171132886817 
0.010933853493689364 
0.036330488020200002 
-0.10918137470092773 
0.016272663722329359 
0.00030632002962283289 
0.010049888832133622 
-0.076920608576252492 
-0.03793682538227048 
0.011767762505250315 
-0.018237674255449574 
-0.74218094215604502 
-1.5757425622423118 
0.023788414986198672 
0.13313147415547827 
-0.1940214533387403 
0.0025049856146721955 
-0.015575343627640551 
-0.021239374045871451 
0 
-0.042519558287922941 
-0.012592822551992454 
-0.017761111958100484 
0.017870516180129567 
0.0098860296037493987 
0.26845613327270523 
-0.0090717898395970328 
0.0024402953594176882 
-0.005139761223372237 
0.012778952788851914 
-0.032622576532234923 
-0.0022633906505875275 
-0.41930285556095076 
0.10920144776225575 
-0.05975765682947657 
-0.009504744714144673 
0.013958606502568348 
-0.012637091823298864 
-0.074068260478395737 
0.030073375713482585 
-0.036359681189986108 
0.017361022959511672 
-1.0079593842745187 
0.0081115777953355925 
0.012528582880939183 
0.0034847446785225382 
-0.014847294397770017 
0.0001655199850581581 
0.13312426527515339 
0.017678716205697043 
0.18685483908307934 
-0.00085217025884135923 
0.02663647957380199 
-0.0089537908789693744 
0.0100069270178755 
0.0014322399939824101 
0.046159009102384983 
0.0058421599364943738 
-0.071628762564068124 
-0.03150908484113104 
-0.0088829414758390488 
-0.01993599266280225 
-0.013097817744424946 
-0.0012743143117842799 
0.0092904102784293879 
-0.0031437714842425918 
0.0035850984178436508 
0.021563837143994648 
-0.023246870361783432 
0.025264548826968544 
-0.012091411696802334 
0.0051819879683670505 
-0.010877197720912512 
-0.046648140471063498 
0.015002758000440958 
0.0059967952399597605 
-0.038477271110299666 
0.001758944823571765 
-0.022575253374555224 
0.0043545913259135189 
0 
-0.026533649778445398 
-0.044548255218692115 
-0.074929126903540144 
0.0035474281944427042 
0.030855865731436869 
-0.071883673039980139 
-0.017866138266635686 
0.42750822507973657 
-0.040021278408256297 
-0.029701736456982236 
-0.13996802798528529 
-0.028750399985903688 
-0.0078130256294578967 
0.011959395636125853 
-0.27420426834005301 
0.0011280042771896774 
-0.25425354897068236 
-0.26564889830780641 
0.0050508320203959574 
0.0022186600251419223 
-0.018742209948386629 
0.0063030758475160235 
0.0097162143959024557 
-0.24556116208782899 
-0.024679624825492574 
-0.16063426560335436 
-0.0090150228765814369 
0.022013061310384531 
-0.021481632058051817 
0.010644681710296665 
0.0025926852525218367 
0.0020128641382796486 
0.0022363432951961319 
-0.0090921041409852653 
0.0403437759159107 
-0.029428682071561713 
0.021314957489035558 
-0.15101158149011454 
-0.013900208405231151 
-0.014949538888459497 
-0.25949237295233313 
0.0054727436655095324 
-0.10257708004247514 
0.0017819518246160069 
0.010596274086615115 
0.0075035779337846702 
0.0094625333711093156 
0.0025666421388564594 
-0.047804581540002875 
-0.00061354397472723375 
-0.030232869198453777 
-0.04884617980708187 
-0.019656620063986559 
-0.0095678936993392402 
0.024752911097577171 
0.033918100658342436 
-0.020231106070943208 
-0.0066217294328375607 
-0.010587543707105492 
-0.32848612081141876 
0.022733123847550839 
-0.13095786175571197 
0.0035154814967102042 
-0.035433760464864475 
0 
0.0026706977349662754 
0.016612682550038532 
0.016432854834893155 
0.0081191574940370301 
-0.056574316265238025 
0.0009994877330239411 
0.01158088918419849 
0.051565491355997688 
0.030766712932783994 
-0.0039121282267396097 
-0.022635489156063726 
0.038146529335316946 
-0.17751900460392642 
0.0029445077528089851 
-0.032428692420864172 
0.0090960088413910792 
0.024160763222493838 
-1.4723345557626346 
0.0052880002612509733 
-0.0099190043137932903 
-0.04163608985331084 
0.0040313305060991032 
0.0017488704219342499 
0.018764540513534784 
0.0075731134284588815 
-0.0055067273412633747 
0.0054541021822033207 
0.0045553131212946888 
0.024854163559160192 
-0.022432870565427459 
0.009677598984193873 
-0.0084709386866736892 
0.012293835995654378 
0.019429916436028913 
-0.0074780737369170378 
-0.11347479913130377 
-0.12277683471880704 
0.0011392442470438602 
-0.035164585000770195 
0.25333780651212817 
-0.026027152805943293 
-0.017007000348973417 
-0.024458472784748334 
0.02689552937229062 
-0.019214901935086803 
-0.069342421220979278 
0.0061697837851505868 
0.048601754456360328 
0.12157202462179745 
-0.0082128778949119626 
1.4147923857003442 
-0.24510189568186114 
-0.0011807958714470279 
-0.032412699394825488 
0.0055737745919076974 
-0.0056105187610073918 
0.01128669936672023 
-0.0074236323156569887 
-0.0070149098041609069 
-0.32723609811336962 
-0.00034206540478333761 
0.012926253668912263 
-0.022324412307979272 
0.12350623950299316 
-0.032056321708968993 
-0.057901574348863581 
0.034693250910915331 
0.015655283983384307 
-0.015633478170313617 
0.12357724937167897 
-0.32188249251877021 
0.048748418413255078 
-0.62620281826899327 
-0.090236904027137591 
-0.01190677805840564 
0.016555111969187731 
-0.47998225471150718 
-0.023080178577140498 
0.013638321154516546 
-0.0052655247365372823 
0 
-0.12538171998503336 
-0.012849394887318068 
-0.050366395747166115 
-0.039712948862791059 
0.00080596357219487116 
-0.0044716829887069326 
0.00028310094490236094 
-0.05242418698354212 
-0.077063882560614055 
0.00085405612934730843 
-0.014834742929106151 
0.0060572417028679718 
0.0038029759355350766 
0.013876481242140071 
0.036065848543715619 
0.014083189384871546 
-0.44519009916187624 
-0.051766007632622679 
0.01395640654485376 
-0.009221154549901486 
-0.019408493462661752 
-0.031075981729202055 
-0.041210445506565621 
-0.028856843994068744 
-0.020697219496777879 
-0.023161799113068458 
-0.029461553523706292 
0.00083722568941027565 
-0.027047065734014986 
0.0055261998091448699 
0.014293072787671366 
0.018488645173900677 
0.016472347812579627 
0.0049493449132315421 
0.007881032418824872 
-0.013400944903648782 
-0.019641826984787284 
-0.97352395359307653 
-0.011687765943282309 
0.0037605276671464826 
0.02248099096835451 
-0.018854317655086005 
-0.23219738848876009 
0.056840170021297057 
-0.01522526310449181 
-0.11588657277327492 
-0.027545889322565596 
-0.030658741776557651 
0.002516323805331747 
-0.049724928659104481 
-0.0099675693234451638 
0.0023383190568985524 
0 
0.003885738657117522 
-0.02091848212519256 
0.0013358369915357517 
0.00082958877666495178 
-0.18619373440988243 
0.0035963311541809566 
-0.081297202847201891 
-0.0023080523978912014 
0.034025100100922835 
-0.0063899481185317889 
0.16178656199819208 
0.066794646398398091 
-0.019010457382575782 
-0.05192452143727054 
0.0019914004927484544 
0.0033934323640064058 
-0.0050238010985427586 
0.35122855584683554 
0.001147989106338233 
-0.02430176574901434 
-0.0039166171733940758 
-0.013445526449039489 
-0.033919956559192832 
-0.20273428864666471 
-0.042304582809095714 
0 
-0.048247357578188252 
-0.11344916266030614 
-0.024017413276018425 
0.0039240576688399312 
0.040135309023214806 
0.011084771787295979 
-0.019758316844058318 
-0.00505612452635033 
-0.012977194889522219 
0.07906473962218892 
0.00067094188492108518 
-0.00034917341123273898 
0.013468692225456399 
-0.079358608071943712 
-0.02462755970709686 
-0.012694511637276569 
0.044316121510325948 
-0.0090249328098587888 
-0.01799253931964593 
0.028674922092306376 
-0.040762293456801671 
0.0028678522947651179 
-0.0027032044404236037 
-0.018747727237261553 
0.0818959779132164 
-0.012638345826264526 
-0.022248539464014491 
-0.14094822081303496 
0.065336252038275061 
0 
-0.00900942675512088 
0.028310728940122872 
0.0055282486368049052 
0.47841538843392289 
-0.45085217206873701 
-0.080737257306507035 
-0.035421505465933978 
0.0042105158765058902 
0.021012357796291205 
0.0040470716387093226 
0.0036372712320383175 
-0.052507434207027914 
0.0012223348171764173 
-0.081018657801992841 
0.0070778799680779065 
-0.089073742891892835 
0.038428278516656748 
-0.0051675894713310343 
0 
-0.023568964452244254 
-0.030431795306441994 
0.0057830547726170191 
0.012546441252053033 
-0.039430060767475551 
0.0011350951783413851 
-0.06168416698064294 
-0.053625849114744134 
0.0099870790874424728 
-0.067194908313858506 
0.011124661152132171 
0.0036857416603392106 
-0.022485716829372952 
-0.001112087728372776 
-0.010233315661726083 
-0.034523419305270545 
-0.040494075261905439 
-0.024811350741619154 
-0.0051416370297425384 
-0.019950956706533469 
-0.010746092503226615 
-0.015259821321235368 
-0.0059689698174964379 
0.0035929772657138609 
0.014078719969824207 
0.011885855846936726 
0.031747111837048453 
-0.0019479255271365563 
-0.15029713120727917 
-0.019746775426294039 
0.0057039986551242136 
0.010081119352359502 
0.007752507064798915 
0.079843935493397217 
-0.036936678209190429 
0.0041033824233399812 
-0.045678220104199141 
0.0045521629293732253 
-0.28936648122467479 
0.0026930536695519459 
0.0064296370992316249 
0 
-0.023354731292688155 
0.088760008394899365 
0.0020977226724177619 
-0.026328751024959234 
-0.026423646662619427 
0.023523527411117066 
-0.035378957488469399 
-0.030336032146602319 
-0.016137802648490653 
-0.019084783814511546 
0.014478077622763088 
-0.0045164731818077494 
-0.11785940245374964 
0.018647035672829399 
0.003775922140354476 
0.022936295445752659 
0.030665024081754502 
-0.0070904874744851833 
0.014897826849842673 
-0.0045636748108697604 
0.012051123330399004 
-0.022078750683341048 
0.11959402978591062 
0.001153929779645917 
-0.19822948087630801 
0.0028743211805240384 
0.31251665413808488 
0.0019344998264898777 
0.15619241745098347 
-0.05329985437897742 
0.06035246425138116 
-0.009545018126467979 
0.01888852143200417 
0.0031080788480093622 
-0.6100911322504049 
-0.13286712060071032 
-0.043292104827436728 
0.10464657166125679 
0.057006238895057522 
0.0094303988769673733 
-0.024257120188294786 
0 
0.0085060672846850455 
-0.011198666401652683 
0.0081297930158067914 
0.011743329557651883 
0.025552292579358839 
0.0029009797751745553 
-0.1207730744253771 
0.012898105301035101 
-0.0016527698746558398 
0.034253721240542226 
0.19593977478330604 
0.01246097389390219 
-0.010277336444004576 
0.0070120627337670266 
-0.0023485828496267762 
0.0038537038602361102 
0.013664390381362567 
-0.080184010696090546 
0.0098938815760242094 
-0.18149091906575618 
0.00042018207644639388 
0.0021417817313059218 
0 
-0.1331200685211599 
-0.042086083103591708 
-0.010840182132454079 
-0.043656509775495761 
-0.012916031355113253 
0.006113318971111315 
-0.0064408962697134111 
-0.0021390372812787554 
-0.019474171365348552 
-0.0035639603103302005 
-0.034774895436715005 
0.021511481107003742 
0.0098848345558038425 
0.026707288034323363 
-0.2296267862867129 
-0.10307594940740109 
-0.0029565175294746795 
-0.43147747270327586 
0.0049201045177411969 
-0.0094790727737874541 
-0.085752711774896725 
-0.011868674344058314 
-0.044884558405965308 
0.013883841414285952 
0.0084936042086867138 
0.0019386513852654112 
-0.009440516333138407 
-0.026992679820712608 
0.010465332031715036 
-0.0025724490826203269 
0 
0.0097563296277972528 
-0.011588511516030705 
-0.0030465450355183243 
-0.35013993245564468 
-0.059903087211467532 
-0.0080998995170381144 
0.00073847442571456064 
-0.027872739605406836 
0.0010488352409572441 
-0.013953150631696049 
0.019820205543047986 
0.087452829436642135 
0.0011206589582313374 
-0.015841202358358952 
-0.39616211277172109 
-0.010261374452770814 
0.0029450855154165784 
-0.088615320681499021 
-0.013679007905433083 
0 
8.8569425728004741e-05 
-0.017695265666270752 
0.080997175308916994 
-0.030526813729307382 
0.018652379543692234 
-0.09400859244364887 
0.0053609610540006026 
-0.0029989811496131725 
-0.021736411796099444 
0 
0.0078365440036837486 
-0.0043584033295372198 
0.061385610045502595 
-0.39728205091320379 
0.013458322352210804 
-0.04850789739595459 
0.019178884212436405 
-0.02360789001323553 
0.0027786112644664065 
-0.12000474881168105 
-0.002161945544492166 
-0.010959075721667646 
0.0008635262315817955 
0.033116360063563333 
0.0079792368029575639 
-0.0031447589913991322 
-0.0061712577789629726 
-0.0073111115023227809 
-0.020902554401182202 
0.0079795097071776108 
0.042557356229462606 
-0.026137977700401185 
-0.022606900108013778 
-0.028488523255020451 
0.0022832362077959949 
-0.023633070673389961 
-0.060510281280554169 
-0.018115416773458997 
-0.0011869928678926566 
-0.005718340655747502 
-0.002839481071324701 
-0.053956534350449531 
0.012734923709442672 
0.0045652638994578701 
0.0062266882279952245 
-0.027111908660127044 
0.0041423417383082434 
0.0038935973505116565 
0.015928715264719423 
0.031584487063717172 
0.0086574320124175354 
-0.046462946287502922 
-0.059314039717066058 
0.0061879432554042338 
-0.020964594044152983 
0.041610168047160848 
-0.030313410728834055 
-0.012412769630936536 
0.0049261999816533637 
-0.0078949279042324558 
-0.011554959167997054 
0.00061891089985429359 
0.017106855625073445 
0.0081406027227425536 
0.0055166946831737085 
0.0096462959780534187 
0.0010456521497837494 
0.0026067563972134392 
0.059737858521062649 
0.038979781314378063 
0.05283755183192753 
0 
-0.00510813371546609 
0.0084221049195827812 
0.016375247639864747 
0.0030667600207655824 
0 
0.011352101404613244 
-0.028872219311165216 
0.0016545064623525892 
0.0061786328675073211 
-0.010767901977269805 
0.036276672214518205 
-0.019813025456981926 
-0.039136770247713205 
-0.34919618335645347 
-0.038264597522436418 
0.0054473993134632739 
-0.0089408036832702206 
-0.034869947432049749 
-0.031748672944359242 
-0.0029234294052254278 
0.012161809168068442 
0.12284151513875013 
-0.072281469739250509 
0.037159793627429112 
0.0018448719603674233 
-0.019818154237725458 
0.010979813363724205 
0.0043329179468535716 
-0.021934769099158119 
-0.0037349309179734789 
0.014310909435946807 
-0.026037610824805813 
0.018237103746277784 
0.015340852812124302 
0.0033030322291954174 
-0.0049506709320411256 
-0.026123824795750147 
-0.18628536764936995 
0.011349841325522598 
-0.037749158792942911 
-0.0054987124876837764 
0.11043288652309126 
-0.11460065675371477 
-0.011790848180913898 
0.020883752360659674 
-0.0082080158639408797 
-0.018662713395420864 
-0.079843819979570532 
0.0051281882265008568 
-0.00057692713233939549 
0.13044149343107328 
-0.079712341894928401 
-0.070960206121049835 
-0.0064760921302600928 
-0.0052070421096415053 
-0.0046906797316223171 
0.068248909906370669 
0.036385454042309577 
0.070312813562117493 
0.0042873200518261595 
-0.05322299212356954 
0.014669129527491069 
-0.72644488049337663 
-0.0038834511453651717 
-0.0297771464164482 
-0.18275946654862543 
-0.036475726848804638 
-0.015779864723426875 
0.0041834653656469545 
-0.01545263330588386 
-0.045444318249875118 
-0.061630546143631816 
-0.1010309367019325 
-0.061458125533786746 
0.015318066392075466 
0.067136526541667935 
-0.40595489805149565 
0.023515724946663749 
0.055126991543387988 
-0.072499979672444009 
0.017119227113709775 
-0.060575538989184788 
-0.0055074823469893584 
-0.0019437510911142115 
0.02637526791585898 
-0.015864395487948081 
0.0031549597241173621 
-0.0036347559093084384 
0.0014318287669600601 
0.0012882679859528353 
0.036965457046153158 
0.0051976424342338691 
0.0049697954256355051 
0.0030512913233024267 
-0.28222026384982241 
-0.11126878064720327 
0 
-0.065750660450291376 
-0.010035143924993953 
0.54345237743460373 
-0.028833311687087759 
0.0612429325753528 
-0.0013740043708096463 
-0.00039405907589490932 
-0.032398384667680732 
-0.0023838291170008952 
0.01101291822469664 
0.37696208006007531 
0.00040395578235310125 
0.0016355135955734383 
0.047846302372930298 
0.0019959763895212182 
-0.22567712576049609 
0.0052472094402841772 
-0.0086635245486390029 
0.024276170898945248 
0.02220585573743989 
0.00559042715110013 
-0.0060974314215355135 
-0.011790848180913898 
-0.016180756633653311 
0.063414116845432841 
-0.014185115940347314 
0 
0 
0.0083404090493225894 
0.010237281806540452 
-0.011625114696161048 
-0.050120329850112874 
0.00062852672078342439 
0.027043095316003771 
0.031604363557096157 
0.021799232937338126 
0.0081908891216523495 
0.0039774740042290042 
0 
0.010976779590231692 
-0.04958597098362872 
-0.005961571622246831 
0.00072088049335898986 
-0.029797059998854788 
-0.0010863130976317178 
0.027278475602292542 
-0.018687730995643522 
0.0014398284202697209 
0.0047170886582804071 
0.0011216370762467882 
0.072076957987675924 
-0.0057308615925500093 
0 
-0.008794179359630826 
0.0035943944546742174 
-0.0020982422640469082 
-0.010468221340691893 
0.0055616587498161854 
3.4715774903595659e-05 
0.0043402447556566233 
-0.17359213936295551 
-0.0050117029847664687 
-0.0010631452743417799 
0.0022575021875488235 
0.0043616289110338319 
0.0050077151204438583 
-0.03811001427103998 
0.026374494947713416 
-0.42009326436945549 
0.072555747726361891 
0.031797530411879174 
0.16820765747681912 
-0.024465879433283818 
-0.041791943582714292 
0.0034712924521285537 
0.057098036888918992 
-0.0049252398658022325 
0.0098365885144825922 
-0.0051414918741999049 
-0.026905880563186414 
-0.028639570713857327 
-0.032760377579612476 
0.0077448883642095359 
-1.7441403909336417 
-0.034280277977371931 
-0.007432415065345868 
0.0020442544726397018 
-0.0052259985642322936 
-0.11209753517849758 
0.011684065504240098 
0 
0.00048947247356822816 
-0.0082251925858850185 
0.025322006486484052 
-0.042308667664726927 
0.0021026997667029242 
0 
-0.017467628428947838 
0.011770587100557351 
-0.0062354385433449344 
0.012758976452553103 
0.043380626652599896 
1.031756261597722 
0.063490462241166251 
0.30171364438471659 
1.3221140667192688 
-0.071176225187091297 
-0.024441828933446135 
0.017471218558100132 
-0.064291474542270535 
0.0051852969365216691 
0.0037046374477686388 
-0.0016420627563819409 
0.010034556370636041 
0.0030268642724602334 
-0.04189510452360104 
-0.0086281834400956433 
-0.0030999554778931367 
0.0086151515253085412 
0.0046684381504653151 
-0.20037014578201381 
0.0049244718948083929 
0.00028275800389437487 
-0.011089727940515571 
0.035120104042983796 
0.012547511967225242 
-0.040199183095614252 
-0.010426590955788545 
0.0056521560386389282 
0.11503604314522423 
0.0029286282839278478 
0.084983760409364756 
-0.038561044175800016 
-0.018850276153308344 
0.0017699588832828465 
-0.050324062573115405 
-0.0083298267929346626 
-0.043858603861677656 
0.002708903529232639 
0.018469965341646192 
-0.04278682018974525 
-0.04769459552900867 
0.50793280567515087 
-0.017852847734583528 
0 
0.0069290977460811929 
-0.0090795272532884948 
0.019950905663028342 
0 
-0.066167727455425443 
-0.0050217736250731271 
0.0020119234937765783 
0.0029666714117780818 
-0.011379134717081218 
-0.040107202620778624 
-0.029177597946905328 
-0.00081477780909826856 
-0.015331236493413542 
-0.035681865934279085 
0.0039210503609314424 
-0.1079377075898435 
-0.029625226639729 
0.0067999633906968282 
0.085614038978331905 
0.005030816882346553 
0.0015845475393923563 
0.12891098035392198 
0.014542126163219708 
-0.036383781761748425 
0.0082718270474835161 
0.012600790782378832 
-0.1055377858869351 
0.0021652780573299742 
-0.0083577691908998282 
0.0018985489331908301 
0.032398951966870239 
-0.018269545166633528 
0.073531856821314426 
0.0011804846439065532 
0.0047595004568889215 
0.0049210489490667296 
-0.0047034575824235099 
-0.012634253434645554 
0.018731595554502586 
0 
-0.0078210227154026351 
-0.012117768887303065 
-0.014134030338425163 
-0.0069506899360740199 
-0.021650397235875623 
-0.17632041208745131 
-0.0019756601317140634 
0.029542840184179797 
-0.030175289902405294 
-0.017107337203388313 
-0.010054236772810747 
-0.00065979572757923028 
0.0049005783203150792 
0 
-0.012469047746287655 
0.029097799954920081 
0.0031656089249680833 
0.012347639079427509 
0.00080711050047553871 
-0.041235929267513516 
0.0028285294080877621 
0.0039287534754422664 
0.22494634256405791 
0.017173752663638093 
0.0031444846842341749 
0.0041478099621037731 
-0.059889654963070901 
0.0050512290939600957 
-0.042705303473721909 
-1.315860405622113 
0.040041054626573168 
-0.011335983874463326 
0.00036012434648964164 
-0.031914074774798955 
-0.0037679181983194085 
-0.01198658833628642 
-0.0078912056789525783 
-0.073432255144843708 
-0.005099667001593206 
0 
-0.027236004136841834 
-0.071177152903082505 
0.022836007055939314 
-0.037469992763384058 
-0.012264685503191174 
0.013352534841521525 
-0.026497552374427667 
0.084266837054813359 
0.0050829062381171439 
-0.0081282789314880421 
-0.24210651910969164 
-0.043280547415914306 
-0.048476994241689948 
0.00045976276771344426 
-0.051546396493880688 
-0.0091465368829009887 
-0.018576880311124404 
-0.0097540722530559034 
0.0014821243959960019 
0.017043027945164265 
0.0014001816003132727 
-0.0061013915890712122 
0.01332668864953197 
0.63415192680807886 
-0.035845870404829894 
-0.0053210137507137311 
-0.086662642597918227 
-0.29212487151182398 
-0.018084522793333242 
-0.0080343263817740894 
0 
0.026449516879888581 
0.00078092933067953213 
-0.029855101837027512 
0.0094815680491758016 
-0.00034683198195273725 
0.011055211439205848 
-0.019031573814097511 
0.067370766094843854 
-0.0063860130898781287 
0.0078978003793927342 
-0.04985730544012304 
0.0025722031068116519 
-2.6487020426547967 
0.015046587862688107 
0.0041397623349480961 
-0.2144987851340204 
-0.023207863523650694 
-0.022974175157480285 
-0.018098635645051778 
0.027636273033924273 
-0.010806226188993828 
-0.012632110801633787 
0.0074969628695889037 
0.0069600492075926812 
-0.016385459757332368 
0.040348371016287084 
0.037902270809061757 
0.0054630314358399034 
0.013539722868619188 
-0.0046412943374614215 
0.0069191615843728323 
0.02658730836562035 
-0.0038336592342703402 
0.0060874932112475934 
0 
0.087154877416208115 
-0.012318411880916856 
0.18261797777501476 
1.0075351258059979 
-0.0054192176571464662 
-0.011051617269335729 
-0.013941594093248084 
-0.004960117173032296 
0.0023940399042667632 
0.00029280632167563524 
-0.012454586117780402 
-0.041267517452521114 
0.012724240458896769 
0.06074219699730074 
0.017848209443692992 
-0.13193252166954977 
-0.029518278175896608 
0.015600473200436367 
-0.01175656345855936 
-0.078185155931598485 
0.047585197893326034 
0.0046624041908247052 
-0.033802214781461982 
0.097481040049131634 
0.0014716810565765413 
0.010327430616320457 
0.0053138358015035097 
-0.026522500835877701 
-0.073755548421491707 
0 
0.0065883004873244213 
0.0090203325287631607 
0.026401869943526515 
-0.01202913216815972 
-0.039871976927117442 
-0.026067701422662751 
-2.5682386147829785e-05 
-0.0047915755731275213 
0.020274460080708587 
0.011268677308573139 
-0.004487436552367643 
-0.0068762951725440504 
-0.010411657577525602 
0.0067090431990183544 
0.14776874213710944 
0 
-0.098940305733350081 
0.0093799266984540466 
-0.024976805524428287 
0.20711812591025902 
0.084333593297029455 
0.0094440410429090238 
-0.047053415836295041 
0.0062697541389933947 
-0.013195645703714162 
0.096448129551577347 
-0.036255211528102516 
-8.7993360234159325e-05 
-0.02728460546765539 
0.37977828381112094 
0.050558103567992764 
0.0067990527219352788 
-0.013936235832589707 
0.0030980364235310663 
-0.015288493537909864 
-0.010833635004808851 
0 
0.0014710172200970355 
-0.014813840594944857 
0.014755229979359023 
-0.071379197402859931 
-0.015814736508587147 
0.0048309428361544291 
-0.012588538334638768 
0.037533202117209369 
0.010588080222119406 
-0.018766523162336672 
0.010256136441985418 
-0.028395127524749098 
0.0087880141875649638 
-0.064520763858020594 
0.00029757702827470212 
0.03335991206732989 
-0.083956377673592333 
-0.014301364975329236 
-0.014500385737787523 
-0.031542707253791345 
0.040146847858570221 
0 
0.0016254607471388532 
-0.019312982466176069 
0.0098028673051422308 
-0.0021743441890248487 
-0.014838360547101404 
-0.0085530553286797158 
-0.015449276649744529 
0.0028627191532520509 
-0.03920564655562566 
0.061710702950524284 
0.051541303065817189 
-0.018383469037253249 
0.00096110847486919183 
0.021070711217384266 
0.0080705412352207635 
-0.0049586455725128846 
0.020653539432909884 
0.0020597878736704034 
0.0049478559699040582 
0.021878444602581867 
0.12447112287950783 
-0.036846582272053854 
0.0022865729522476654 
-0.0058995620894542796 
-0.021968742108579752 
0.014318107949990206 
0.025525699131035334 
-0.03462507774479992 
0.0079809449719504769 
0.01059924530644425 
0.01558984884284487 
-0.077491481462460959 
-0.011940676427987735 
-0.019240344658775443 
-0.005445305130641548 
-0.010802864731169939 
0.00073430820259417346 
0.0054282154151336481 
0.0083927942804521254 
0.11182777190837018 
-0.051096357404398177 
0.0060918123407955214 
-0.16150337009358504 
0.00069628950676295593 
-0.028979730576790628 
-0.013482715782243259 
0.36296705345808328 
0.049906445420077869 
-0.049677125846847886 
-0.026808824348027394 
-0.11318283173659942 
0.012215950893600197 
0.078759977516468335 
-0.0027326249716257637 
-0.039560219878024404 
0.0091947242268599124 
-0.1137042069556983 
0.010263624955282581 
0.018985007501215644 
-0.010484902509308513 
-0.0079117963403657135 
0.0057359963834848976 
-0.29175493835744315 
0 
-0.004460019896718178 
-0.32976183890541155 
-0.024584039049334257 
-0.028623405796790177 
-0.028610236211766924 
0.079190158731003962 
-0.021123574547559875 
-0.0038871173744829028 
-0.035445416395644837 
0 
-0.026070763011671497 
0.0070485207982610761 
-0.030557743940914393 
0.019973764227255754 
-0.026311206891244991 
-0.020058064085685248 
-0.0040028937894786669 
0.076434726526842009 
0.0052446654755919277 
-0.057901829278036165 
-0.0092529325766364193 
-0.026690998715107474 
-0.0052595844632189167 
0.025172427413514002 
0.019148303947384013 
-0.13354261106464135 
0.004337145689934944 
-0.0068433320697696837 
0.0062666503426834384 
0.0030351564074816619 
-0.024656540981493825 
-0.0029004229654022596 
0.092599910753091069 
-0.056747794518813635 
0.00499894891699393 
0.0034461578027085412 
0.0037341130612132331 
-0.041632432613485856 
0.016173100658627974 
0.0061796223491003078 
-0.28564632531600243 
-0.022169345202231652 
-0.0048071099560484404 
0.0024316404968571436 
-0.0020792773118693949 
-0.0452096304821289 
0.0011211236773172723 
-0.25203633102076528 
-0.015130907642861133 
0 
-0.5348545513495262 
0 
-0.070627828411156973 
-0.0023685540833604879 
0.073811973447420617 
-0.022447454696752734 
0.010675953557102965 
0.0064244809483603952 
-0.17436180331818646 
0.0062316494748006915 
0.009052937279937015 
0.41465008296581779 
1.5094502131686882 
-0.019684259865473286 
-0.46076732400037113 
0.0024888356729730666 
0.47990624514306202 
0.0018322101084876723 
-0.14807833105040455 
0.003426770406146301 
-0.016979765678557381 
-0.011052954607745935 
0.0053412528128216272 
0 
0.018157755544878793 
0.0028371629572079855 
0 
0.0094408309157667635 
0.054313892436185625 
-0.027101711408582491 
0.0084014505485240816 
-0.010580259886748015 
-0.0032227316091101455 
-0.012634252027008578 
0.0062501736018308902 
0.0058113624247319836 
0.03793781437216838 
-0.34289392038788247 
0.076398249047769609 
0.027386504620417449 
-0.017985518542603302 
-2.4898888187260058 
0.0050037718855641313 
-0.097106014088986767 
0.050551267397693868 
-0.010059023082899514 
0.00031226597306904059 
0.27238507697776632 
0.0037447685754890794 
-0.04272121340711843 
0.0021942902193369551 
0.0020910785991966187 
-0.014040179840982069 
0.015997633082590723 
0.02683711258954875 
0.0049551988869215328 
-0.0037945725352993113 
-0.015598150572068091 
0.0025552028635826176 
-0.04076082847003356 
-0.02275876175043522 
-0.022263272007312703 
0 
-0.053384849547301189 
-0.020638698696071486 
0 
-0.36150680159474297 
0.011408546390764123 
-0.082903555218243261 
0.0047545992017613298 
0.023789184004281545 
0.0032210725657773544 
-0.009478280581110653 
0.00097081142584941392 
-0.016461129230170981 
0.0089228447106664381 
-0.0062328035270138374 
0.005283704847932824 
0.010204104508726962 
0.0015807489464608846 
-0.39414265559418504 
-0.22057666701655093 
-0.0054268382428113117 
0 
0.0032955669260977091 
0.00031917888460560121 
0.0036108716799017728 
0.0066705318633949687 
-0.020337531390276997 
0.00076341264341419517 
-0.045544155188590063 
-0.060263558746733947 
-0.011512304044140035 
0.00088156408678045418 
-0.01496822719159719 
-0.0017991809024079945 
-0.01765363741177824 
0.01180529868650188 
0.027334555479137532 
-0.40100716016967902 
-0.49630881458230608 
0.0031818210978058932 
-0.014311009118855543 
0.0033667704831920873 
-0.0023292538440204047 
0.0031902171400471045 
0.0011854722588029983 
0.0016892358027070097 
-0.001930853889960585 
-0.015330799905790053 
-0.0073721900261522096 
-0.0080019844836591667 
0.0022601665800003434 
-0.014448320306920705 
0.0031249871996702149 
-0.02599677528917179 
0 
0.0060873524167432197 
-0.0081190556220446502 
0.0033525073382208847 
0.0069989287844080261 
-0.049489476549037945 
-0.1249170602668301 
-0.029461733061837619 
0.014265190457715878 
0.011106884533894286 
0.010040332044828118 
0.005363932893146588 
0.0033051809898188601 
-0.025818469007168176 
-0.039231774940793662 
-0.016623862570449725 
-0.0051634527442131926 
-0.020039326629288569 
-0.0011690825656238489 
-0.026262845468764867 
0.029715041958255747 
-0.019206979758902891 
-0.076324406590607047 
1.3087872770952833 
0.0029865227826709477 
-0.019250826423129065 
-0.035677475192524413 
0.96974554224155152 
-0.31760369128632487 
0.0022847325367759629 
0.0013210357243297873 
0 
-0.031678088443306052 
-0.037734989488124385 
0.0010117047797785878 
0.00034698648421664749 
-0.20780034014894092 
-0.0010779924098604377 
-0.12330808222504938 
-0.038804768790167574 
-0.022947751011415819 
0.0021900820060272181 
0.019037633922625911 
-0.010665640446533764 
-0.092504859605272091 
0.0084012128932726207 
0.00044056735025052384 
0.038687410740157947 
0.0037096669108389966 
0.0049342757930475739 
0.052489598325776238 
0.0018380610620447625 
0.010933862645248317 
-0.13572389205867216 
0.17834216622058924 
0.10060816852944816 
-0.023081062501108671 
0.0033191766303068493 
0.0027026687086838036 
0 
-0.001531208846841495 
0.002144335738921286 
0.020896792462591671 
-0.0097785466216713888 
0.0037950674156355725 
-0.028223402882780781 
-0.016043241749835145 
-0.076514046490532575 
0.014098233395581878 
-0.043460670844442099 
0.06429548765035753 
-0.044668525410257384 
0.0067462333396992261 
0.0050859956317677252 
0.00045826403990329475 
0.017986774316703993 
0.014742705956394493 
0.0084610335521209147 
0.09683494339928557 
0.0035759334829124118 
0.03702971370422433 
-0.0028364764586692802 
0.033525871183111483 
0.11709640480553778 
-0.088798268197825325 
-0.020885144196233052 
-0.015165995389835115 
-0.046045080553348418 
0.022349771164034783 
0.013879030560839473 
0.0072285220015639584 
0 
-0.042419349816790519 
4.1477309502679498 
0.0080026643573871126 
0.0022156242490734197 
-0.043703154231849319 
0.00083862906947607162 
0.0065829524769755792 
-0.0072955760440203462 
-0.0095574519424825605 
0.48518555397321217 
0.0023293703449523305 
-0.011977967542660341 
0.059821376196282625 
-0.012053082240485329 
-0.018139855051098833 
-0.2240315951605914 
-0.0041451377179551087 
0.054267444127213203 
-0.035260519102580788 
0.00089659057961042601 
-0.00079163749141172336 
0.0017067090582653644 
0 
-0.017573302797554397 
0.011079895512949002 
-0.033176226573456855 
0.081245748480756844 
0.014217215475999006 
-0.031173581146289309 
0.044723515627961376 
-0.0031477867901606397 
-0.028680793288296612 
0.0032705705712980085 
0.0046552174704512974 
-0.012507356386908136 
0.0054330413684068957 
-0.90863014795620645 
0.0097098876273061449 
0.0030832291947118081 
0.020427395646012682 
0.25799902858179263 
-0.031644597703641919 
0 
0.016110735329076628 
-0.0036974208679928298 
0.0020956755870263507 
-0.055516182363709858 
-0.024981457102135399 
0.00046730063145410193 
-0.023315582288683499 
0.027266006284816319 
0.0057215790963312503 
0.0015156558941656101 
-0.04092788815351818 
0.028355671504507417 
-0.0025397765368078331 
0.0011560580953489585 
-0.018037919264013144 
0.0034776164516215394 
0 
0.0042560777456250136 
-0.028426643132890974 
-0.011785235486509947 
-0.019274168118606091 
-0.036890135569381033 
-0.012409507653852668 
-0.025950463869288076 
-0.0078775299279186597 
0.0032498030511543675 
0 
0.011169956807945448 
-0.055840284407117087 
-0.0046894581930295885 
-0.061408692997677865 
0.0025062847970293831 
0.056898416424659363 
-0.058027336073606113 
-0.036837635027895874 
0.014766485012975292 
0.012136612300357634 
0.55447315966294219 
0.0036929067583323337 
0.0059916911196273527 
-0.033780177563345649 
-0.0029570238407764828 
-0.008662848414053995 
-0.85184617162217835 
0.043307681674631671 
0 
0.00088411034115518452 
0.036354355951342225 
0.011874005226214715 
0.0062528885358649929 
0.0016474554947236485 
-0.0050277437883660559 
0.0031788168749022779 
-0.013969435897725854 
0.00074930648916567155 
-0.061742219265857816 
-0.015844215918970981 
0.030059817762065177 
0.0041271967810581041 
0.010077546996687597 
0.0052401014801291374 
-0.0073145678806893254 
-0.032020849359660042 
0.0078429258181830844 
-0.054991501170240015 
-0.031109674199113767 
-0.0040071382458452013 
-0.095736578972268921 
0.0070653277109677731 
-0.016389271236123579 
-0.031672534363036527 
-0.012248923493813495 
-0.030555833351794175 
0.00080650851688626464 
-0.019731847853909048 
-0.045134890586374002 
-0.034627324382425613 
0.03420269073209329 
0.020776247307981548 
-0.0024385858932212357 
-0.023257841206350258 
0.001605430422492816 
-0.03833964089472397 
0.0011066028116350594 
-0.043523670453835372 
-0.39077958195017432 
0.0089500411095662889 
0.025438006545902395 
0.12383542858307742 
0.0018344340483891371 
-0.16207955073303229 
0.0012130732965987536 
0.039289059681513375 
0.0073920500980149363 
0.0014663736622280293 
0.0078180567865986979 
-0.031614633689597486 
0.0042241113550446074 
-0.0087933420713564511 
0.091276369185419134 
0.0079485934748116764 
-0.059480201616161903 
0.03271091132458237 
-0.045468955483480837 
-0.025624253659336058 
1.564088627311587e-05 
0.012726362042500798 
-0.070077398986290826 
0.002360121962942005 
-0.13047803103187902 
-0.0093234640536230297 
-0.06126080394355958 
-0.00025496567163872137 
-0.054730673977535373 
0.055681483091453161 
-0.80054548817402649 
0.0060394659447804014 
-0.038173631044516314 
-0.016123549429560853 
-0.016557233884807728 
0.023529592153968121 
0.32109693247866189 
0.0033002001989815206 
0.0037979368391086047 
-0.018852144103684729 
-0.033411924475391715 
0.028946964906654177 
0.0065700526600177478 
0.046126193189215764 
-0.0041469695283577303 
-0.035930109695649526 
0.027478909913589172 
0.089117309487205906 
0.034661333379645665 
-0.0057814926750570008 
-0.21423584841101939 
0.0063866540543720506 
-0.0036247102763608424 
-0.011119641429044039 
-0.0045356702667686726 
0.044543496174492443 
0.0015917845825307289 
0.0037042470194887543 
-0.029268990141168443 
0.015545867731735833 
0 
0.0039921652289093383 
-0.022179885089799952 
-0.00098409444964333561 
-0.012040361360833196 
-0.048931943603989704 
0.0022449051957557507 
-0.030216150576876807 
0.011452594456548304 
0.018600465437675125 
-0.00050748532815970905 
0.024148631656903688 
-0.036901208829888066 
0.0019038033893890992 
0.0059569215100236939 
0.014100607471988717 
-0.0087205386296961909 
0.0032307709428555601 
-0.046148714840336336 
-0.013660760887643389 
0.00039332886351730716 
0.02197070756960302 
-0.12715851025012379 
0.024602803951853335 
-0.019741962871309734 
0.0095114214294248108 
-0.015191346908313112 
0.0035565795345466125 
0.009812955825172727 
4.2886918281575737 
0.0049234245958461511 
-0.020462371010431062 
-0.056044299590955235 
0.0047922724025445292 
-0.0040145891755079101 
0.16972406262260381 
0.023038658794887378 
-0.044176283804869064 
0.0042065345934946636 
0.10714276155104077 
-0.0097999876246788759 
-0.00023989071180219426 
0.0015262422204003526 
-0.0479220557680268 
0.0012811962581249356 
-0.020933729806678018 
0 
-0.095326682747891772 
0.0014740696334674002 
0.00071497939026193217 
0.0033854607390612118 
-0.0068574638742132689 
0.029198354437511429 
-0.015337274655195528 
0.00082931989674937324 
0 
-0.055802719713371973 
0.0033431831401294506 
0.0045811085963085385 
0.064153294345315498 
0.013333347469958136 
-0.0082809035380408437 
0.020729306463242406 
-0.016567076824469146 
0.04527788441562574 
0.0024730056410638907 
-0.014714059896393229 
-0.00017974395836176682 
-0.093197648660657453 
0.0060744568767029774 
0.0014596163546767111 
-0.20489552062681302 
0.0015259423751598784 
-0.0018273063042878127 
-0.018126640005212018 
-0.029575011488981322 
-0.015450086436567404 
-0.18333055651487581 
-0.00059754444372647558 
-0.041366509648576376 
0.0039530120606767766 
0.0036857904814778901 
0.00080877408259176367 
0.013654726535474228 
0.012043053388037636 
-0.0090215256953530762 
-0.057542453487060018 
0.051413292364323966 
0.0025500950647194568 
-0.022391309488359015 
0.0012161309077828768 
-0.0086066810850706551 
0.0017035754165113941 
-0.02149526120301826 
0.007099513668859807 
-0.0026304092588924281 
0.053532264883993479 
0.0019782061566783042 
-0.053019217517795404 
0.001726167240690213 
0.12379330541385307 
-0.39194328284188062 
0.018397914061990428 
0.0059857616361518734 
0.030671194928003742 
-0.091673380481349445 
-0.01560389665843193 
0 
-0.33739352028435221 
-0.32408384314379635 
-0.079963572216242229 
0.0046408661386621707 
-0.00019543596680288898 
-0.087493183283941636 
-0.013158801255727295 
-0.0015582440773987286 
-0.26086920569561317 
0.023598612422544601 
-0.11215894104476103 
0.004448748405309887 
0.085988879604175755 
0.018818334119267449 
-0.014614815412724282 
-0.080697648837214128 
-0.0023911763300187698 
-0.069129398576041279 
-0.011880193919055084 
-0.0036543161517396108 
-0.012158161325453713 
-0.72795576713368415 
-0.065850736396566328 
0.013084979055614034 
0.033782770108275934 
0.0033805446093449283 
-0.53378144248521209 
-0.0034874588975512817 
-0.055805720027649025 
-0.020629778602785885 
0.011942827915884057 
-0.062459401970075497 
0.070287825604617049 
0.054390026635538782 
0.0028667075454873424 
0 
-0.025423748477107266 
-0.0023232798294231046 
0.0079929568020268623 
-0.03843969908572141 
0.0036261103552825604 
0.090726425055421167 
-0.027551116284010208 
-0.010675569795523575 
0.0092932537919849772 
0.028805255611232854 
0.018908251258927002 
-0.07523776807189142 
-0.0068677021651249691 
-0.00088646241778132296 
0.0055101958337775581 
0.0013881039429514844 
-0.0077374621937316779 
-0.020321722356394754 
0.00058694017410781301 
0.0091189351698294056 
0.19145085803592571 
0.012287035569257797 
-0.066054981947959487 
0.30714071864959369 
0.0099332817924976165 
0 
0.00036422503792952538 
-0.0075832162114403447 
0.01945388278616729 
-0.0033403321724467402 
-0.0089057047561691121 
-0.062766321528917146 
0.015951196485177007 
-0.03573250343539737 
-0.015650465973953719 
-0.017039025367340001 
0.0051206645633190169 
-0.11995442429970762 
-0.0038507063030154918 
0.0040614202558074035 
0.04516736015949592 
-0.009760322184643384 
-0.026756121909335285 
-0.0043047961942835368 
-0.081973619355547936 
-0.17671941866830221 
0.0021738396569463492 
0.0049353317796937959 
0.0029491312978451771 
-0.01159767525630429 
-0.021003811817254282 
-0.0031641926369792468 
-0.011068708566553603 
-0.047640136909536966 
-0.0014534795452719128 
0.00089714645126099627 
0.0035960467398777722 
0.063491291791941268 
0.0081788654571653355 
-0.031814730829974797 
-0.60934638365654292 
-0.072941203629433085 
0 
-0.014904256337222711 
0.10900059393814779 
0.018270322088433242 
-0.20456824500291559 
-0.0080806842930344555 
0.0079748885150866464 
-0.14636261567807554 
0.0019763100293125665 
-0.0016983571640386259 
-0.016727243487735514 
0.0057799344475933812 
0.0032636707038880049 
0.0024933524293887809 
0.0094876608604020276 
-0.21672577248740524 
0.14578678498994066 
-0.00073327081352946011 
0.002248685575890242 
-0.29723737499147068 
0.2365389987991538 
-0.0078163579476005947 
-0.035787916540143141 
-0.43426169990031266 
0.0060693259451030856 
-0.01224441429412727 
0.00035433857775028587 
-0.0029362223518214817 
-0.020748349189805112 
-0.01990909644364559 
-0.022833705308138868 
0.0058967803480999273 
-0.006452791112407613 
-0.0048661799112160609 
-0.075317510891786621 
1.2140566661405625 
-0.015880571581036982 
0.0095282124468337275 
-0.049495264089022273 
0.007799944132052386 
0.0061502709190877003 
0.061780851341633906 
0.02545379798362437 
-1.6565827092752947 
-0.012144847939641846 
0.019234986305460045 
-0.027543736393339922 
-0.0013516572515946572 
0.0023607916412283761 
-0.11600680992189745 
0.00070063893388513704 
0.0021130482484343549 
-0.036725142279828274 
-0.010340952293211841 
-0.027093859176823581 
0.010776048770792253 
0.0071497785417482945 
0.0081288770538812914 
-0.050431455676403183 
-0.011256125880737732 
-0.40822170865818713 
0.00052098653788474236 
0.001568802330894931 
-0.024752670423421271 
-0.030019378176237378 
0.085387430902763711 
-0.011613831437020189 
-0.099233865226976414 
0.001951927100938434 
0.0022381054137390155 
0.028115126400295121 
0.01426850384515385 
-0.026320095086955594 
0.0013402290179548766 
-0.0015526758879791463 
0.028590551928202878 
-0.55902292943166043 
0.00058308564244405803 
0.0086149234165424967 
0.0056804633614134271 
0.034834337410466813 
-0.026045348778296389 
0.0015267320271138815 
-0.0071282877416245279 
0.0032890230511805089 
0.0029256823101434237 
-0.042629888853497333 
-0.1366122156901145 
-0.0018016487556327312 
-0.18141613538999249 
-0.0054122353466935398 
-0.036309645490086286 
-0.061287199036876787 
0.0096174812613503084 
0.0042517215879005416 
0.027792039254644945 
-0.079777516348585334 
-0.01993713192742538 
-0.016809305528450773 
0.032372387580886355 
0.00838804088015291 
0.0089065611682726063 
0.17814041021669455 
0.017310588566805851 
0.13567655444817567 
0.0055315366939896644 
0.010452034334838042 
0.019981655333768816 
0.0095093814623317431 
-0.0042815990022792971 
-2.9493841800349073e-05 
0.017535170242039141 
0.005474419772830915 
0.046367096695182443 
0.04689603035323521 
-0.01666638795343417 
-0.011034958290477018 
-0.013262949736208555 
0.0034022974194496867 
0.020143713263229425 
0.015664309685512821 
-0.20951963553847516 
0.0034190777756959931 
-0.43388872452405269 
0.025815237778510525 
-0.17225063969508439 
0.0032828704232826912 
0.0041959997080396111 
0.12501707857635166 
-0.044610272387659973 
0.040008407761871763 
0 
0.039754990979849664 
-0.047872775277313324 
-0.011067867478998522 
0.0028971868625403394 
0.017067897990289634 
0.012678868637854689 
0.011565610339055975 
0.0066773576132085257 
-0.012149533271480311 
-0.067798904453568315 
0.018720006685852959 
-0.03714326452594563 
0.0079592596290095595 
-0.23050192621766991 
0.0062759469621991061 
0.0037004986034214499 
-0.018785717783235272 
0 
-0.0054791934170439717 
-0.045202674102512948 
0.0058292670607038291 
-0.11395476380616848 
0.000290605353304769 
0.0019069725996204352 
-0.015394853283826391 
-0.12835996292287538 
-0.028221994724123404 
0.0096582699545908531 
-0.011876693110868721 
-0.031565522899412571 
-0.048999253399692015 
-0.017576609665696526 
0.003925887789076505 
0.011505354657507514 
-0.059918182147572392 
0.035733546526037732 
-0.018798601803414205 
0.0032101391674141614 
0.12657306091660164 
0.037088516995860896 
-0.16981447965059168 
-0.11416753644296461 
0.00026739683804874849 
0.0045741851891594491 
-0.0069139815372966911 
-0.030231550244083055 
-0.015814153951897118 
-0.010966488902422415 
-0.030434445279103484 
0.015432358241855867 
-0.020219039112434355 
-0.021709205449840754 
-0.049277626487439267 
-0.024144995918438779 
-0.015598340078663637 
-0.012171073664369633 
0.0023286452627101044 
-0.0080720247046349586 
-0.0070560171490735152 
-0.079641030355886669 
0.0086269869192744843 
-0.014682146655504017 
-0.052455934832086416 
-0.0028431951391775061 
-2.1230576450949008 
-0.016067874388689993 
-0.01476730459237313 
0.071632151069203925 
-2.6771931490987915 
0.051254054609678225 
-0.010728736283915241 
0.0003089515175599437 
0.0029263337705207767 
0.089388226279726174 
0.0020491229112149447 
0.043475209341603718 
-0.00067798748052817369 
0.022716969089711832 
-0.012850292847417434 
-0.034233710884405071 
0.044562474596278795 
-0.067759063022448413 
0.21532000766616763 
0.047888786178250604 
-0.031310295435674644 
-0.25532023892222311 
0.02566941510256977 
-0.069992648864119988 
0.0029144156725128328 
-0.0086145450187107425 
-0.012749138545156078 
0.030242869563716281 
-0.021717985891691195 
0.0011005296817444199 
-0.0028437102083152879 
0.014146892172159899 
0.014350402469583632 
-0.13126617700335955 
0.084020342816840288 
-0.019676200717719864 
0.0043277181893446566 
0.013973369666676477 
0.0048961281852420236 
-0.012414228675099073 
0.016334920200135404 
0.0044941086956660145 
0.0022391731126004946 
-0.0004087612632338375 
0.0092089732485295152 
-0.0063814925802831548 
0.0028379019533183777 
0.013939896247400441 
-0.010848301502229034 
-0.15553536002020832 
-0.020098614774981444 
0.0021139830509087705 
-0.11859147738121251 
0.11581949828679933 
-0.024053024851061974 
-0.00066031430028917445 
-0.012742632444824334 
-0.0049888004959276729 
-0.05314944514637103 
-0.11670355372829458 
0.017674711048898513 
0.025014621703981235 
0.00081288385173076364 
-0.011879522902160045 
-0.20761682161866352 
0.12191645231598727 
-0.024380195410553387 
0.019357562910249079 
0.0079821743201663221 
-0.018221930110147385 
-0.0093693697790680781 
-0.33720422230620944 
-0.0525506025429422 
-0.089907730641865344 
0.0025736201369874782 
-0.044461963994908982 
-0.0084264653036565402 
0.0093075197403231814 
-0.054506668819702522 
-0.39491399419484663 
-0.20708996031731874 
-0.037083976082681283 
0.0028413991476948278 
-0.014964716117909208 
0 
0.041970860922144415 
-0.1125080913603427 
0.10622214233839634 
-0.02187723995848706 
0.013985009290122348 
-0.080541731973101341 
0.0043937550419480519 
-0.03998873394335916 
-0.063189309442032951 
0.010507391690064875 
-0.064555344851388571 
-0.032009628587451315 
-0.0026495656784337879 
0.079094673245240749 
0.0012361107578063282 
-0.0059541987322406249 
0.001546547745345767 
0.015595891066541591 
-0.020307642307988278 
0.010648035888231551 
-0.083335044284432433 
0.00079362673497271774 
-0.0079351642122191864 
0.026238902773023976 
0.0092348641693845573 
-0.012044123515620959 
0.0021858194374296596 
0.18247260392993919 
-0.016216760535179224 
-0.0055567264682281296 
0.036813298411708266 
0.0047948072134068025 
0 
0.0027792698300425833 
-0.29251085981825187 
-0.55323252095761333 
-0.007960384644641107 
-0.019204203466545805 
-0.029772024207161064 
0.0063682585178651743 
0.043692520597115363 
0.0013006353559310792 
-0.016403648562313761 
0.0052876602776714549 
-0.020025680620578756 
-0.0096286443832378377 
0.0096773346585631737 
0.011383829457783219 
0.70493269219971366 
-0.03246195161829292 
0.047570296525585157 
-0.025021940222335358 
-0.042177062784863516 
-0.038013666851046291 
0.0018361256449736499 
0 
0.00058674138816775835 
0.0033239363920999996 
0.0030137788110166015 
0.030029494861589852 
0 
0.0045987680076375863 
0.0063460739214685671 
0.00012093165959156397 
-0.0083245822589483667 
-0.042803002110330494 
-0.036998301007769088 
0.18400566808935226 
-0.0023752906706919117 
-0.060548393931027761 
0.011422060439861258 
-0.045979745115504504 
0.0080504135843095913 
-0.01730541495061233 
-0.055196963869862337 
0.018521069692042109 
0.017148352480337029 
-0.16484513204728038 
-0.271219031889468 
0.019623794267495057 
-0.030246683081999039 
0.0017646641904045101 
0.00040539062685622393 
-0.031361469264383768 
-0.0077162695433646358 
-0.090135121845191096 
0.0015217797295741802 
0.057663323867331931 
0.0074632147532846726 
-0.065832285538240984 
0.0025023509687085326 
-0.086309954187757457 
-0.11374725675646169 
0.0012450524757413293 
-0.002660109412581599 
-0.023441049886603702 
0.36162903963990839 
0.020224231516014955 
0 
0.027271314759472729 
0.00029541381712221501 
-0.05653656467064784 
0.0071482428854980516 
-0.020703143982930442 
-0.053869118407312608 
0.0028548385861964063 
0.016108433149584541 
-0.022239356500490512 
0.0057978870457669803 
0 
0 
-0.002568744506304677 
-0.0091539157317007055 
0.084579197018556346 
0.0031375750688732661 
-0.034485824927824461 
-0.014312374458872155 
0.014381806562924518 
0.013954709208090487 
-0.046024126503037922 
-0.090801880229433835 
0.0063095041716278487 
-0.004900590993302245 
-0.0034865387161657191 
0.024616377950249822 
-0.0084014169205295728 
0.020921547015996769 
0.019374024374041943 
-0.0041617824489845346 
-0.011690858591189488 
0.00083922272081550639 
-0.018551348281857945 
0.0042939635667529957 
-1.1071477839650747 
-0.013116169737878724 
-0.049953218180250836 
-0.021423053417559637 
0.05265905813222535 
-0.042940791264725608 
-0.0071192064641970995 
-0.010062716287780944 
-0.0081385503961248426 
0.00039229227268839479 
0.0053283979027910384 
0.0062623099859345681 
0.0030393550851238855 
0.06332237030990491 
0.082343628410947348 
-0.0029809516938629796 
-0.024561563514937736 
-0.11467244827484242 
-0.0039209165920782102 
-0.037422104492613788 
0.010955646078737663 
-0.015427125940354143 
-0.0074572930121803013 
0.01579476586196937 
-0.0027545026176630525 
-0.014119089337251801 
-0.024730033586608077 
-0.022937222829011325 
-0.045810220868892484 
0.0035426927001877134 
0.0040307757993056186 
0.03049020691449339 
-0.030416992232184203 
-0.01213802779879322 
-0.17242823332075555 
0.0024836878026354568 
0.065879386202786161 
-0.027293384582717968 
0.021200810472829141 
-0.025248901287868053 
0.17708752745338227 
0.0035550067465376688 
-0.25700627150876892 
0.0029287065224195734 
0 
0.010034172553510311 
-0.0096221043204963632 
-0.065912757486365048 
0.020086208083796755 
0 
-0.10832006339287154 
-0.024224623589543054 
0.0023209209639193269 
0.028132165573020399 
-0.056639942881751372 
-0.29179025672378167 
0.0025007300856814919 
-0.01315039993578777 
0.0050407604824488613 
0.00486130303821197 
0.044425518036048411 
0.45580139616157178 
0.00041290156352030911 
0.012483335564725142 
0.051578510009743478 
0.0025902186034620239 
0.040036719908498733 
0 
0.0025253323112582274 
0.044096601722743371 
-0.0031635341675980131 
0.013022981865040112 
-0.028298545315106283 
-0.024233054314534291 
-0.0084099230180485901 
0.01974554215265998 
0.012274478643990156 
-0.0033742413625884537 
-0.022206770615816145 
0.0041605927318822504 
0.0024179998010643083 
0.31526240865981386 
-0.039032516075425253 
0.064302394471927829 
0.01539854077873384 
0.017131609573222739 
-0.0029023670818614199 
-0.012600563322204116 
0.017712022683817448 
0.0062066544269020526 
-0.10968542325781719 
-0.032335744512136153 
-0.0099693909259390267 
-0.042587484505583591 
0.022568708506454784 
0.082898930328496531 
-0.0020817751717906469 
-0.024169626652968176 
0.0022661496791783939 
0.010717880627126208 
-0.096942616423082315 
-0.19681069467678133 
0.0035946979562777701 
0.0044007104170449979 
0 
0.049940084790272232 
-0.025878243131695271 
0.0022864103270376461 
0.014194695208396713 
0 
-0.0089889878718934346 
0.00062595585658222191 
0.0033264080321954602 
0.023136618193221246 
-0.014999619214987603 
-0.045554869278913931 
-0.019693665424465195 
-0.010160336699019158 
0.0035109616259655697 
-1.5367697724149061 
-0.024393081448203534 
-0.016769719450922115 
0.0097123069444963166 
-0.04385002805538088 
-0.030993315090068942 
-0.019765320584500218 
-0.036240893200701063 
-0.048962626483739863 
0.016341346695196851 
-0.61318940932360078 
0.0053672094453340478 
0.0062638792766106918 
0.052010533303819773 
0.0038177845428901116 
0.0067334404383639487 
-0.010490104700213315 
0.0060060161859575786 
-0.014714678090874863 
0.0056220867269878416 
-0.038856752209630661 
0.043343346055249789 
0.011081004516764944 
-0.040796153109185294 
-0.002955098062408546 
-0.16141916365940762 
0.0049638383285481964 
0.017596721333994425 
-0.035450411700171325 
-0.0046188523072007619 
0.0035068806102773226 
-0.035576408321819616 
-0.012090735738727775 
0.017508020408236881 
0.001638748927857798 
-0.022898719363481167 
0.093263763171813355 
0.011264081102763279 
0.0037836030928678314 
-0.022217619997325896 
-0.017671269608615814 
-0.04052525348462914 
0.0028522762183556555 
-0.0045657515413948793 
-0.021958538307027504 
-0.017926125535021056 
-0.070881135487375485 
0.0024862799929677906 
-0.012503213726308927 
-0.021104247586772099 
-0.19756081445200993 
-0.092103333883257518 
-0.047567206367089464 
-0.062615997567210105 
-0.15095855768774499 
0.0032979931943057424 
-0.0053206800304324391 
0 
-1.6819514344689281 
0.0152114814813183 
0.01502796095358396 
0.057588628243458798 
-0.024456531317467008 
0.0027647050910827075 
-0.029835929246921935 
-0.057453690052510616 
0.011616078690712451 
0 
-0.16001992775874299 
-0.11165553115116381 
-0.15254177809821848 
-0.010020052242804398 
0.0014418440159017615 
-0.049957599779689353 
0.0054578654144268541 
-0.0041304408830673623 
-0.013759232246291985 
-0.24312147045624885 
0.0293056287687707 
0.01965806982500341 
-0.022244952844988921 
0.0057701280143013659 
0.0016781759939839623 
0.0010228206940172235 
0.012851644313269834 
0.097035295490172868 
0 
0.0065709887068914436 
0.0034167963603730532 
0.02391924691692212 
0.033728434611113488 
0.0019958299100524494 
0.006083022958366005 
-0.02918992950216347 
-0.012931389654179636 
0.12661002026808699 
-0.013153594281615961 
-0.0044439525873991798 
0.0059571482214848389 
-0.0027599693577119821 
0.00039200393774009557 
-0.43097395350116219 
0.0046833981162504807 
-0.0054169241288725698 
0.0034415627224446258 
0.27153181604493587 
0.0054083979620482758 
-0.014431128040051961 
0.0024231116400218219 
0.010450584301081209 
0.001169361728810422 
0.003272499072787983 
-0.0055812399294839256 
-0.013963135857783393 
0.34485054995136827 
0.00824534400364502 
-0.011251014085324109 
-0.015194532427259358 
0.011329712789759921 
-0.058348623681032503 
-0.034896452047849517 
-0.043039513731329443 
0.0041511878390339896 
0.0051147794003163233 
-0.02445289383596817 
0.46701720455593609 
-0.027341117560328258 
-0.017295630103562987 
0.0051089511854809991 
-0.012092990942853651 
-0.02584358456566235 
-0.015529205079780672 
0.12877882973102237 
0.0057244700032874473 
-1.2176215859722612 
0.006663334837143195 
-0.13721113333836726 
-0.027731814921777752 
0.055433304514406062 
-0.0082701889643007516 
-0.069191772144614 
0.017288237151186256 
-0.019066209397442802 
-0.018955257569247319 
-0.044528911861776307 
-0.011097555651427515 
0.0096384309993243385 
0.018231453405693026 
-8.1226825167791516e-06 
0.032067480993944297 
-0.037418587970401644 
-0.044611112677002414 
0.018851446204266001 
0.0035920188241203225 
-0.082540795059775074 
-0.031827658993113572 
0.033668099347839098 
0 
-0.0084670168284613125 
-0.041610759286341954 
0.0037283142343888386 
-0.034948105086981839 
0.0067028915910554068 
0 
-0.044537796622380943 
-0.011814822085937851 
0.012525744744449376 
0.0023854002879379029 
0.0065077407921550626 
0.00344770438086821 
-0.16330634576172223 
-0.045506190254901477 
-0.012831754032536799 
-0.013020163921538919 
0.029858738151726134 
-0.0028140855797788916 
-0.025745302154557951 
0 
0.00065390732809495519 
0.0033803669629996727 
0.0088268783535998627 
0.27113972538071496 
0.017193480975489193 
-0.14690621938026724 
-0.0025241722584634588 
0.004085160641412405 
0.0098710916910512356 
-0.024171413723746024 
0.0010974257066638292 
-0.023034812865524994 
0.066017185067976672 
0.00048648227527390485 
0.02468338109518757 
-0.02604694374134996 
-0.050695393244292619 
-0.33865469475801735 
-0.0086549271824887478 
0.0057836348560349835 
0 
0.026461966013037266 
-0.0085002167937144931 
-0.049928041831079704 
-0.011536975616867895 
0.0042488350509026244 
0 
0.0014707236311148029 
-0.19712674341019021 
0.004637545854348113 
0.00067821804521141758 
-0.020583386642904617 
-0.1741879596488666 
-0.029517105051469563 
-0.10686445398736746 
-0.016922047122287277 
-0.024117167617744548 
0.0047729137708241989 
-0.034097391927279577 
-0.0019097671958030055 
-0.014864562738431598 
-0.048010329288156586 
0.0024516264673485892 
0.20558313059899808 
0 
-0.06975640996749935 
-0.0078589192385843942 
-0.0057028546787979808 
0.0084622443529608991 
-0.09648148284261461 
-0.13222599291212797 
0.0017391259881598337 
-0.040885924658228177 
0.028884284915479314 
0.14866145266993927 
0.01017111752344306 
-0.10861041233203587 
-0.0011557685046283167 
0 
-0.017880905740568338 
-0.11242964812609255 
0.045821996476908433 
0.038511989117931023 
0.0050228735924251183 
0.022315384525673269 
0.014665843397815877 
-0.15279532267809504 
0.026185514380670551 
-0.23249521931664915 
0.0050228465256973633 
-0.18715866195962699 
0 
-0.029975900315806981 
0.018751498830382622 
0.0044964261353875141 
-0.031590450890714133 
0.0040011595615084125 
-0.0099256186515797856 
0.047284150543735227 
0.16155464802647171 
0.0017236636307133187 
0.017284994227107442 
0.0029873156526400275 
0.0098488131444188082 
0.0020559282791760584 
-0.0080565146291006959 
0.0040279961845256246 
0.071426194243889268 
0.0067694947558127379 
-0.014929658377904734 
-0.12300472730764206 
0.010234667425254198 
0.064432764103685244 
0.013897569161028918 
-0.019478960570428364 
-0.0097620384894618797 
-0.0070313761891015155 
0.00022886311241402641 
0.075352487916692551 
0.0016433761406594687 
-0.011412154952736739 
-0.030630959380579446 
0.0054003618905220018 
-2.127008285461427 
0.010203623942121966 
0.003709822667577951 
0.0067688983073249968 
0.022413103890283174 
0.0021242358309785077 
-0.087546862107790294 
-0.0537869396522999 
0.0010632680185382053 
-0.22065020323112461 
-0.060017588231802088 
-0.066594757601824775 
0.0021132177838802508 
0.097042309905800955 
-0.0074924538826680208 
-0.0078943283024491759 
0 
0.0021180046568236468 
-0.039338695247690965 
0.026318777148422151 
0.0022384853823934087 
0 
0.11439145921891891 
-0.019835736911437217 
-0.19710502537274993 
-0.25161925546357505 
-0.06869831437311226 
-0.022385456988957608 
0.002579143709050353 
0.0092749317385669786 
0.0017985522143870356 
0.018764195454015146 
-0.009098895400285462 
0 
0.0023947842489067139 
0 
0.0099965826724785403 
-0.066390583127401273 
-0.0075388874969322143 
-0.026184648284620186 
-0.00071151888981544492 
-0.070494906457696113 
0.011013801721944305 
0.014126492823178804 
-0.062348254041642348 
0.074130842790983045 
-0.29715489516082116 
-0.013672584294092705 
-0.10058741661124651 
-0.026532863760908701 
0.0012896023018227644 
-0.16810345311136746 
0.0044121794822486174 
-0.26488999103298921 
0.001743263517492107 
0.022995117743867324 
-0.015292564896577822 
0.011874978200492638 
0.024932183835560916 
0.041098632765589838 
0.034396302452975196 
-0.0033055284102893622 
0.0037328250728895429 
0.00019754163445276349 
0 
0 
-0.0058825015508590902 
-0.0044334199106270955 
-0.070452582404763847 
0.0018101105159484586 
0.023233810499658732 
0.0054686991210047727 
-0.03745072774800727 
-0.42681105343006037 
0.0097878728720876707 
-0.10875282003162601 
0.082753205918933301 
-0.025837706053645184 
-0.0064227019710753038 
0.0014174552773111965 
-0.23357686123769156 
-0.092116602604972023 
0.017170865455992314 
0.12807440602578374 
-0.0046411403858825275 
0.0036482038144886983 
-0.019309360978160627 
-0.010468211316436889 
0.00092038838504460087 
-0.021704046030422225 
-0.0041987049357826971 
0.0026839919307390884 
0.0038834512188628237 
-0.023988718550243104 
-0.12118609382978796 
-0.02965171729409264 
0 
-0.012116344966850443 
-0.0089861670038877007 
0.0057273157129809635 
-0.034728627296242195 
-0.010805391056906281 
-0.036362915993890549 
0.006252472150345835 
-0.095013491460016558 
0.030804250961099261 
-0.15422720817014357 
-0.10877385168060748 
0.028516111757936509 
-0.019011269578694499 
0.020267702255818348 
-0.027377467158295612 
0.005224087712578227 
-0.069876035918936541 
-0.027570078889624209 
-0.0074155243835087323 
-0.044039304958002505 
-0.03725922654196398 
-0.2528645413896855 
-0.027582178309469425 
0.0018445057108317192 
-0.04647970319561881 
0.0036452971090203999 
-0.0097087336140878801 
-0.0035236854013145739 
0.018364620872113421 
-0.033599938105740489 
0.030203514594206129 
0.0064137844009684855 
0.054805943172093446 
0.012525584994646743 
-0.006211205894146179 
-0.016123549429560853 
0 
0.53411121207871892 
-0.018760526854358615 
0.033342221499566789 
0.0027748383755170172 
0.1275985392643913 
0.013396572212943807 
-0.00088901567678352684 
0.031978224413511822 
-0.037078820078934177 
0.010390764216637606 
-0.071208456614900245 
0.0084572523127485581 
-0.077860210938607913 
0.0051706072428759405 
0.010790990622681363 
0.16531664888121186 
0.011513931132849101 
0.0023689417334382674 
-0.12606258709214319 
1.6581612349454036 
0.016165952641998667 
-0.31791764752820545 
0.0029708093916473517 
0.14306926349271712 
-0.042587987542046089 
-0.040198455262331297 
-0.506266568094627 
-0.0016506165778855369 
0.0068996798830329598 
-0.010866252400791355 
-0.3181690653837061 
0.025599154813706032 
-0.23802499854512388 
-0.00976242870457978 
0.072934772459901459 
-0.037867770325945113 
-0.010223065464286718 
-0.071653852544610486 
0.021101225224338906 
-0.0032794837316759569 
-0.041300970842168869 
-0.035126433955033246 
-0.014007039996485348 
-0.15926198129689753 
0.14222941549004853 
0.013055359889217449 
-0.026464518320614635 
0.0056600853553103233 
-0.017474401127164065 
-0.057067436084718218 
0.44690553360997326 
0.002547234021533386 
0.040455564087745477 
-0.088489105116097089 
0.0009547560684543679 
0.001373256645405604 
-0.025983002538071343 
-0.088176822486042 
-0.071102177230129376 
0 
0.011103793083794354 
0.23167074181999017 
0.0078599105309110334 
-0.045229733455045794 
0.0016062257088706004 
0.013245340561817229 
-0.00054584264067230378 
-0.28875808818911874 
0.0032794246617145269 
0 
-0.0052496392749278534 
-0.00038472940720787722 
0 
0.004272405475595 
-0.22900601668207521 
-0.0060760490842427309 
0.0019234286910831196 
-0.032683632723323877 
0 
-0.035878106891466921 
0.024379331496715451 
-0.010666080129538597 
0.0094681544661815269 
0.080000059321135297 
0.0030998328162434 
-0.020106674817541567 
-0.032898447011423283 
0.0074252051550963306 
0.001664571011557322 
-0.010827911429692423 
-0.0063584532229594643 
-0.0093137000644216653 
0.072608401024378044 
-0.0045940249150754403 
-0.28994076955801207 
-0.0021766269018707821 
0.013746320609421733 
0.012306900375467895 
0.030178109208985584 
-0.046112690130630095 
0.0088920384696007729 
0.020127972936937154 
0.021143200996898169 
0.014026212791149238 
0.032155498574969556 
0.21284136246598664 
0.0026723842333285521 
-0.2035386821800336 
-0.00048928202235631771 
-0.11618799890870604 
0.0022365837674411032 
-0.017798503810779704 
0.074441795584521964 
0.0041103893898319531 
-0.016096878849792915 
-0.00090703324884836489 
-0.010733674566582098 
-0.015129597362300259 
0.036087537678485992 
0.09316782064437501 
-0.017071798756253122 
-0.034741861612944486 
0.0070489283310329921 
-0.053366680683414575 
-0.022339814699873724 
-0.0053700747602147218 
-0.037499747484786052 
-0.0027880915018065043 
0.0055218285711317611 
-0.0046479302880659251 
-0.80058444093999581 
-0.015411024859089106 
-0.13500004711034139 
-0.00061622590808603289 
0 
-0.28107227428967407 
-0.073494290519311181 
-0.013133911335184415 
-0.0632045675647184 
-0.010374487343240094 
-0.011916417757179096 
-0.0029671755242190131 
-0.012452804526210335 
0.0020897677492734373 
-0.0092317858208589686 
0.0020501314568859043 
-0.0073121021214074631 
0.00058919168452938194 
0.0012801766463089554 
-0.063045716510223962 
0.0013572125453533181 
