solver_type L2R_LR
nr_class 2
label 2 1
nr_feature 1942
bias -1
w
0.13527599941759591 
0 
0 
0 
-0.48413883041767081 
0 
0 
0.53427324724861613 
0.47871428683628958 
0 
0.263276646618608 
-0.50050517957421048 
0.20582328174626033 
0 
0.30536123297534401 
0 
0.24116130714924894 
0 
-0.33383364538464522 
1.1468810584369484 
-1.8609085619764081 
0.329760844660555 
0 
0.3169841614623799 
-0.17035599260055001 
0.096053809101937046 
-0.18967000507188855 
0 
-0.24322150297894457 
0.22018778169010328 
0 
0 
-0.24453988295514253 
0.11374926550836495 
-0.19207669657920196 
0 
0.8012657096270972 
0.12187146050680166 
-0.21045150221682385 
0.547329458818129 
-0.27839495295632932 
0 
0 
-0.50067809988892131 
-0.12966683378535354 
0 
-0.39569851770707498 
0 
0 
0 
0 
-0.62999131239980288 
-0.24373926175731431 
0.1013659435610449 
-0.061249715381854565 
0.39696081034892522 
0.24791351182698101 
0.3585932291847776 
0.061039121498297121 
0.43348848077811808 
0 
0.18753685476072671 
0.24235607774877577 
-0.16299953361921238 
-0.14739099316801091 
0 
0 
0.51431624224368921 
0.43854273335630811 
-0.96867471048782039 
0 
0 
0.38375386050177579 
0.5564800942088346 
0.1632223864670023 
-0.55348068218870861 
0.92311394757592768 
0.18557105762767517 
0 
-1.0624983328621043 
0.057030090246940696 
-0.16538177085188052 
-0.15720681823406052 
0.5867625544799564 
0 
-0.10793690671298586 
0.34168125094693647 
-0.55865535964621582 
0 
0.5356506957704904 
0 
0.90956770438030832 
-0.18031858239800136 
0.16620355049133462 
0 
0 
0 
0 
0.49672511011137588 
0.16337009225523796 
0.74321910609883812 
-0.18361675447469816 
0.40777670166068142 
0.18548023410234843 
0 
0.38123495530770163 
-0.45675477611773968 
0.049593900339154479 
-0.11324377841486584 
-0.62999131239980288 
0 
-0.49001984860856312 
0.51664243804235699 
0 
0 
0 
-0.16538177085188052 
0.38376298677540394 
0.67380427055128767 
-0.39358292951091128 
0.093463009332873895 
0.64453909961168765 
0.26937483410763757 
0 
0 
-0.50195938324081257 
0 
0.086569185636655735 
0 
0 
-0.25194975886465981 
0.86477658956437997 
-0.20553755783641703 
0.90604199505582228 
0 
0.21968120901422061 
0 
0 
-0.097906827867110649 
-0.26449757114324479 
-0.38917302394391756 
-0.28706067372739125 
0 
-0.60889451244102832 
-0.36055063903375695 
-0.17359318962875148 
-0.82499599392151224 
0 
0 
0.84159149766352204 
0.37812969667983742 
-0.8118566135064279 
0.15914359812492301 
-0.14440424190307458 
0.19245273960332068 
0 
0 
0 
0 
-0.2828233813288682 
0.34168125094693647 
-0.68542698307618521 
0 
0 
0.15839718740793657 
0 
0 
-0.24092151043681909 
-0.19753661664500835 
0 
-0.49576786779120424 
0 
0 
0 
0 
0.1192484849388708 
0.53747192357492202 
0.25920953361892868 
0.39311646326262523 
0 
0 
0 
-0.28958269771227352 
0 
0.54262787078768515 
0.89951044878039343 
1.044817829638768 
0.609241378886203 
0.33815324535994928 
0.8251549672844769 
-0.1524242548014213 
0.54581503380061314 
0 
0 
0.52696065530757297 
-0.72063493122908584 
0 
-0.23138002613585951 
0 
0 
0 
-0.18967000507188855 
0.11374926550836495 
-1.2879551917747805 
0.11929312985371471 
0 
0 
0.24173338580801065 
0 
0.1159835814506104 
0.26845438136020783 
-0.15642145101244506 
0 
-0.79760806826007991 
0.16706217416056443 
0 
0 
0.14221352134628976 
0 
0 
0.57149751864904585 
0 
-0.18361675447469816 
0 
-0.39797396444908478 
-0.53307833359597878 
0 
0 
0.2485884654185519 
0 
0.10314344119792616 
0.22349765825802337 
0 
0 
2.0569847315041545 
-0.75577909237748053 
0 
-0.21846241022292234 
0 
0.61204092449398251 
0 
-0.090983334130072618 
-0.24092151043681909 
0.52430774681925718 
-0.12825870180452079 
-0.46028711921064192 
-0.42002339852800341 
-0.0097839865491276649 
-0.039533534891827177 
0 
0.14816106239145596 
0.32780897665566322 
-0.037473843744378559 
-0.2300837836033674 
0 
0 
1.4298824323088082 
0 
0 
0 
-0.78566777389725351 
0 
0 
0 
0.26368633899844507 
-0.49971262755332724 
0 
0.24955769409736364 
0.28660397915750208 
0.19896373656204269 
0.21165572397063584 
0 
0.34361886144230236 
0 
0.27333068213711104 
-0.50648953760193738 
0.2678544053035492 
0 
0.29667717105840868 
0 
0 
-0.53416003359301478 
0 
0 
-0.58275391543442812 
0.77153375674414382 
0 
0.36589824928099174 
-0.36927691235475751 
-1.2671429869889224 
0 
-0.27131347942368267 
0 
-0.30476999293892743 
-0.3099343567033806 
0 
0 
-0.40605126507489453 
-0.25194975886465981 
-0.18117988041398655 
0 
0.56771484541465589 
0.021338414182950086 
-0.23538148660425398 
0 
-0.00027344389031803973 
-0.88574488698237697 
0.43476589488163125 
0 
-0.18035455623914287 
-0.10830503626499662 
-0.0054793314987626705 
0.13794127165667563 
0 
0.40843697224880826 
0.2023034035579187 
0 
0.46490093868160504 
-0.76576871992606022 
-0.23538148660425398 
0 
1.0723454524867069 
-0.75099077848289053 
0 
0 
0 
0.37812969667983742 
-0.18171802339229651 
0.18035745674451475 
0 
0 
0 
0 
-0.17243129912446689 
-1.3552150933740379 
0.73142875173266486 
0 
0 
0.13794127165667563 
0 
0 
0 
0 
0.71359287867472543 
-0.16629954548259313 
-0.22850579414171415 
0.52430774681925718 
0 
0 
0.15568184416583161 
0 
-0.3405098564535875 
0.18378090885534998 
0 
0 
-0.71345936152383538 
0.088748264852350531 
-0.23653119918367985 
0.54888755482838658 
-0.24931207358676544 
-0.13612271124337239 
-0.34394853586012708 
0 
0.1173244026316463 
0.19317817063248971 
0 
0.20157788820671485 
0.53591308958595973 
-0.27178000534369084 
-0.36933230642089732 
0.12203667421006764 
0 
-0.55912274972685116 
0 
-0.43701453065510099 
0 
0 
0.55320468436294934 
-0.035094249988741527 
-0.48977094700046292 
0 
0.39846263065428389 
0 
-0.1669336581217235 
-0.16853394492211876 
-0.38579409581018498 
-0.18361675447469816 
0 
0.72651547989896925 
0 
0.42601564037398315 
0.19587820070077264 
0.4311094611452212 
0.030587487714088903 
0.3281633222766745 
0 
0 
-0.53936957992348833 
0 
-0.16618793002081825 
0 
-0.43196445304347952 
0 
0 
0 
-0.60972693593572302 
0 
0.7004143637866882 
0 
-0.36156168658409338 
-0.14845379838835226 
0 
0 
0.32254674998030342 
0 
0 
0 
-1.1242922880316781 
0.24235576690560334 
0.51832342014840338 
0 
-0.44099687092095136 
0 
-0.58255326078123293 
0.36507373398446497 
0 
0.060108897508508737 
2.727107049581674 
0.41712362650499224 
0.24492127496781474 
0.93228986904014211 
0 
-0.53704174169287988 
0.37137365738151396 
-0.41900444875066994 
0 
0 
-0.39881542481934557 
0.39846263065428389 
-0.6756197960525463 
0.21968120901422061 
-0.56488604654606323 
0 
1.4289334381325891 
-0.25194975886465981 
-0.068268875638011914 
0.25920953361892868 
0 
0 
0 
-0.073314354447089808 
0.1159835814506104 
-0.15114186332885157 
0 
-0.24746210318361683 
0.23978446625019639 
-0.23553751981732191 
0.21854486968537259 
-0.10529648529280621 
0 
0.5564800942088346 
-0.61983472072495582 
0.16665670894072493 
0.37707164725612763 
0.40179625047766682 
-0.14038523847522325 
0.096053809101937046 
-0.36621861694141689 
0.60796568154458686 
0 
0.34503845030083824 
0.15660739378903105 
0 
-0.31525488473386915 
0 
0 
0.2233776548604765 
0.0639202963933274 
0.14082814279162273 
0 
0.1456619800466572 
0 
0.13917829618536406 
0.43082929245648804 
0.17320065922538308 
0.49707395146247524 
0.47036153285943227 
-0.23538148660425398 
0.73218880299397893 
0.094515901055526194 
0 
0.29158847734246862 
0.63350236536394444 
0.35213292350332648 
-0.11895289620837109 
-0.18211420194719125 
0 
0 
0 
-0.63344360088353879 
0 
0 
-0.36619855984630167 
0.68174903270924503 
0.36178070546338537 
-0.34326438341971255 
0 
0.43348848077811808 
0 
0.22265337254261292 
-0.11895289620837109 
-1.9682910992206226 
-0.64961575305763197 
0.48407910768409129 
0.28821859351461659 
-0.15489857390250225 
0 
-0.1669336581217235 
0.34917803097306221 
0 
0.30789478653350338 
0 
0 
0.44902276685063564 
0 
-0.61494090479104679 
0 
0 
0.85645570039835328 
0 
0.28735932439508999 
-0.25743357306250547 
0.52696065530757297 
-0.65943784545961914 
-0.31007844718404132 
-0.9602536431286437 
0.31163159098843035 
0.32386564453073208 
0.88956074212634451 
0 
-0.71416310772892022 
0.30361434988242769 
-0.59118684241734931 
0.48147679227908768 
0 
-0.67746709724071685 
-0.31846474971475547 
-0.32771703186118173 
0.60061980859710007 
-0.43277592160711681 
0.034911100882439552 
0.33815324535994928 
0.18651739828006414 
0 
-0.29431501996974363 
0 
0.091953744431045842 
-0.12483283018327418 
0 
0.14221352134628976 
0.36178070546338537 
-0.23554279694864516 
-0.080071751228431465 
0 
0 
0 
-0.40033917442779926 
0 
0.057030090246940696 
0.0045799248064058665 
-0.41727523624179541 
-0.062523200208827123 
0.12587801209047603 
0 
0.04684994608394686 
0 
-0.14391588927928811 
-0.48523720939338066 
0.34247652097538656 
0 
0.04315306495613349 
0.12637641190921742 
0.19501626872062372 
0 
0 
-0.48613222550097235 
0.11301376414606915 
-0.30514137841526257 
0 
-0.31667382778325665 
0 
0.18557105762767517 
0.69657315701302158 
0 
-0.072505061990300407 
0.40513903647578625 
0 
0.75051647570042701 
0.16510304213924251 
0 
0.39868927736548665 
0 
0.29101466215689797 
-0.5565907324299505 
-0.21602139410670737 
0.052789549555313911 
0 
-0.29815181579600519 
0 
-0.41453572999292232 
0.5875811582934316 
-0.069364255262369445 
-0.34700959499954304 
0.52688122484503597 
0.23777284197119145 
0.20968271816495576 
-0.3642555144250394 
0.058611947156561678 
0.5564800942088346 
0 
0 
0 
0.20688748570165472 
0.13003518259578195 
0 
0 
-0.60907663241571008 
-0.48413883041767081 
-0.51572737360613452 
0 
0.14023526177491624 
0.13707298642588603 
0 
0 
0.45400876842401344 
-0.40016975134520755 
0.27581523227557803 
-0.29876443551081533 
0.26576297999221304 
0 
0.36222050714063236 
0.24337347176495341 
0.73941130943209221 
0.057488028762140833 
0.51560695969341341 
0 
0.40954450793838176 
0.40437062615272579 
-0.67465071544078326 
0 
0.15470233294444879 
0 
0 
0.24235607774877577 
0.38786441459499832 
0.28635439717314876 
0 
0 
0.16288569135519537 
0.37707164725612763 
0 
0 
-0.42513781593306432 
0.12224496243343719 
-0.11710878401699538 
-0.34221505197456209 
0.4643271812327337 
0 
-0.15720681823406052 
-0.55321236788139028 
-0.71745311671055934 
0.70971428331237352 
0.59624276832416956 
0.56080664592339147 
-0.060706498902491302 
0 
0.45400876842401344 
0.18402383827198907 
0.4058750360740247 
0 
0 
0 
-0.30224781404498002 
0.33996061033478908 
0.46837379018085301 
0.22827811762245043 
0 
0.04684994608394686 
0 
0.42709680929778676 
0.093209250552412845 
0 
0 
0 
0.36489454365769713 
0.42709680929778676 
0 
0.58064343837703281 
0.32386564453073208 
-0.54945906152976498 
0.56503457484221131 
-1.2954603943811813 
-0.32784265639267218 
0 
0.41534935651665744 
-0.78231466540296402 
0 
0 
0.22504917984254647 
0.52500588854924646 
-0.53093281276103499 
0 
0 
0 
0 
0.2023034035579187 
0.073582910469238816 
0.38315241126135802 
-0.34223011511338164 
0.26510761158634072 
-0.40314805597139491 
0.020716910536091565 
0.2220112308450099 
0 
0.52430774681925718 
0.52610673372725636 
-0.31486824238174116 
0.15668257139545674 
0 
0.021320185508616682 
-0.22120484236059584 
0 
0.35525260349918075 
0 
0 
-0.050403549381108734 
-0.017483834318176211 
-0.66049774726987109 
-0.15114186332885157 
-0.36365069842020259 
-0.64176896460021338 
0 
0.54888755482838658 
0.065518321388512976 
0.20259647828334526 
0.22018778169010328 
0 
0.16044278621955727 
0.010211221114440186 
0.187856434579493 
0.24437217162181979 
0.13356221446230168 
-0.50428887821847979 
0.27333068213711104 
0.29682394951065955 
0.11301376414606915 
0.50630432561243222 
0 
0.60649986051970206 
-0.2175230022432233 
0.24001671211017483 
0.070220719148372829 
0.53144686831923371 
0 
0.11703319291968486 
0 
0.39846263065428389 
-0.47141869332982417 
0 
0.11982058787666225 
-0.18117988041398655 
0 
0 
0 
0 
0.042815396412534262 
0 
-0.19550106764046166 
0 
-0.59648114232241578 
-1.0747375348424393 
0 
0 
0 
0 
-0.22120484236059584 
0.68084940392125137 
0 
-0.52744176213001293 
-0.045843363701899238 
0 
-0.3034711402795045 
-0.46604232416331698 
-0.62335741263812294 
-0.35640076879338689 
0 
0.12203667421006764 
0 
0 
-0.15114186332885157 
0 
0 
0 
0.068011513441191287 
0.36002668921225356 
-0.33116403299781777 
-1.5483976264177179 
0.062847678237308552 
0.68174903270924503 
0.25901644722822292 
0.47336280121934421 
-0.82002199049805868 
-0.83990766039286968 
0.65085972987005014 
0.14568776956887874 
-0.65381605431190637 
0 
0.34223466123807433 
0 
0.030455933552188008 
0 
0.12203667421006764 
0 
0 
0.71359287867472543 
0.48254906529116193 
-0.11710878401699538 
0 
0.04684994608394686 
0 
0 
0.11929312985371471 
0 
-0.23538148660425398 
0.22504917984254647 
0 
-0.68605205354627929 
0 
0 
0.42793927210603366 
0.24415145521999568 
0 
-0.0054793314987626705 
0.20259647828334526 
0 
0.17383287508383716 
0 
0 
0 
0.16706217416056443 
0 
0 
0 
0 
0 
-0.32042723220834168 
0 
0 
0.29378530837569128 
0.54681262055124247 
0 
0 
0.21968120901422061 
-0.14820589640939572 
0.12224496243343719 
0 
-0.13114959773522289 
0.2740868863971479 
0 
0.1456619800466572 
0 
0 
0.29396795216346439 
0.19406434652776239 
0.19501626872062372 
-0.54945906152976498 
0 
-0.33373189222754646 
0.14950818002706506 
-0.17243129912446689 
0.16044278621955727 
-0.25289920098967211 
0.16337009225523796 
0.30789478653350338 
-0.50050517957421048 
-0.54682105658317204 
0 
-0.66967771173079127 
0 
0 
-0.18967000507188855 
-0.014998788806471869 
-0.14038523847522325 
0.094043881290948331 
-0.46106013740916174 
-0.60545009503394376 
-0.38855743852212621 
0 
0 
-0.24957900087839341 
-0.40605126507489453 
0.96760501905407814 
-0.43545016945260751 
0.2250235944240962 
-0.29431501996974363 
0 
-0.13114959773522289 
0.63260895504796033 
0.67365415443512366 
0.04684994608394686 
0.65275956944277858 
0 
0.42709680929778676 
-0.060706498902491302 
-0.11415548329788959 
0 
0.69232277250136187 
0 
0 
-0.28146357325595417 
-0.11410871751685733 
0.6777989770574544 
-0.091572556034363164 
0.19455211822754051 
0 
0 
-0.43644662471131423 
0 
0.2590646273221785 
0 
0.5009906653214462 
0.58309339072558342 
0 
-0.16747018290819587 
0 
0 
-0.28226274319620703 
0 
-0.14391588927928811 
0.25476414211365389 
0 
-0.055277374886111272 
-0.41565230007153331 
0.0062991357408304985 
-0.49091572050841692 
-1.0823137970073788 
0.29589222825696182 
-0.52325009259912558 
0 
-0.21260306213832864 
0 
0 
0.4590703107983175 
0 
-0.77754705838574678 
0.2578032429148317 
0 
0.33910834900139575 
0.065858518797510965 
1.7455609877395422 
-0.88841523247857856 
0.11844170616412771 
0 
1.2581416874389533 
0 
-0.6443943365804139 
0 
-0.03717485066371197 
0.36002668921225356 
0 
-0.14391588927928811 
0.31163159098843035 
0.43073434723143772 
0.27749331583194592 
-0.32058553979089349 
0.053488931214724658 
0.52455715059624741 
-0.35334187931138783 
0 
-0.34903330297260227 
0.55718936369007599 
-0.3034711402795045 
0 
0.090017549237693381 
0 
-0.56972413529327282 
0 
0 
0 
-0.1669336581217235 
-0.62951371550771218 
-0.19529933337601565 
0 
0 
1.5971952831278811 
-0.18836945152811749 
0 
0 
0 
0 
-0.50428887821847979 
-0.0054793314987626705 
0.15660739378903105 
0.26845438136020783 
0 
0 
0.59603364241765644 
0 
0.32732171021347806 
-0.18343753235436178 
-0.27827847091063979 
0.11374926550836495 
-0.16430566414061987 
0.49639343039683081 
0 
0 
0.49127627889482373 
0 
-0.13612271124337239 
0 
-0.1910789634017126 
0.047018281495969899 
0.049593900339154479 
-1.7382596792656779 
0.39210156928175094 
-0.15489857390250225 
0 
0 
0 
0 
-0.13612271124337239 
0 
0 
-0.53745132587843647 
-0.24092151043681909 
0 
0 
0 
0 
0.25443330570380485 
0 
0.80486851802720782 
-0.27178000534369084 
-0.33428707345101977 
-0.38917302394391756 
-0.62999131239980288 
0.70700849484932382 
0.6070335708843595 
-0.18399498228733599 
-0.22314189436240384 
0.20582328174626033 
-0.3103991979556967 
-0.065573292792195162 
-0.36995630463879314 
0 
0 
-0.63006311370178536 
0.71576049151092569 
0 
0 
0 
0 
0.39911237880124972 
0 
0.33765447452434799 
0 
0.187856434579493 
-0.17359318962875148 
0 
-0.27360539260640959 
0 
0 
-0.2327719337941333 
0.084125282659341993 
-0.93453699769958276 
0 
0 
0 
0 
0.32278768364095323 
0 
-0.1632198084189703 
-0.3279601794049255 
0 
0 
-0.26189736376163952 
0 
0.2102992751824434 
0 
0.14082814279162273 
0.2578032429148317 
0.39223028326085574 
0.24397074156570703 
-0.20553755783641703 
0 
-0.18361675447469816 
-1.0522308238821099 
0 
0.2102992751824434 
-0.11710878401699538 
-0.15489857390250225 
0.28338721193186167 
0 
0.15839718740793657 
-0.3405098564535875 
0 
0.40841527469480354 
0 
0 
-0.81502716429064237 
0.42709680929778676 
0.12143988143062003 
0.18361559750019044 
-0.39930648337682972 
0.40003760540662403 
0 
-0.43016677204874626 
0 
0.061039121498297128 
0.049879204304325866 
0.058673924888717983 
-1.4154237804492333 
0 
-0.027447172045986217 
0.51431624224368921 
-0.1697402853110937 
0 
-0.3034711402795045 
0.40116584663607735 
-0.85516618780784825 
-0.31667382778325665 
0 
0.61308770037784266 
0 
0.4271919125197694 
0 
-0.039376457676649795 
0 
0.52610673372725636 
0 
0 
0 
0.4445959569029484 
0.19587820070077266 
0 
-0.24931207358676544 
-1.3314908218911408 
-0.89565136308409876 
0 
0.10065267921657592 
0 
-0.28624781928290033 
-0.31486824238174116 
0 
0.3379889125100235 
-0.11895289620837107 
-0.58160076196410437 
0 
0 
-0.63006311370178536 
0 
-0.24092151043681909 
-0.20173732336203837 
0.70070503506439619 
0 
0.2139159804941983 
0 
0.56930837422915115 
0 
0 
-0.27131347942368267 
0.86712112383555628 
0.26995859002425276 
0.7985035163661921 
-0.74952679779020748 
0.20968271816495576 
0.36222050714063236 
-0.62951371550771218 
0 
0.36507373398446497 
1.7437476381949018 
0 
0.071785404547641027 
0 
-0.16710148963062571 
0 
0 
-0.85966678257735207 
-0.4338117160292288 
-0.26449757114324479 
1.1024353194385972 
0 
0 
0.69802301995730409 
0.58839746625984235 
0 
0.26576297999221304 
-0.53704174169287988 
-0.52083980968666033 
0 
0.19455211822754051 
-0.60600294675476041 
0 
0.11362268179508921 
0 
0.26207929822297776 
-0.43975130396470113 
-0.029482220437605608 
0 
0 
0 
0 
0.91161115780287194 
0 
0.16665670894072493 
-0.16618793002081822 
0.42329785739745796 
0.45360541407007859 
-0.69341128661520646 
0 
-0.77260638904308565 
0.090017549237693381 
-0.55682181318489354 
0 
0.76352443653008428 
0 
0 
0.22551779071063849 
0 
0.67842628382853254 
0 
0.16665670894072493 
0 
0 
-0.15489857390250225 
0 
-0.42513781593306432 
0 
0 
0 
-0.50428887821847979 
-0.14391588927928811 
0 
0 
-0.096466796745273892 
0 
-0.20967631887026134 
0 
0 
0 
0.17370651266078249 
-0.18967000507188853 
-0.20522188902274502 
0.1632223864670023 
0.90945269646216009 
0.13969132550660657 
0.20688748570165488 
0 
0.22793509177554325 
-0.31828697031513142 
0 
0 
-0.17890255133064062 
0.096053809101937046 
-0.40033917442779926 
0 
0 
0 
0.32552651675029975 
0.55296695062303636 
-0.65381605431190637 
0 
0 
0.47197105239394599 
0 
-0.13964700805361491 
0.17795590400274855 
-0.41727523624179541 
-0.67244156268724486 
0.094515901055526194 
0 
0 
-0.4208252380280823 
0 
1.0669733729610262 
0.00075718958340874332 
0.29513504309346184 
0 
-0.58115567831891979 
-0.23342619121034131 
0 
0 
0.30047084065180868 
-0.061249715381854565 
0 
-0.24322150297894457 
0 
0 
-0.65340056820898129 
-0.0035875378089194228 
-0.60934041148426243 
-0.59648114232241578 
0 
0 
0 
-0.28371577722425184 
0.49862728036901816 
0.75412092088585159 
0 
0.049879204304325866 
-0.3103991979556967 
0.060344584359872902 
0.84768500570519145 
0.19587820070077266 
-0.05376467200930149 
-0.22473017769463355 
0 
-0.23554279694864516 
0 
0 
0 
0 
0 
0 
-0.40998413029203801 
-0.34324923301570609 
0.32732171021347806 
0.29396795216346439 
0 
0 
-0.10830503626499662 
0 
0.14221352134628976 
0 
0.70519401038065144 
-0.18836945152811749 
0.31388932903879047 
0 
-0.061239497982458778 
0 
-0.45561958166793293 
0 
-0.41727523624179541 
0 
-0.030021800383352011 
0.24905699805409315 
0 
0.39223028326085574 
-0.21098287972700258 
0.10291359801997607 
0 
-0.53052843692794793 
0 
0 
-0.20999132942236684 
0 
0.15660739378903105 
-0.56476825513466866 
0.55718936369007599 
0 
0 
0.15914359812492301 
0 
0 
0.20688748570165488 
0 
-0.37295492191414431 
-0.17934020979180437 
0.22814778828217885 
0.19292663106573366 
0 
0.23182010163808384 
0 
1.1943584313077076 
0 
-0.41856649279968772 
0 
0 
-0.33206088484363533 
0 
0 
0.09434410203706059 
0 
0.14221352134628976 
-0.013014253929716349 
0 
0 
0 
0.68511133608899899 
-0.3862163363309703 
0.26845438136020783 
0 
0.39603708505567004 
-0.052365441363086317 
0 
-0.1910789634017126 
-0.76173502614427269 
0.64768982088360705 
0 
0.39696081034892522 
-0.17493236473946552 
0 
0 
0 
0 
-0.39935217630542807 
0.071500879975638365 
0 
0 
0 
-0.23538148660425398 
0 
0 
0.22598464694629872 
0 
0.53774736791632083 
-0.36927691235475751 
0 
0.18651739828006414 
-0.52912434587491508 
0.3400610597104024 
0 
0 
-0.26615536492217456 
-1.0806472806602674 
0.15088524104578974 
-0.11144398038756614 
0 
-0.21602139410670737 
0 
0.74837934346521418 
0.53853351840491859 
0 
0 
0.39210156928175094 
-0.15489857390250225 
0 
0 
0 
0 
0.27867168576539647 
0 
0.3169841614623799 
0.058471017316336256 
-0.22716615855702599 
-0.28958269771227352 
0 
0.22814778828217885 
0.14774399946982847 
0 
0.077331533598735971 
0.2250235944240962 
0 
0 
-0.81720252223650724 
-0.12499162139872466 
0.86476833395895503 
0.15660739378903105 
0 
1.0127613764307106 
0.24397074156570703 
0.068011513441191287 
0.71237657416443922 
0.34503845030083824 
0 
1.1503036773615967 
0 
-0.12147123804871189 
0 
0.28660397915750208 
0.14221352134628976 
-0.24931207358676544 
0.45463110376949262 
0.018959941422692875 
-0.49992641090292167 
0 
-0.59874991330223326 
0.58325280446481598 
0.086569185636655735 
0.29589128683391741 
0.47904222901814364 
0 
-0.32370312913726285 
0 
0.5564800942088346 
0 
0 
0 
0 
0.54319519429176166 
-0.6959858699154996 
0 
0.62340827430981061 
0 
-0.55998843909385521 
0 
-0.1669336581217235 
0.73719757719493828 
-0.54378235985662249 
0.6015124824889716 
0.1850353898180466 
-0.13964700805361491 
-0.52806277097829057 
0.38882841003168539 
-0.35852873205602365 
0.18045287836221072 
0.42869932091057039 
0 
0 
-0.41856649279968772 
-0.20546031344356142 
0 
-0.012902289528814698 
0.18045287836221072 
0 
-0.2175230022432233 
0 
-0.1669336581217235 
0.80847597639186597 
0 
0 
0 
0 
0 
-0.58219267592580715 
0 
-0.38991844368650352 
0 
0 
0.41082076225921926 
-1.108280025546158 
0.42237035477292295 
-0.43644662471131423 
0 
0.086569185636655735 
0 
0 
-0.13102514885506714 
0.60314427287928829 
0 
0.26199368795817202 
0.10100456839639883 
0.34899353573256042 
-0.15489857390250225 
0.15216816688808085 
0.52610673372725636 
0.36222050714063236 
0 
-0.11324216723228715 
0.019535217319646317 
0.30705279566270605 
-0.6025868174473703 
-0.5299916495575534 
0 
0 
-0.2175230022432233 
0 
0 
0.082304342409852488 
0.52450527838587468 
0.18963934570359423 
0 
0 
0 
0 
0.20259647828334526 
0.38882841003168539 
0 
0.62453914176698422 
0.29988388179846293 
0.62527971993535614 
0.086569185636655735 
0 
-0.35704293918695673 
0.14889461350559485 
0 
0.16008423858731943 
0 
0 
0 
0 
0 
-0.4982741984028578 
0.4445959569029484 
0.39911237880124972 
0.59391842577669995 
0 
-0.18361675447469816 
0.1292052919253121 
-0.38790056517337701 
-0.6206910856192065 
-0.37890367576829154 
0.16510304213924251 
0.18045287836221072 
0.35440883284623165 
-0.41727523624179541 
0 
0 
0 
0 
0.1632223864670023 
0 
-0.70074539334103225 
0.69831365268682044 
-0.5299916495575534 
0 
0.19778360798202399 
0.14990960215258547 
0 
-0.28759047016571238 
-0.30659659408238149 
0 
0.33323960904091776 
0 
0 
0 
-0.079152953343748264 
0 
-0.52243195063352954 
0.19094438327606356 
0.51860425273416766 
0.14950818002706506 
0.27519150123400871 
0 
0.088587416364137403 
-0.12483283018327419 
0.27641430058309957 
0 
0 
-0.21260306213832864 
0.099093890608767388 
-0.14038523847522325 
0 
0 
0.22504917984254647 
0 
-0.13964700805361491 
0 
0 
0.3400610597104024 
-0.31430874281451016 
0.22551779071063849 
0 
0.30330233322985706 
0 
0.072452592211214223 
-0.66724156996023287 
0.094691134466851415 
-0.3334744380647241 
0 
0.13506575027506357 
0.15974811430331082 
0.59525525845162575 
-0.49961877601572369 
-0.17359318962875148 
0.37808778896290418 
0.29380002623435186 
0.1178703623715282 
0 
-0.13114959773522289 
-0.54378235985662249 
0 
0.32386564453073208 
0.14371361309036784 
0.074943459966383019 
0 
0.29053340475967793 
0 
0 
0 
0 
0 
-0.86928120014804589 
0.042225090835821488 
-0.41691590510637389 
0.14082814279162273 
0.49041754956951394 
0.18651739828006414 
-0.0032480089073700963 
0 
0 
0 
0 
-0.67465071544078326 
0 
-0.83200938629549559 
-0.33373189222754646 
-0.20493819609583039 
-0.31846474971475547 
-0.48977094700046292 
-0.66841423877703043 
0 
0.092016580887719607 
0 
1.0280069119392352 
-0.10793690671298586 
0 
0 
0 
0 
-0.20553755783641703 
0 
0.14761635137293297 
0 
0.42055623558484745 
0 
0 
0 
0 
-0.056219512779735012 
-0.19306772789795207 
-0.33373189222754646 
0.6775555736114065 
0.19529265787007549 
0 
-0.3390062117967384 
-0.43644662471131423 
0 
-0.21098287972700258 
-0.27743109406124705 
0.70766837085041201 
-0.30497586295104251 
-1.0354309293882651 
0.12587801209047603 
0.11168084915246151 
-0.15669711041066023 
-0.43912636087005735 
0.2590646273221785 
-0.14036293189315346 
0 
0.13917829618536406 
0 
0 
0.59646412089441392 
-0.14391588927928811 
0.34469147352388047 
0 
0.042815396412534262 
0 
0 
0.55676434563278232 
-0.24510753643570565 
-0.092170126571988198 
0 
0.31163159098843035 
0.49700645621700557 
-0.014998788806471867 
-0.23250038511852575 
-0.1669336581217235 
0 
0 
0 
-0.15720681823406052 
0.55084568652805133 
-0.024195037552006218 
-0.23554279694864516 
-0.77381414894793576 
0.21232414558787868 
-0.11710878401699538 
0 
-0.35465609303455803 
-0.29883541249893225 
0 
0.5564800942088346 
0.49652854867803059 
0.87957767405639531 
0.22933484739773419 
0.05819810577238068 
0 
0 
-0.3116094914087385 
0 
-0.28759047016571238 
0.1292052919253121 
0.12224496243343719 
0.16665670894072493 
0 
0 
0.53199553579775949 
0 
0.225873436270286 
0.05819810577238068 
-0.16747018290819587 
0.082629489981155477 
-0.64403746442123377 
-0.2175230022432233 
-0.34324923301570609 
-0.24453988295514253 
0.3072502205111336 
0.24415145521999568 
-1.1773095461543945 
-0.041260589788278484 
0 
0.13917829618536406 
0.11648180648901919 
0.12224496243343719 
-0.62999131239980288 
-0.53894217396149346 
0 
0 
0 
0.50635277033420456 
0.25443330570380485 
0.14955853429827776 
0.34568784422703652 
0 
0 
-1.0522308238821099 
0.56080664592339147 
0 
0 
-0.60569304964581494 
0 
0 
-0.34383365171106339 
0.56476620013290946 
0 
0 
0 
0 
0.43478487320399262 
0 
0 
0 
0.16044278621955727 
0 
0 
0 
0.14221352134628976 
0.47330422634484182 
0.42329785739745807 
0 
-0.38855743852212621 
0.54555881070431833 
0 
0.12224496243343719 
0 
0.83085549257988189 
-0.13653073679111311 
-0.097906827867110635 
0 
0 
-0.16618793002081822 
0 
0 
0 
0 
0.058611947156561678 
0 
0.19094438327606356 
0.49994813947381278 
0 
-0.68137042187700991 
0.16484493840511627 
0.56476620013290946 
0.69802301995730409 
0.30361434988242769 
-0.2300634508385094 
0 
0.21107349546256138 
0.18651739828006414 
-0.15489857390250225 
0 
0.06105246502245585 
-0.14227649108287393 
0 
0.29820398364786466 
0.65718642417798234 
0.27867168576539647 
-0.23538148660425398 
0 
0 
0.58503803264615883 
0 
0.34223466123807433 
0.66769814401056193 
0 
0 
0 
0.28298891214511507 
-0.20553755783641703 
0 
0.48534729949153993 
-0.26563942130787377 
0 
0.11374926550836495 
0 
-0.26436715199842831 
0 
-0.25984448559995049 
0.56080664592339147 
-0.39358292951091128 
0 
-0.20493819609583039 
0.18548023410234843 
-0.36863380944383378 
-0.3983751564570317 
1.1038955998105433 
0 
-0.21969024638974083 
0 
0 
-0.45561958166793293 
-0.24931207358676544 
-0.25336008352880524 
-0.56782758704137504 
0.9745286582348045 
0.058611947156561678 
0 
0.72087819002397491 
0.20688748570165488 
-0.41129017005164281 
0 
0.24261334607137236 
0 
0 
0.83183092514402013 
0.080547104404774847 
0.84703317032303149 
0 
1.4228411370044189 
-0.24746210318361683 
-0.27178000534369084 
-0.27662724161350033 
0 
0 
-0.40641509045120761 
-0.51392072850097459 
-0.48856268850991313 
-1.1415901533548163 
0.82569740531469515 
0 
0 
-0.61905636323681046 
-0.34383365171106339 
0.17795590400274855 
0 
0 
0 
0.50279372104237563 
0 
-1.0472383603962165 
