solver_type L2R_L2LOSS_SVC
nr_class 2
label 2 1
nr_feature 1942
bias -1
w
0.040612984643375968 
0.22675626501301935 
0.10587701299528016 
-0.12291143472283486 
-0.2448393644343346 
-0.065693270073840598 
0.022464067115342358 
0.20768025347947802 
0.19585230709099596 
-0.31232330946293618 
0.064233922947411509 
0.026584211181253377 
-0.022804668149544346 
0.10360079230650239 
-0.25811895323752598 
0.21655613053355541 
-0.075188032495162094 
0.056843926419240874 
0.091174941945173074 
0.22372052108872464 
-1.1150611557939805 
0.099200246790903279 
0.02588902951638037 
0.04447859298878766 
-0.0078545789907657863 
-0.27934455395819746 
-0.26813906053598502 
-0.032597363397818185 
-0.15381369707406919 
0.18437966159996177 
0.071649990313836023 
-0.25644424866074966 
0.050092424895273942 
0.021425451441658114 
-0.10309436789279129 
0.089310061568655286 
-0.0028356588607302557 
-0.25739461882540138 
0.089510839275769027 
0.034283077336818103 
-0.17818593823535392 
-0.07927070333218704 
0.13748977191087106 
-0.21417351895679757 
0.26993071539032309 
0.071221505775138833 
-0.038105949991175579 
-0.008737910001709228 
-0.021702603628776813 
0.046125513947800054 
-0.015537629301605606 
-0.26153195210402114 
0.059919955148809836 
0.12621779001617156 
0.16637166591381233 
0.10647925840099941 
-0.0044386655949186001 
0.16741814511187603 
-0.13278183720175207 
-0.046244535137834816 
-0.075438258390416221 
-0.025785783167794448 
-0.053546023268322196 
-0.02112109053381897 
0.052398312463368027 
-0.056940930528333475 
-0.061374887521423609 
0.14331818305747146 
-0.11751942968896933 
-0.31501114067703889 
0.088514228556946697 
-0.054174291663134623 
0.026881641555649212 
0.056009562318149041 
0.17704052413682875 
-0.17901458085678684 
0.11046398660774771 
0.051855284632976228 
0.056844132354192993 
-0.041692925997678404 
0.084797581197045654 
-0.19050160796943533 
0.170331738867601 
-0.081939745188995175 
-0.19056256578341252 
-0.13097609346984046 
0.35541831736549312 
0.1080724874432257 
-0.093566085489689046 
0.1148618908201742 
-0.00025720676345724128 
0.14506455951974093 
0.072870936291063421 
-0.080136767344875515 
0.082773631396029182 
0.18940706177823446 
0.060172112471554288 
-0.43392059518784476 
0.19810413045111686 
-0.015144956189754963 
0.024011406852931544 
-0.13286511295635622 
-0.063388716217167296 
0.040710786148105881 
0.10912280062648944 
-0.39432993148763795 
0.12577964697221541 
-0.11529563191933243 
-0.062496540403038411 
-0.031985664965346453 
0.18635110948056194 
-0.068140830631883323 
-0.0047839030895256091 
0.035661710218118758 
0.14113919780453521 
-0.0069104975643074391 
-0.034410217863914155 
0.074657351561281601 
-0.11313758656342744 
-0.058187848752007325 
-0.15573834018089108 
0.085352948080990268 
0.12682744177721295 
-0.14314077447464432 
-0.15144987943100405 
0.10237765544121832 
0.22494901693704109 
-0.39181914388367173 
-0.027931659439758186 
-0.16884941433877265 
-0.064390933855685908 
0.4147958515520308 
0.078023267322009496 
0.059257998621468466 
0.055307707980650316 
0.056287977289071499 
-0.25601451761085925 
-0.042269255618015276 
0.020644745992372121 
-0.14117592036701745 
-0.039349915728893681 
-0.21582122997925957 
-0.160423541470503 
-0.018976349166679313 
0.099761223112436653 
-0.040588494443212941 
-0.20812160686901818 
0.097583224540681746 
0.23323524842863447 
0.29168435810144827 
0.26458861273205314 
-0.11233493683554979 
-0.38285019803970571 
0.3368589984651349 
0.098733769811365113 
-0.12852599559062841 
-0.044731693568517431 
-0.054085978474912297 
0.0094759590383241398 
-0.041910922860333655 
0.073153310440778302 
-0.108771362216619 
0.11858502294599273 
0.12888390667016647 
-0.059840865241025692 
-0.014217428507337537 
-0.16086925501843199 
-0.029080273414659852 
-0.0037401636466341411 
0.0058164903105921316 
0.13579282247375099 
-0.011657637528102234 
-0.091522433730026359 
0.093604439971813114 
-0.099949891008690145 
-0.12216825374699844 
-0.0010528256380226333 
0.027730172890536205 
-0.11137461796602781 
0.041428289407918859 
-0.13560482281455083 
0.042883150144404018 
-0.039867784499523669 
0.16342661331035083 
0.20592388500739736 
0.58880564515323464 
0.16318074992676121 
0.078085592575163926 
-0.0098330008869032502 
0.37120556946587407 
0.068191809509207807 
-0.037071899112357407 
0.07131660973397437 
0.15427243051799583 
0.41090421739258515 
-0.17990655159537255 
0.040207939101688107 
-0.068708848144383661 
-0.11036216825965944 
-0.06095603843546632 
0.10035242763492855 
-0.13983999503070349 
-0.021294274294825156 
-0.52175126518300652 
0.081738743930216753 
0.063067113168177202 
0.0046257198653007038 
-0.14996248270245552 
0.06765275774628085 
0.046775094196149392 
0.019010424107608101 
-0.030826962646575931 
-0.12883229514613137 
-0.13618984099658246 
-0.040738123371950249 
0.045619770904947739 
0.060903087125137909 
-0.053036698124076437 
0.16121463323240678 
-0.042531405598441235 
0.34195764852886351 
0.25141025657772043 
-0.19989049976705581 
0.057767741529550318 
-0.26160996019053417 
-0.070126207604867319 
0.062209245197792841 
0.083548416554880628 
0.1013911214245463 
0.023714164473464871 
-0.016558556448276647 
0.51204661486794456 
-0.16018945475301527 
0.095863348359617073 
0.74470295507602302 
-0.1618643775832305 
-0.01175371732304703 
-0.4424447248342297 
-0.034022263411709379 
0.1471919370728251 
0.052043306720277814 
-0.086236742425305352 
-0.16602953257205655 
-0.04450261319380075 
0.080326645667756033 
-0.21578901560942484 
0.016978855661999026 
-0.069246784073534684 
0.041840405161269363 
-0.14095383799310687 
-0.19890477800897319 
-0.13572084941202137 
-0.37109305464456116 
0.097936370381677657 
-0.015629151595191938 
-0.04775875481088597 
0.26683986611665844 
-0.02147558865451904 
-0.14744951490289968 
0.056929458581581986 
-0.19121487570955756 
-0.12923424342052803 
0.05910784587384315 
0.067850444120345257 
0.30650780063142502 
-0.18239472899944784 
0.011463329818123735 
-0.22516702435859884 
0.08967102776903102 
0.17425346841790701 
0.12453933475411899 
0.084424219584887661 
-0.069375371765898697 
0.065823491888865687 
0.20220698629169309 
-0.052365335311916714 
0.45905471165556488 
0.11283965897312842 
0.06896228836100872 
0.17151407583787623 
-0.10197565760867645 
0.038236230700934813 
0.007572056100330923 
0.13653557981377734 
0.00052531124498267183 
0.1527286459303128 
-0.010784605058164835 
0.15549564383242689 
0.070079553204206529 
-0.22576682493399908 
0.089746202201840361 
0.050227209435471321 
-0.092405046431131871 
0.012406049887204278 
-0.16808079173906237 
0.026946163557052944 
-0.27305878607942252 
0.1483904109865947 
-0.16568160192396714 
0.19425475188860905 
0.024844255865603723 
0.022689005949059187 
-0.049133774781753403 
-0.20821477680978354 
0.0089129125578056734 
-0.47071456996643068 
-0.042451170223604777 
0.24769216765884533 
-0.044870106393090962 
-0.11283006845447566 
0.018964733422661913 
-0.023346850715246156 
-0.0016710001794501212 
0.046010144614210685 
-0.25133627979829493 
0.070070619855468946 
0.12206037807341454 
0.051032245327373035 
-0.081052336463284066 
0.43893320450738749 
-0.12281136641000472 
0.11970354599268655 
-0.32388879495362072 
-0.26348838296353111 
-0.10753846626712361 
0.024562463961629477 
-0.018807339210138361 
0.092484311247299292 
0.12671663956523696 
0.030014571786966301 
0.082430975426037029 
0.065209685321438865 
0.148440094957319 
-0.070350430905592592 
-0.50856928759058417 
0.059439964751185806 
0.14779329809449082 
-0.057131871945769658 
-0.17142652930654373 
-0.051223743577318695 
-0.10684097735164383 
-0.047740673218352278 
0.12774556741787069 
0.23043664770942018 
0.14421717301854076 
0.081251447242132055 
-0.048848206686533543 
-0.02096026406812199 
-0.062192185910219661 
-0.045703387629315174 
0.076940780781635437 
0.073947852264491909 
-0.10529202774521887 
0.019594055401839477 
0.044815492261384413 
-0.046944267065258241 
0.3410729376475139 
0.1118979562678991 
-0.0043191590790750481 
-0.1366113056121884 
0.14708055558295266 
-0.27651635878292163 
-0.059917570598067474 
0.2240078649266799 
-0.23972700360914215 
-0.32589279166262047 
0.049183192918701796 
0.039860188623915334 
-0.15713046618488122 
-0.1502029216628511 
0.033023922536434359 
0.047990380609659856 
-0.21369322560336582 
-0.084804296771375701 
-0.077212503640019386 
0.095594452589986348 
-0.033616523308374863 
-0.20844871073667698 
-0.11187232559884991 
-0.09860458335368126 
0.024525350008308945 
0.19545457798007934 
-0.073118240707019874 
-0.015777986999480863 
-0.063161921276034386 
-0.011238114621364061 
0.30667851356240655 
-0.12763142025516147 
0.27673743717242483 
-0.15341856622645889 
-0.11797515213333828 
-0.061905287994235503 
0.37597194212021007 
0.15869781570248501 
0.23213359081474741 
0.021864486329773822 
0.11005517681231285 
-0.1259604396769704 
-0.080538170188212549 
-0.098494890792905632 
-0.13021116246848227 
-0.18769435824603814 
0.25777848829250571 
-0.092083248504954737 
0.02027232175022187 
-0.16297371157427809 
-0.097686451475856459 
0.071233181207259355 
0.23462652559986391 
-0.087582059007662125 
-0.077138541750905065 
-0.0096930076744130254 
-0.00071721551136925596 
0.097400578911446961 
-0.14338275273691667 
-0.040776770701115544 
0.0093157008431566275 
-0.11543691701522206 
-0.10704520209310227 
0.086168138504275016 
0.0086285908301801002 
-0.12891516591020027 
-0.1959102504210268 
0.26301190193072949 
0.098080431774125648 
0.11947740056636928 
-0.20594219645504463 
0.99710787367409193 
-0.014100433742962805 
-0.1051343728631355 
-0.1450344352117455 
0.11632586103499022 
-0.0015508450735802004 
-0.0039017662295449435 
-0.15469930370288304 
-0.15642842066304749 
0.089547681374474775 
-0.28803474312562033 
0.15168864958420258 
0.10942197556112165 
-0.11819224585457226 
-0.37513847366642283 
-0.10715201250533524 
0.21342111385974155 
-0.011131543764825594 
-0.03170382856624706 
-0.0041076681455002491 
0.10804009196513156 
-0.089858810051774443 
-0.051072707679090279 
-0.16622095903108383 
0.01721771683699394 
-0.16421275552122619 
-0.22262805641078626 
-0.13296542170709 
0.040239500563991004 
0.048084640311687507 
-0.0030817267651637309 
0.00024907770950660657 
0.034567717136372578 
0.0097955584309915508 
-0.43140449839040096 
0.083103823450407052 
0.062533949741463854 
-0.111189268154677 
-0.060882384664423368 
0.046815853990152069 
0.065295209560240403 
0.55583852030801029 
0.16996492663200893 
0.0115941280920461 
0.059613111837692183 
-0.35275770332221013 
-0.044584276034396811 
0.11240531179429575 
0.13490122556003248 
0.046206116420211302 
0.053937838196836285 
-0.03890746846454763 
0.12923758826615103 
0.23797081953829136 
0.035661710218118758 
0.094301289774277458 
0.30738581425333322 
-0.2776651856436807 
0.03021993299916733 
-0.13240197404159748 
-0.035169479413945486 
0.12643781079273372 
-0.015260539743234547 
-0.098664160757326813 
-0.023170587251735434 
0.21106265489468573 
-0.19773221969300753 
-0.0050180197039626992 
0.023556935194274823 
0.001363455754710953 
0.0043317278915464023 
0.045190900259520231 
-0.13198636333553038 
0.034742181528308852 
-0.30464927656470908 
-0.11714990833645075 
0.29334550867750941 
0.02190410007389702 
-0.19377911576659679 
0.0042146608977605918 
0.030221180137937342 
0.03796373802255916 
0.41242708200579159 
-0.064478562873175368 
-0.70234758908483796 
-0.23604295732204916 
0.14409530252573519 
0.018316494053960443 
0.021860801463457265 
0.048801357372806733 
-0.025624224333679044 
0.020252709671062519 
-0.022029718618953673 
-0.1005440106907651 
0.095397157563896218 
0.042460357864576227 
0.32176430456134131 
-0.029304160178520489 
-0.18563324150307364 
0.066834374993707507 
0.076517649893977385 
0.39215697804378186 
0.028820539393483433 
0.10942429342805403 
-0.20076541949466223 
-0.13846401820858326 
0.027777426950582738 
0.067872044676638418 
-0.052166678190930647 
0.14468413951484721 
0.24444093488116225 
-0.19237119224014856 
0.12010491895622581 
-0.24447906189221807 
0.1661768855186582 
0.092930843043646835 
0.11149494863434237 
0.1668892761109374 
-0.10602529667777824 
-0.14215756126759757 
-0.11167871057644758 
0.11267149294639507 
-0.085892076985968013 
0.072755491669268729 
0.01850069740085622 
0.13698399043371814 
-0.027919825443252527 
0.025199698611380297 
-0.14282261876700766 
-0.080360598532063565 
0.25459251041050707 
0.18272475897722637 
0.12137060203843901 
-0.11370738694438619 
-0.21017482625623793 
-0.30082369997233471 
-0.028720008557441362 
-0.11670486335083681 
0.0583894262661349 
-0.19106189505922314 
-0.20555588483041207 
-0.02973103798290553 
-0.1981227889974011 
-0.29398398956349786 
0.034729311238067814 
-0.10832836143572853 
-0.0160190889274794 
-0.17060719951390227 
-0.033305816185415518 
-0.036560315212318943 
-0.1263143830073776 
0.11867523540056182 
0.039298909268125563 
-0.013621791644394067 
0.26725443590042003 
0.0054261327790649655 
-0.21650539287321532 
-0.25546364627551121 
-0.12995522778402838 
0.050615676901620985 
-0.23360640973094371 
-0.024781708898826849 
-0.24285906236701577 
-0.057819085521509654 
0.11969023699355029 
-0.12719055906029961 
0.026166096677232492 
-0.052707328869288264 
0.11343744000205934 
-0.099568660704529841 
0.10390196425240844 
0.064506099244299606 
-0.32402010681545951 
0.23342650504919377 
0.052043306720277814 
0.056293065805249648 
-0.034518300101335837 
0.15005491229943974 
-0.19312003636232453 
-0.21809331750664696 
-0.23727121175291438 
0.10097058026714043 
-0.055632435803688873 
0.21857820475563813 
-0.025874838068465869 
-0.11438550298261146 
0.037547456092763803 
0.24340684584804537 
-0.0076325906872185389 
0.16114999325113527 
-0.076382580935015543 
-0.0102686840676584 
-0.06996035669450211 
-0.21761576266431018 
-0.39036596216079716 
0.16877507143104475 
-0.083133082930401531 
-0.0030167706462086918 
0.14798379467364178 
-0.44792502035935799 
0.084109569887411806 
0.15351632110693578 
-0.068804614377401693 
0.14334419292161651 
0.14089083831587951 
0.039105460045950925 
-0.26717526919193052 
0.28338845469514279 
0.087644771983771019 
0.019269475261921458 
-0.091101219917289603 
0.30581454695295851 
-0.0082228492939598989 
0.039176284063081539 
-0.11485439517371925 
0.28881357073530178 
0.10932129866638139 
0.19439456041879929 
-0.24107400940663229 
0.050353369384574929 
-0.34172641476569954 
-0.35943142201343742 
0.042753163454540923 
-0.01699687235853823 
-0.22205581338309954 
0.13328562694537435 
0.0750431327217079 
0.026849030731098268 
0.0969971853350267 
-0.027409314686905207 
0.066118447720570697 
-0.1275944131302805 
-0.060750521162136667 
0.048114115658792117 
0.12988125114768376 
-0.086214265355423911 
-0.043019146957804399 
0.10517084351652808 
0.055452013952474566 
0.17169489480380917 
0.073367674267694902 
0.3923144332352691 
-0.11801132041436498 
-0.35096238254488865 
0.12085644828107844 
0.10195218338717889 
-0.020053806374409833 
-0.08591366900583694 
0.066418492084712261 
0.35689491080308006 
0.16404187331967912 
0.13778161596937408 
0.052902968519412411 
-0.11204505270455073 
0.19735396825144763 
-0.045117395059925375 
0.18833444370843458 
0.21696535202967754 
0.29686152166425694 
0.027456515821216321 
-0.083133082930401531 
0.01939309939344365 
-0.088578026128966758 
-0.20467990666684621 
-0.2348168845421908 
0.037432600673894138 
0.16957758847853677 
0.34503428309301537 
-0.0946040341765228 
-0.27787549033247855 
0.082983296913918259 
0.16120542796360954 
-0.077111267245194418 
0.49578134541699481 
-0.62675781312477419 
-0.14377874267647572 
-0.15133443177346476 
-0.46415138746389617 
-0.012595748771088312 
0.075600320188874637 
0.14155491023375755 
-0.088522955704018857 
0.080131633506388536 
-0.174024226209369 
0.072795076534952929 
-0.23580982350129481 
0.10407282428430287 
0.11600457089685771 
-0.14443693896941945 
-0.034907713966641309 
0.11839612806026566 
-0.23173282175163068 
0.015114624681822977 
-0.18839990866858999 
0.19026181666337849 
-0.055105981288465743 
-0.14084075239308194 
-0.15947456049506314 
0.24471515259694707 
-0.16360801857393376 
-0.057777069725424575 
0.038616534054339173 
0.022161228073105887 
0.083477850775401444 
-0.03106998832353814 
0.15371748000497251 
0.20292586416669284 
0.023005324539711536 
0.12444105739819122 
-0.21594342560862864 
0.0039091030735679821 
-0.07358015064256189 
-0.087666396625216206 
-0.16525289779601557 
-0.99294316196748811 
0.15584378520339615 
0.15151532812706026 
0.26447638514186667 
0.16895886529761941 
-0.25378190782166093 
0.028141257370770618 
0.20930997765527548 
-0.38429946990354968 
-0.022002070122438089 
0.11798648684875497 
0.11911427755190598 
-0.20182956722203332 
0.15258246543639301 
0.13235648933107785 
0.084434759084703256 
0.12426384904080164 
0.28445907727276848 
-0.032640615588234313 
0.12563273553415397 
-0.082432975525470131 
0.36105189912879909 
-0.14750573140114781 
0.00054808518146169031 
0.1239563461393693 
-0.042295306328217402 
0.14478894720053001 
-0.016082449512971289 
-0.24509293823972614 
-0.51116332319575197 
0.17239598157271507 
0.12903918578273862 
-0.0089695293881139251 
-0.10772852194963296 
-0.023397817051703327 
-0.012659524176190663 
0.10988029817486339 
-0.12005175760202999 
-0.83908695104367825 
-0.068177029515550908 
-0.011997561888690523 
-0.085523992297492829 
-0.052365335311916714 
-0.23637206952108497 
0.060145743924884434 
0.57302434906173505 
0.059533722816192784 
0.027708229104697661 
0.064162230222719219 
-0.065869828881642722 
0.075750339665592761 
-0.034042310863111075 
-0.10840936664706574 
-0.20066469206915041 
-0.11957915574252188 
-0.2838849296136155 
-0.056185627197025405 
0.15012400560358857 
-0.078546139368224896 
-0.028108709595335558 
-0.2372526311180651 
-0.2295840113440632 
0.064894843053187656 
0.039711603936811737 
0.041603144387449602 
-0.41475303365009292 
0.070723117299180113 
0.43021736161583518 
-0.224615734615811 
0.13959845633688669 
0.053635838658429656 
-0.32592421701429553 
0.32063671894719747 
0.16497864590786018 
0.10635212652745757 
-0.039252496631902646 
-0.023175526162687275 
0.11318066567664517 
-0.10194375941353 
-0.15124197805899484 
0.1081628354952084 
-0.12800333423011012 
-0.077100275738191948 
-0.0036716089706233281 
0.23790771296264424 
-0.0023312351714241987 
-0.069986918474111967 
0.079000918994479488 
-0.13367222462294051 
0.024044921569357596 
0.044093941169142448 
-0.052143278926666953 
-0.019169294262636149 
0.048780992950010024 
0.04081998180013427 
-0.034904712033118089 
0.01343639367142836 
0.32587638914579148 
0.36145968031461029 
0.0041846636687194001 
-0.083483475109811092 
0.010504695914434104 
-0.23585081422298013 
0.23307998978401656 
-0.10426298589759743 
-0.30056102881013225 
0.057279890541573987 
0.31043168522734038 
0.1323576450438948 
0.10892098296515658 
0.22235676957723299 
0.064361416223699897 
0.1145918657077024 
-0.19246557959935606 
-0.080466147308451336 
-0.41593867315381999 
-0.062059506468933205 
0.20974792711727902 
-0.0061529835530137397 
0.11702228885711091 
-0.033864361310242612 
0.073925503954134678 
0.059671892589429745 
0.032243712745647107 
-0.100475725384256 
0.11581771797509119 
-0.013412822157974787 
0.17450076495545527 
0.049200698057085129 
0.060046600353518047 
0.021060230036976019 
0.16017133065781081 
0.18312025621000705 
0.092111401248526986 
-0.091446535640642035 
0.1117306191438273 
-0.084330224155132416 
0.11491211415827036 
0.10653281031573855 
-0.090661668965167946 
-0.16440444303100973 
0.089075229625027147 
0.1821363283479025 
0.22539640670954539 
0.15775211977366965 
-0.099508936658843625 
0.19611701149708535 
0.056904433573482224 
-0.20824162277960881 
-0.0066324298134514048 
-0.023822406636629163 
-0.030727661505139309 
0.072700450839427652 
-0.076193121376679177 
0.09033353375971509 
0.34990349985249364 
0.39659550764651175 
0.15461264818644843 
-0.13654400104933709 
0.44093334061745781 
0.37495075007584894 
-0.031407324419545371 
-0.10357211694091721 
-0.15904326126118415 
0.12178996878284067 
-0.088365008026649913 
0.44451432581486922 
0.19436168449686492 
0.015861313411075488 
0.48837566330034143 
0.20354261448662125 
-0.09070566897616035 
0.093704341847783867 
0.067325110013008171 
-0.057992015228688791 
0.27597940859030462 
-0.026344295177515603 
-0.06983598028935023 
0.025613793341096949 
-0.15533531667000572 
-0.097999672826491024 
-0.20664039955848718 
0.067054529289207604 
0.10127321236333033 
0.03246862766436958 
-0.10171592402090769 
-0.051797107393429964 
0.21550248207800371 
0.019593529907659876 
-0.04302575147355453 
0.31320002425783738 
-0.088115101026846998 
0.41682159062188562 
-0.15302530473565723 
-0.0016533330493513358 
0.15968134312271903 
-0.0061454753302059503 
-0.13863408199961677 
-0.006974017187456388 
0.064481871518373549 
-0.023561733666272417 
-0.095422777455908755 
-0.087397340411372038 
-0.12317766997717711 
-0.21817119452315481 
0.13532383175555449 
-0.073708978789255475 
-0.17135182612635705 
0.21301471657093568 
-0.0048568128273368972 
0.06305692946419672 
0.068505446850843935 
-0.0012711989538018843 
-0.17161599867253616 
0.35299688538569379 
0.028879502836614807 
0.033394233932551781 
0.0072448328894791081 
0.54364448757521255 
0.037862954869869479 
0.014927222432335085 
-0.057617723969703952 
0.092694442419148648 
-0.2069095985085595 
-0.61278071162273473 
-0.044811272056220458 
0.026370948188724319 
0.061871010301959711 
-0.12719961305795038 
-0.24366872647298934 
0.048994217844652972 
0.12712476924691521 
0.12623595223786679 
-0.12715333042588928 
-0.17924200540176888 
-0.1169344382098768 
0.067463456547397063 
-0.014537832313193638 
-0.064938082957883586 
0.06488088145373655 
-0.13581853581532224 
0.41227897677516362 
0.078111585893054503 
0.08880327596460344 
-0.13479718911873767 
0.23301857532834752 
0.12634570062934963 
-0.20546251061707752 
-0.0029938403099313577 
0.031322562398793566 
-0.15803535245612746 
0.075471080626048778 
0.99409777502844243 
0.52477910074749212 
-0.06341084728351068 
0.09547842228056215 
0.066904201412928202 
0.20940622387728033 
-0.045035786537279861 
-0.065421076758033603 
-0.25850402648785409 
-0.047255578458945943 
-0.0041732430708902027 
0.039752670728684644 
0.029687360901504787 
0.13213883035808857 
0.10124623606340237 
0.44880937415226624 
-0.21940117865722658 
0.060422177022788078 
-0.090737707673699014 
0.13901752202403084 
-0.083709476172056943 
0.11691918644663973 
0.16695661050254956 
0.10836136393316234 
0.11787347502898657 
0.065171173007997865 
0.058383800783066125 
0.17104181473802774 
0.10593888250717243 
0.39995844704300693 
-0.94885520951769231 
0.49502405627295559 
-0.063240772418028765 
0.054746574384314517 
0.11636688212092325 
-0.039675838852291624 
-0.035754415534855241 
0.04238946996565033 
-0.050240398810140009 
-0.095715404260628453 
-0.065913943449033355 
-0.027409435241816583 
-0.14116480879162446 
-0.20201195283686066 
0.002029989745781799 
-0.17639699468082862 
-0.06210505053604598 
-0.068064239705671728 
0.060681609772915868 
0.041508055199585177 
-0.24248518557777879 
-0.064513358983204844 
-0.090704155836962952 
0.084953873688440942 
0.35105008751894512 
-0.29702288430851292 
-0.028970307747201305 
-0.015709053853731926 
-0.18258368536520078 
-0.10778157033030193 
-0.2184111772073816 
0.081245709650610717 
-0.012609471570706205 
-0.066388598182140948 
0.015300830924906555 
-0.048099374911035268 
0.059164284166638284 
0.090284094964195163 
-0.054188696434739503 
-0.2681799962539268 
-0.031642652966784417 
0.0071784277839408552 
-0.15322735748380178 
0.25761183119145414 
0.045338259354823725 
0.032581514676277408 
0.12113352981783794 
-0.15170354060605709 
-0.20687836597177753 
-0.14952138982848381 
0.091401219558948019 
-0.28149751776282778 
0.080128695828685717 
0.2338190803651749 
0.046322737462790725 
-0.0062777869992804124 
-0.13676364368922267 
0.036099149884591689 
-0.10427686224769683 
-0.12778700994135128 
-0.1816272726518614 
-0.10077900153958584 
-0.20519800282714956 
-0.019086848520732252 
0.16189220866590073 
0.012072487725000422 
-0.043145738259834233 
0.12196400255245318 
0.04868565766246373 
0.080665850810567194 
0.05789048076767974 
0.10914238282204798 
0.2729068912710953 
-0.020963786108820361 
-0.11575226517947317 
0.11095822449779263 
0.0092771868903436458 
-0.0045440164058781832 
-0.029221835358104881 
-0.074710424215348334 
-0.052518210503693055 
-0.075030209817183433 
-0.01182051237207013 
0.18701589684811687 
-0.017659080324062899 
0.05315309241219731 
0.026041426918355138 
-0.047773267184159543 
0.072217097677794953 
-0.078455289077995288 
0.36513125659286111 
-0.16295477293068167 
-0.00040918226413678288 
-0.034589014172103291 
-0.05984647678674853 
0.052656824272947572 
-0.040679031967553972 
-0.066764629841673404 
-0.5320225415075619 
0.058738051106019547 
-0.11659328694415982 
0.13613898072388725 
-0.16071240617825605 
-0.11551099763210891 
0.10903740238505233 
-0.30719210007350778 
-0.082378032022620562 
0.047958843213022712 
-0.2488807290643042 
0.13924898426739191 
0.051519236653218531 
0.081780006723593632 
0.053858063785136891 
-0.14364443600298102 
-0.060877817367079666 
0.38116873858045086 
0.15703984492077439 
-0.14117592036701745 
0.075462087676810688 
0.076876255915849498 
-0.0423638922861371 
-0.34730969167531583 
0.010726527875696187 
-0.4988191737456989 
-0.26257826162124204 
-0.0888226378790518 
0.025318066145473262 
0.0010325015382004056 
-0.23901279095367794 
0.057370160199980931 
0.27332508102563163 
-0.037864937470816061 
0.27354026511502616 
0.42399558707405877 
0.022474100014081289 
0.077202026998328135 
0.052611445648915255 
-0.0080654331884877552 
0.11554942356634625 
0.23691261530685362 
-0.14631091451800129 
-0.075139530664647736 
0.0015102807802817864 
-0.09786818336200033 
-0.066009602065151149 
0.24956494828220099 
-0.10250850438007941 
-0.11738817854755927 
0.36063813294340935 
-0.016187926456810289 
0.014760220748309422 
-0.099813897957575309 
0.17229392371170177 
-0.025002306695453079 
0.068252007588134433 
0.043650340079468025 
0.27584761861226537 
0.21962313242073694 
0.069640051565116809 
0.0062260792825254169 
0.039829844415806892 
0.01911188517873335 
0.054131822907644969 
-0.27776516964869252 
-0.19516951544267375 
0.14399276612239539 
0.075239869698750253 
0.3051312786294223 
0.16153114875322289 
-0.10920501812167786 
-0.052669547363397309 
-0.1277082015791941 
0.055257432101603762 
0.052393130049833522 
-0.10149888211801888 
0.096409682373682637 
0.083719804092152336 
-0.17332738677427215 
-0.010887513000309624 
0.15699301356231196 
0.07306580128043956 
-0.015751552184457181 
0.014285636892821032 
0.012007455485815848 
0.11667910898040135 
0.21111367550735394 
-0.015260012663767718 
-0.0087433790485343839 
-0.080148819288534706 
0.07914697517770744 
0.11549501889517451 
0.0026090698953555474 
0.054330137172863537 
0.14976803801619873 
0.0049702467005220061 
0.071502647990859647 
0.027454103851700544 
-0.22431904209946665 
0.070171948256623179 
0.20312080222282833 
-0.57793586904814764 
0.27033071526560287 
0.11430189169015098 
-0.0093172308799859237 
0.13034288301677477 
0.15012400560358857 
0.1630010454056538 
-0.045325218434048103 
0.085391519679300587 
0.074200651960033157 
0.041968952878744643 
0.48319129414675022 
0.053243316553523184 
-0.25194248806273628 
-0.35927067239193528 
-0.24953804786387657 
-0.02219275371114638 
0.14758379996385118 
-0.0091931843317878195 
0.018531746936354059 
0.071502647990859647 
0.05689217644146493 
-0.088792492073765661 
-0.14952914714802762 
0.13751282384505231 
-0.070779224660487444 
-0.013199392498942013 
0.086512988150123316 
-0.15832847645691195 
-0.093568533190236003 
-0.066519996746851204 
0.084867859921592043 
-0.022711856124951257 
0.11806538519089649 
-0.1773280166877387 
0.166252903198749 
-0.11128379105740155 
0.030903283983974569 
-0.025170590323746158 
0.14533612521725592 
0.049200904779117309 
-0.17013840076937373 
0.025135136370337749 
-0.0090196943834660263 
-0.022690590351967636 
0.14139184076536029 
-0.0074686847840909135 
0.17938899021545565 
0.053704387579821725 
-0.083133082930401531 
0.039128731802757652 
0.11067411197700398 
-0.059932765953597936 
0.064804706893892977 
-0.28843749383896605 
-0.19800102515893345 
0.012734243013394837 
0.16497614010581646 
-0.12464635008933714 
-0.053216754863440414 
0.0032633077256555699 
0.36825916716015222 
-0.076692969911958508 
0.21966053774230754 
0.083015529921173975 
-0.09949133795922907 
-0.014410257333158684 
0.28451804177561135 
-0.1176769803828053 
-0.036346777673453262 
-0.099730339487953457 
0.035605819038175307 
-0.15918334544494928 
0.15810721126008759 
0.22682630347133023 
-0.18114740206084401 
-0.24506419285032446 
-0.15378690020651489 
0.276767397248884 
-0.045422462407461665 
0.1242320464742914 
0.1965084238076443 
-0.25311888580699454 
0.097069001711343972 
0.266928300043828 
0.19588369233337569 
-0.078288302957177924 
0.4074814261443041 
-0.16125746261796545 
-0.011277035387526739 
-0.048867559347003132 
0.067630783646902032 
-0.003670855516156946 
0.082151153419783157 
-0.075756606909925597 
0.014173593758119774 
0.0037823407974269 
-0.046300731237993095 
-0.0055425160609619863 
0.012798546863975867 
0.41227897677516362 
-0.17808157693834234 
0.025394368874498623 
0.16659962758726132 
-0.12172148605401598 
-0.12874339176011432 
-0.044707249909749482 
-0.02607402776862569 
-0.01203188788924636 
0.079643981464732283 
0.084458796595585958 
0.28014674078967272 
0.22005058926036528 
0.10158993617838656 
0.048904044568542936 
0.010236743111967272 
0.10399431933137518 
-0.042269255618015276 
0.0018290568302663597 
-0.04068647946371428 
-0.12317362430297332 
-0.15166110701632485 
0.20357120032903891 
0.063888401226791958 
0.060374073658776221 
-0.25554231321714888 
-0.035430530346048685 
-0.046201657046519053 
0.060515128353708939 
0.013783321753278966 
-0.01783709152870953 
-0.22260594319037857 
-0.13852861043987347 
-0.092772667701522898 
-0.73484097612628529 
0.018781513088792647 
0.10389121445238141 
0.30547979282395443 
0.02951988399836189 
-0.0017121866557665696 
-0.099050479413862608 
-0.16507546287123967 
0.027358384888021607 
0.086024110344607913 
0.28928241671901467 
0.09497270042365144 
0.10540977477331388 
-0.26177224236360763 
0.23972687730871631 
-0.17510261664584445 
0.1483559913416142 
-0.28583418101316177 
-0.075362355867464731 
0.16968224221803199 
-0.17361183703058411 
-0.11159439658255238 
0.1604773242491935 
-0.034088925477368491 
-0.15591380064124813 
0.072034208044581896 
-0.023296222108574207 
0.061730990762232679 
0.15667681944176803 
-0.23686243841529767 
-0.045003823687748183 
0.16974641250816347 
-0.21378426298655701 
-0.069556796653529998 
0.012541275198244609 
-0.13587027989852818 
0.067752587574929649 
0.091292199093736703 
-0.15598329279183631 
-0.34012074491458444 
-0.021557174856914017 
0.031181948991764435 
0.050472549047955478 
-0.15006577681126043 
0.058709964608971016 
0.32354111521084622 
-0.23022889730861285 
-0.13021912199760369 
0.064863836071883341 
0.075928296722702682 
-0.2243890319219376 
0.015179301955325089 
-0.12149846017202837 
-0.20512680885681972 
0.038222451071027758 
0.010203360159849992 
-0.020916692979801844 
0.097465865571280022 
0.2443820059877756 
0.055621555276592072 
-0.19963721825543684 
0.31758166302977581 
-0.12390477427045801 
0.047999651878483637 
-0.018537988248613371 
-0.11870017484726267 
0.17039887309912111 
-0.18224972319688873 
0.23565983180093814 
0.15113388795514643 
-0.077201275762296337 
-0.03046959032412835 
0.099396015338311411 
0.1874103044674178 
0.17960444530864106 
0.091039455873912142 
-0.23683995075649733 
-0.11290277963962173 
-0.071089136208074472 
-0.098699668365248974 
-0.14520544549006359 
-0.10711040152700435 
-0.22384146289355983 
-0.14288719897659297 
-0.032855699119926356 
-0.04042132563511714 
-0.15664787844769307 
-0.10771949381423096 
-0.071808737687313648 
0.050219025832298786 
0.18471544422120739 
-0.16685555613863584 
0.074528086090124235 
0.052671852369269821 
0.29469175404324488 
-0.16501137295913687 
-0.035414973206868983 
-0.17508251916067816 
0.11827962609339281 
0.18476648411562804 
0.074641047897252691 
-0.054796943620366828 
0.2058458110090165 
-0.043879029038233264 
0.19231593717534806 
0.17918459702300141 
0.039330476811481538 
0.077681345966271909 
-0.22404924889120728 
-0.33725495170489167 
-0.18521785208685779 
0.071978444152151558 
0.22810030661080091 
-0.10493072859027842 
0.078141999852356883 
0.10736924023396684 
-0.063515644717555983 
-0.076679583127794215 
-0.0076015341254640715 
-0.25626270538118751 
0.1417646700026654 
0.077013682798014252 
0.16239834926246377 
0.17090492836716398 
-0.13925095821296854 
-0.26541158515940583 
0.0012789345357137856 
0.21724851315187374 
-0.081132858039890912 
-0.066487215037719621 
-0.17421614584752776 
-0.093909527562294939 
0.24876570581291949 
-0.025764948837467938 
0.16886936705811562 
0.068833123226932982 
0.15836237520914723 
-0.28274090347053932 
0.0008797816987359164 
-0.10422645190588335 
0.21833119257419586 
0.17513157947964664 
0.46555245883399377 
0.06036746945751989 
-0.22489009386115932 
-0.46473443036745754 
0.086279856959171397 
0.2488283891001925 
0.039544661963515727 
-0.092309713408776986 
-0.039263567284887245 
-0.072967808674159723 
0.18091822142182878 
0.29061014011245717 
0.06583002045991708 
-0.096961214330862799 
-0.12990882098618961 
0.05911020729267074 
-0.13657659057540886 
-0.016241859040277081 
0.029158142021998734 
0.41369370625904855 
0.16588090166397543 
-0.094140940573876924 
-0.054118025992847964 
-0.01773956255458552 
-0.041898941101553705 
-0.31581029568388785 
0.11072655045372999 
-0.10469621374683627 
-0.46415755033142136 
0.036854341595725724 
0.026828139424425961 
-0.46230788975613568 
0.043362810058134221 
-0.13382807274852479 
0.032639640167049275 
0.15861485938389902 
-0.0043153356370678221 
0.23928637240886208 
0.11117246213921277 
-0.17169652837837887 
0.11734499792979414 
-0.026281797831116303 
0.20009538170509975 
0.2951731749543467 
-0.01892888053294035 
0.097416846372703439 
0.27178504223504002 
0.12593471629235761 
0.072989341950148431 
-0.023976224174618199 
0.1787939545941373 
-0.058176595852569971 
-0.13977379492982675 
-0.0075906030423609295 
0.065760611701577765 
-0.069515926739968301 
-0.13330613407594075 
0.13652632024882544 
0.06281189459899425 
-0.40236809073785079 
0.18555066640489315 
0.053456133925474401 
-0.126979335816684 
-0.013967737710279118 
0.29736057321232962 
0.060236038008876357 
0.071355108636869946 
0.13395556364469721 
0.03847281191331535 
0.19121368849535456 
-0.0054443962465852529 
0.36644021175771407 
0.084631111611234627 
-0.19308974739007148 
-0.17770174205483136 
0.14460996870070042 
-0.26039761093451858 
0.20807057495395656 
0.52737370926248928 
-0.0026668848860424022 
-0.0227688494393571 
-0.00072703832943209841 
-0.065747577495161746 
-0.4235288559804955 
0.17173646487324745 
0.11810443202602669 
0.13179063279057945 
-0.17905447565646418 
0.11721351682880855 
0.15214079136825825 
0.27461040427574618 
0.13145773802327929 
-0.23607489241007029 
0.042999781808265657 
-0.15837447091591467 
-0.074504417724992375 
0.015870600220452162 
-0.0080130529884376144 
0.099830915380893046 
-0.099700733741397804 
-0.062240660061993469 
-0.085811367641579844 
0.14652081665934025 
-0.46139517239893657 
0.32505344478792492 
-0.1221583528413748 
-0.10746044673802248 
0.090914315986446767 
-0.1335045798974267 
0.098050125546028558 
0.13349018140112492 
0.060504388772616352 
-0.0074655198818072447 
0.22465523547497565 
-0.14146636603230181 
-0.0044149766341095992 
0.1792738333239953 
0.16432919782432459 
-0.10728482680119926 
0.091680622512032309 
0.10029924430044505 
0.19934119203054149 
-0.16235972616313307 
0.074635216024139112 
0.063541274551098606 
-0.050307584585260127 
0.26498243824030537 
-0.050577216744717129 
-0.099651795389501641 
-0.034162202633178707 
0.078165382488236873 
0.060724049490908885 
-0.12562949892926656 
-0.091240660830739589 
-0.22198867881354689 
0.088101227671664797 
-0.11251582630651658 
0.03059713695620999 
0.13408579417476207 
-0.1414880925517969 
0.026527614439938653 
-0.094945614193716499 
0.04447859298878766 
-0.052269280897537351 
0.15061031826339363 
-0.24507437276766469 
-0.17654811394045822 
0.048879861687134603 
0.031586049777036045 
-0.14238471345497319 
-0.050777923874824583 
-0.13148497011650401 
-0.19985335731431966 
-0.26491833550370192 
0.047805312125713706 
0.22817393278729267 
0.2657862000192297 
0.12163282434669245 
-0.0088899930975808068 
0.10345655436119754 
-0.06964455935503916 
-0.17467253982750941 
0.11255779957874022 
-0.29119200536321699 
-0.17696177325756615 
0.17215893993642944 
-0.13620441897137997 
0.07389808844701172 
0.025088503984390227 
0.078308256005051285 
0.24844032272837016 
0.26446971023478066 
0.16963917121017641 
-0.29170798348884408 
0.10738626575279775 
-0.16227637239701967 
-0.11652533441774751 
0.014783381565690463 
-0.42503544599228987 
-0.092145351914508219 
-0.025887813450636378 
0.29580124809946795 
0.026308828507696259 
0.13972096639335477 
-0.15983250781780056 
0.15766581000838761 
-0.20346348031937828 
-0.08168824984013727 
-0.020709885212576912 
0.24090811204911794 
0.13663209499859327 
-0.27284276883583808 
0.034711419403813094 
-0.1287447249841247 
0.096439424985318489 
0.97260212875017726 
-0.064710087403024488 
0.052505355831691219 
-0.14200885700441887 
-0.068981418637542966 
0.060366407691778597 
0.15258157216594473 
0.036240340632601613 
-0.1296112193272318 
-0.089706044331195042 
0.30322138401954235 
0.016728231267946637 
-0.075310109802930708 
-0.032743783403762626 
-0.16941030122149042 
-0.20531140636509715 
-0.15691654653552722 
-0.26135204028135589 
-0.0036147916786462083 
0.0023950983725924187 
0.064138280486706542 
-0.095808092841653578 
-0.013156896165555709 
0.26425249006064766 
-0.070160093621863165 
-0.26043473826560221 
0.42246447833016443 
-0.15249312897060122 
-0.19867519779254642 
0.085213090610664788 
0.18663440817932592 
0.036928827588221642 
-0.20818941306022054 
0.13254511212893255 
-0.11983363349867888 
-0.091225800218269162 
-0.18869782526873505 
0.026723084926708964 
0.027714918584460818 
0.080550539672298818 
0.10906401412970142 
0.097226281270309342 
0.33637438141276255 
-0.041126045914004018 
0.027832102389978176 
-0.25978520085394768 
-0.16218893212469909 
0.0014004312083533274 
-0.58657893396121052 
0.021810371653592876 
0.09028014622259517 
-0.30838969183112758 
-0.06184721443895002 
-0.024365818132987545 
-0.063919910869216237 
-0.034074702705172294 
-0.096052977449823815 
-0.1422646472446665 
0.18240321843446791 
-0.084933978391206449 
0.052945260242467755 
-0.075756606909925597 
-0.18186395159107335 
-0.062991879086908995 
-0.12792467596640192 
0.066263326571766229 
0.12883689110640498 
-0.23206594310885673 
0.042232490733744889 
-0.17073116231976213 
0.021297549948637085 
0.19408001975628142 
0.0027939937183283749 
-0.02710615800352402 
-0.31570784208920194 
-0.1807662333874113 
-0.14807385175460713 
0.23655907609775728 
-0.037186133154101561 
0.37899012279645794 
-0.0067603430044532497 
0.098878733018406925 
0.12993174239097743 
0.063366205735532574 
-0.12298476015325342 
-0.16438782852491296 
0.58928227755088547 
0.013783321753278966 
-0.11690946448861658 
0.039161335736057894 
-0.081340319273506795 
0.060465485226064708 
0.2857233389704561 
-0.033305816185415518 
0.19722867644198114 
-0.26397739728174568 
-0.4629929964045687 
-0.20962242792554051 
0.041735418743758766 
0.085210529259749868 
0.029242019104246519 
0.098445889588088573 
-0.25062128571324988 
-0.35036315759133385 
-0.19211876515838572 
0.19324619854125857 
0.025558629658477074 
0.10398700457874578 
0.12352008957949807 
0.050910720404951267 
0.020101909279615075 
0.24636114741970283 
0.066724198165253629 
-0.35861550877385673 
-0.13997868811440359 
-0.050823366376916271 
-0.19948396434097676 
0.092742459523376161 
0.17203118205801024 
0.022618323586506575 
0.10245117037172696 
-0.039710262532671403 
0.014313989948132161 
0.064566231489417272 
-0.084623249874475115 
-0.032669991875609448 
0.13240280338329402 
0.10176059715884554 
0.1568466285993356 
-0.31483392652987297 
0.013783321753278966 
0.10368115018880764 
-0.48577924745038947 
-0.010387688244708898 
0.1501503121048301 
0.28202435849888702 
-0.0047075811515648663 
-0.16086925501843199 
0.14044035010757466 
-0.059494243653010224 
0.30336963369533937 
-0.069759369872674726 
-0.12338574952241189 
0.15288350823126545 
0.054801018552025904 
0.125497828390779 
-0.018852540496236376 
0.065177072060310426 
0.1188433215135169 
0.16324504310496493 
0.11223125573393262 
0.10395235013324981 
0.19822979569447424 
-0.11510523749300174 
0.067666747336554103 
0.05775892046960418 
0.31706822202347495 
-0.035236033469832825 
-0.16038693258360093 
-0.057192484908179693 
0.36973298556136797 
0.082422665545001494 
0.17219240590936133 
-0.12356956860693456 
0.069337930799821201 
0.065496333673532983 
0.02211159469073095 
-0.18283300939944308 
0.064094910853920023 
-0.015147008361174837 
-0.07684876940594873 
-0.0079776202672275798 
0.032198885348695853 
-0.018537988248613371 
0.13398902819179803 
-0.2223925951251704 
0.091830458684682245 
-0.20338776319011412 
0.17701354281969692 
-0.12653830138388522 
-0.053527675072244499 
0.1155171024479103 
0.096679384658891865 
-0.055311648030454089 
-0.066109347958079837 
0.24192614747919497 
0.00069506070977917115 
-0.015345301405997746 
0.27238882033244644 
0.076110900356204714 
-0.02121449533344473 
0.055437284664640318 
-0.022759267837305312 
-0.15464520567473639 
-0.071518458824298858 
-0.039186467048911072 
0.2062819063146957 
0.075289271898011212 
-0.10616751959292116 
-0.18079569715324456 
0.0672844130419082 
-0.16070682523670521 
-0.59931923654385499 
0.4373836819613347 
0.062100682640535747 
-0.14848432358134148 
0.065982091108716251 
-0.12603340903098026 
0.0085387202123692208 
0.0061531538326921858 
-0.14366941737572936 
-0.094608323083347795 
0.048512758109942558 
0.10277047822102015 
0.031627673143088925 
0.087932926293661812 
-0.044601103082597529 
0.013834027416570383 
-0.082035887085887646 
0.060976967828380274 
0.04091093182477084 
0.038197696714000383 
0.091392011003577273 
0.21496460189173275 
-0.26666086879543327 
-0.024356483251422433 
0.44215987585152899 
-0.15147908207991903 
-0.0076440216276514863 
-0.18732338949461416 
-0.15021743017254402 
-0.11389163017378015 
-0.23243418071653299 
-0.076333632363982135 
-0.11897544737399898 
-0.24458215941667921 
0.23887017577883737 
0.44186945598441468 
0.17009448244533396 
-0.074651364927752137 
-0.2970175216089036 
0.16317076498096622 
0.065305240966066658 
-0.04983511193057269 
0.027659036431667901 
0.23874980312120828 
-0.09356938878845919 
-0.24469675379320016 
