solver_type L2R_LR
nr_class 2
label 2 1
nr_feature 5370
bias -1
w
-0.24491763140159892 
-0.065540028741141121 
0.18465766625948224 
0.021563252594356763 
0.12867850541445683 
-0.18892035287741576 
-0.04229740055355629 
0.35954101381619513 
0.29092589642242356 
-0.014026293094404348 
-0.03798256120276787 
0.21081493831767156 
-0.13128040841280333 
-0.12531517126063524 
0.1305201551992535 
-0.11672089669029778 
0.032632085476390557 
0.080961390585680845 
0.11690939248370952 
-0.042148878583260996 
0.087484865488170069 
-0.037472412225542893 
-0.3518835897824355 
0.10064513257948411 
0.041668821905503979 
-0.028567729324765281 
-0.93953610431317591 
-0.12304191826893107 
0.44733351725166975 
-0.0068746951067948292 
0.0055662373585373005 
0.039837758603825026 
0.15636590965909852 
0.01603964439183217 
-0.027953036976682666 
-0.15003079284058593 
0.049459099557253583 
0.14127689266028856 
-0.1043790967998454 
0.26384687020634928 
-0.041750802553432255 
0.02318785031202536 
-0.19335439980694086 
-0.045642032571499111 
0.77815606404007431 
-0.067408117611635274 
0.078010379309443253 
0.081656680929178188 
-0.1354431469357027 
0.001821628121010986 
-0.20374845052785029 
-0.00016755751623892176 
0.040209333944493268 
0.044560298548250041 
-0.029700945597619852 
0.16932942065968767 
-0.068203352444821855 
0.11424525349430684 
-0.52125378942266232 
2.1774684337681158 
-0.14844408806154843 
0.6663473264390315 
0.0083992117989896559 
-0.0051074095223154594 
0.089651841044654457 
0.078745264376284624 
0.072917403089686306 
-0.00037590451798816802 
0.17871750280860987 
-0.057592447028324528 
-0.083182135810066615 
-0.045308008592502086 
0.16751214935354264 
-0.28222635455872658 
0.029526402528938889 
0.074628359738719396 
-0.0047946104201225508 
0.00045449104995124584 
-0.1517268632808994 
-0.094169779620371999 
-0.11902026239944108 
0.14540409653187022 
0.073025061846391251 
0.11069570204679981 
-0.20214550925816757 
0.095071892466840169 
0.095347363964166681 
0.23923821492467956 
0.1064897080306451 
0.044811288476815557 
-0.2646001576035229 
-0.10436668599566984 
0.15171290577738972 
0.09704030410942599 
-0.45093018084772457 
0.0015509556955922849 
-0.11108457602967106 
0.024618382943082516 
-0.01096950649853505 
0.037147669017448266 
-0.11639566087803833 
0.048529038219749993 
0.078416351660401007 
0.16625370712683385 
-0.41971805639485454 
-0.049884096136603009 
0.15054463704564433 
-0.15601481958690341 
0.098381137523790435 
0.2364148487430944 
0.11088649928555813 
0.091367610349601031 
0.19347315205897633 
-0.05534151446986163 
0.13315890241665612 
-0.019834824286852251 
-0.070069535992310306 
-0.037301838876685832 
0.014191269665466804 
0.038181303359686516 
-0.1392678616884348 
-0.11396076801297941 
-0.051208835769547573 
0.11244101324934874 
0.17196317270123226 
0.26145784618625356 
-0.081482939868120399 
0.086743805163258622 
0.065252664235239427 
-0.092697989213482712 
-0.24228647630955627 
0.14523776803639479 
0.031803466099547345 
-0.014020023604306011 
0.044084538186789243 
0.0013150081499097824 
-0.17981194433116734 
0.045235916339490936 
0.099648024828656895 
-0.23267439060641001 
0.69104638713110456 
-0.20200613285493069 
0.23641361945249895 
0.087284629480194456 
0.028227377337734436 
-0.060305565266229391 
-0.001458460817171171 
0.028738691623207857 
0.17667597682898833 
0.1759940142977815 
-0.1288429044140994 
0.25446471130615417 
0.16922287650633305 
-0.0098935229015407779 
0.085533441453238865 
-0.10768385074686104 
0.056677174821879957 
0.034532897013718228 
0.10689457381771029 
-0.34216400142990105 
-0.31407509159041819 
-0.12514131215999122 
0.11803508205567365 
-0.027531198240752813 
0.091426505059473473 
0.045601728590838844 
0.13811346040859201 
0.14979687453971277 
0.074410806590732986 
0.18183606694854182 
-0.063633371205653197 
0.13319278225610634 
0.020990648874691459 
0.024101715107075383 
0.063417950211025906 
-0.07848988620776283 
0.15011346678090726 
-0.22373917093047543 
-0.1234547907618993 
-0.1954180640399461 
-0.24958650617625067 
-0.059223159249508543 
-0.055634827605699648 
-0.012503983601012934 
-0.11532120333511023 
0.095702994701144808 
0.0041076566160328249 
0.0068948394377447006 
0.23080158695131728 
0.12804834900064313 
0.054895526603700222 
-0.014622522595628953 
0.16848963096682129 
-0.0857814650367517 
0.16728553000452484 
-0.34608963206063287 
-0.13090622268147828 
-0.0063140675371948819 
-0.33200179082005765 
0.12347631793438502 
-0.073955359780092572 
-0.044364389925865458 
-0.053981024465678144 
0.31979634011920599 
-0.1056022868643821 
0.9900115089472693 
0.011414660076621003 
-0.023913956738954321 
-0.11246581415174568 
0.087439337391428798 
-0.10220720769255144 
-0.48339648288012033 
0.48990982062135546 
-0.12865737659488663 
-0.16219259483804674 
-0.18072094166763683 
-0.06816834556357089 
-0.14940608549508738 
-0.091842181685817009 
-0.019948230831459895 
0.3410814968854527 
-0.073258878842956954 
-0.020049131247395324 
-0.029302379373731001 
-0.2707013778437522 
0.036485578343596968 
0.21784753233729673 
0.058468441970656058 
0.095416631838084409 
0.033067931527380946 
0.084774942342027815 
-0.004240182846180599 
-0.22131325919493328 
0.045608435029152294 
0.012394302873961125 
0.13482770081695131 
0.036617489135116608 
0.069137608173321291 
-0.0097212659825692219 
0.032202729795377222 
-0.073609085062896637 
-0.41750326336930332 
0.070861451972392631 
-0.020112235056753431 
0.040338893221172366 
-0.1142181694929273 
0.30700619834672749 
0.088547232494786438 
-0.048742287194961598 
0.027727025121903011 
0.60480086428330271 
1.2496409803524182 
-0.032374566423311067 
-0.14320277802581166 
-0.11808408417878846 
0.076680682298572528 
-0.063530214080229214 
0.12802123612259045 
-0.20760908673284723 
-0.021551685811540672 
0.14695331341588128 
0.067707002008999179 
0.41570503312912688 
0.28261230279590388 
0.24069221302927518 
0.13655386835538894 
-0.40793239062818065 
0.33264549095567336 
0.066157636730532432 
0.22635422066547847 
-0.10132401308552519 
-0.12703365578195733 
-0.04084950494740814 
-0.039086936295180293 
-0.15948381709811532 
0.032946862342798339 
-0.11689801826645994 
0.12789705455461056 
-0.17515411341797135 
0.74085335866283319 
-0.054417907902572726 
0.077282473034662055 
0.059074573263727649 
0.082434151607756093 
-0.026986341263532356 
-0.067665562333715387 
0.016087179977942092 
0.1879297808887711 
0.042647024163722978 
-0.3605085170263479 
0.034594617456090701 
-0.022310027699477743 
0.045123365437326618 
0.20487595225002728 
-0.076018155393890743 
-0.0085196987883457264 
-0.26170822606343852 
-0.28130458238553568 
-0.055040700364222546 
-0.20644876468536855 
0.042672255721544212 
0.16020329203601724 
0.11085545909162818 
-0.10620188240205694 
0.037639372930868387 
0.02752330614222976 
0.11931414778194892 
-0.011661200890581758 
0.028971552681556646 
-0.25838770156198093 
-0.4504431479967792 
0.34679279589894407 
0.11167827322942737 
-0.085545031290220189 
0.070200451995310012 
0.0054889657949948184 
-0.52315585087511396 
0.056620038502986844 
-0.26058497282481896 
-0.025270384474775403 
0.074502004900237812 
-0.17478125567007849 
-0.047905671819907091 
0.011840729617383571 
-0.23056243594118508 
0.2220213758827751 
-0.0053216277504536192 
-0.0075611999060881292 
-0.05778897956893686 
-0.00032635224171437803 
0.19660729031282081 
-0.42725079765702434 
0.10700453074413802 
-0.14916461568387809 
0.29956186569398002 
-1.1675771329706988 
-0.16456564088807166 
0.094738622838807907 
-0.098337577208545079 
-0.064774519119762036 
-0.11879920575852963 
-0.11194428804816177 
-0.16972868167002778 
-0.20501813499623817 
0.093714093813832791 
0.0028978165462025698 
-0.013481847220846457 
0.20024977542219582 
0.11515592612337147 
0.19468190631182872 
0.030472705791997113 
0.1768217999737112 
-0.15188020605744812 
-0.088389602917066531 
-0.1311658606097609 
-0.009271166480281489 
0.018020173986497957 
-0.2208261711360906 
0.048803036538445983 
0.09183664098401724 
-0.038987102503588743 
0.1386779159787371 
-0.62462949345209917 
-0.138418222538152 
-0.043144801093064754 
-0.12897356698873014 
0.01727202179193342 
0.087613993914200133 
0.11346249260999999 
-0.23169533408932977 
-0.11459909349664693 
0.00094756761767775862 
-0.0091099616269632831 
-0.33618702180589755 
-0.0028585883099866384 
-0.20172705151634809 
-0.0047802534108950783 
0.16354520323747287 
-0.013060260380169272 
0.29017257235208438 
-0.066636809942782621 
-0.28488581901352478 
0.076775211096012236 
0.14456294127962369 
0.026596832241684472 
0.16232684959628055 
-0.053958413708093553 
-0.22174788479178592 
-0.21405319493543032 
-0.031102372951080877 
-0.1580538637376899 
0.1571028248343391 
-0.12781668482892977 
-0.10115232398535631 
0.4067093922338833 
0.034596478373851457 
-0.010294014624400605 
-0.87945545453175855 
-0.030692285402160083 
0.11526490864704889 
0.03197525969027408 
0.031358638623117795 
-0.14935386039631135 
0.25789284490662201 
-0.13813977081433965 
0.047989042284899718 
-0.068956298434928176 
0.044399744171313205 
0.056955337985383846 
-0.18052046926697479 
0.12872972352796883 
-0.25276026456915346 
0.30536179426244814 
-0.16086736105500807 
0.0690941309780473 
1.3208031191955307 
-0.012764470236871869 
-0.094766730787750331 
-0.049771733645615969 
-0.1806632068918452 
0.018496073799326277 
0.018428653152549618 
-0.090020353440013745 
-0.33195844543065151 
-0.10047983903132093 
-0.039765864456442666 
-0.089113147569155782 
0.0066894885065195316 
-0.08023283435912644 
-0.10055352428849727 
-0.027723165980769439 
-0.39224228620814461 
0.1639753757291042 
0.013034234674300824 
0.10108820719402707 
-0.096086142998682761 
-0.053554983488586998 
0.019448278909837958 
0.25659914164692882 
0.12065848501289754 
-0.13237535323800811 
0.071962777111170204 
-0.15721691983111172 
0.87337516460804177 
-0.020894487633751423 
-0.10781112403985464 
0.094482068115486539 
-0.078195560925629057 
0.086747728068759827 
0.059054926812499561 
-0.15954187052164506 
0.098510881922790644 
-0.10295246162157366 
0.10079933471604519 
0.28885966171796479 
0.285285604251723 
0.016713009559220865 
0.13425360187044097 
-0.36170693386707276 
0.30591332115987568 
0.11739732976033128 
-0.043028671693159375 
-0.078333329982456443 
-0.098289562946463571 
0.081202371771215087 
0.15479718311972493 
-0.025975360445362514 
-0.038900540728802613 
-0.087484223169445513 
0.068339443929210222 
0.032525458248299721 
0.018060178020935801 
0.024106689528336396 
-0.019411304473703785 
0.1787907482692285 
0.012224396272770187 
0.11114677561953686 
0.53992338594543732 
-0.0036751755885817807 
0.2142115819681541 
0.012798704372491018 
0.062184009221249573 
-0.04239484195266352 
-0.013380183639584708 
0.12894099301686535 
0.032875678468622369 
0.17412681659613488 
1.0055288855826243 
0.021337922264074338 
0.054852596595923397 
0.048062076165573432 
0.14527163982479091 
-0.026238935445406997 
-0.016568495656565305 
-0.11677453714796235 
0.61323423092400808 
0.056035028154400944 
0.10040330278141697 
-0.031862740308014774 
0.11338467941675605 
0.1859741320320846 
-0.18048420419563807 
0.076221895363152173 
0.070388724173681916 
-0.15738244668938525 
0.052462134508204611 
0.008932569197880616 
-0.0055843534042874206 
0.053123516080241996 
-0.068936371950895511 
0.10886920190095656 
0.044849899592461565 
0.19710111050766213 
0.53061435426322412 
-0.023155010989299566 
-0.00015115094459191864 
-0.027605549763190605 
-0.11153865068742017 
0.1341635227994023 
-0.057718590380748343 
0.40601676274041476 
-0.44257766266209142 
0.011803163102678062 
0.10697973187815123 
0.014276706752542062 
-0.071162518617938056 
0.17135420978536242 
-0.17676215453996741 
-0.067258885262474033 
0.0065589416780582497 
0.024268329746324136 
0.065036842053253982 
0.187957617011247 
-0.016587204907343556 
-0.082351736597166977 
0.050117303430736615 
0.0084946079462729224 
-0.048831509640694944 
0.09777960596472858 
0.33081756374357335 
0.10603769066317441 
0.14066311482384389 
0.088400947114360709 
0.019213115479614698 
0.020607246515585358 
-1.0456770894397913 
-0.016423717229894039 
-0.0027429599369519948 
-0.0833598131395175 
-0.017021062311324536 
-0.055794228039650798 
0.21860804501417591 
0.0473777268281678 
0.05250030847954603 
0.081872435864318499 
-0.032409630795388118 
-0.062805250553949005 
0.010268471839980425 
0.17050419360148403 
0.013390617594569955 
0.00708824298105999 
0.035705520212747664 
-0.93501365837963313 
-0.13712078036951456 
0.072102850554436548 
-0.063863071141843919 
-0.054136364019041434 
0.040199053324135522 
7.4372395102536475e-05 
-0.17661499141931017 
-0.0089905214559412912 
-0.071565963466968904 
-0.24368222365818379 
-0.10762401793350698 
-0.13030026330487365 
0.030468540828315245 
-0.058757151499070098 
-0.064178920146291021 
0.77602538843640922 
0.31346248101498558 
-0.054228854928349411 
0.12316904040315015 
-0.14787589461709857 
0.01076706934017151 
0.1629485084333939 
-0.1304089742933458 
0.0064064551844915177 
-0.10455004765605937 
0.46140193783557937 
0.25662410297465865 
0.1400073854153053 
-0.11275615527278141 
-0.34636998025515225 
-0.059525281978656218 
-0.13523028373492343 
0.043202223418552226 
-0.033507454595094806 
-0.099344610060957295 
0.30154997781832599 
0.080577885266523375 
0.055157515133702276 
-0.021193776520183949 
-0.084486119703428939 
0.061298877233080071 
0.075495725161596985 
-0.80228387308579518 
-0.053931524117439192 
-0.027616634709158868 
0.59129307903481476 
0.079975399626448951 
-0.011913842313078708 
0.049735162824422509 
0.076100000575873489 
0.040019951961710203 
0.067737781020895102 
-0.084410361674367246 
-0.27503614229071072 
-0.15245303922222719 
-0.08981595913092498 
0.027876529394142244 
0.70622068081646738 
0.10063148021142787 
0.021174113127178949 
-0.091558958208936891 
-0.025036224292497154 
-0.21375131394212338 
0.041783058130344469 
-0.13760561174693828 
-0.19502418576886904 
0.11367805409054899 
0.29725569029594257 
0.53116096007052238 
-0.078103121139989823 
0.2565833089121673 
0.35231736590015506 
0.1829099988153747 
0.18445826460101247 
-0.57817765172709168 
-0.045167180020163941 
0.11433673001447749 
-0.014517760379196483 
0.19477546328384818 
0.00026714803341679931 
-0.0011152076270217537 
-0.058187945638359322 
-0.085551122409313216 
-0.073797716082036918 
0.17415869533266737 
0.0759641919402156 
-0.065855530536211751 
0.17277517464337247 
-0.28647922667272185 
0.0032114854061566314 
0.036485472754489198 
0.0049730231063136246 
-0.095157627416483273 
-0.1494732572174757 
0.086296274549339635 
0.041881050913848632 
-0.13023459379772073 
-0.072196428390283812 
0.015498335997330583 
0.032348037038594596 
-0.053552019312142977 
-0.16539325894504525 
-0.023694347276915165 
0.057100821103562217 
-0.0042728484530972716 
-0.087848189920925926 
0.28248828268122556 
-0.0043278682189699796 
-0.067808984663948468 
-0.056275773040026442 
0.84259466395258631 
0.53168289723524553 
0.080891342663853394 
0.11244223928771928 
-0.05949680053600323 
-0.050194784383790679 
-0.20521476204829278 
-0.53431771524641036 
-0.033004785020556836 
0.065410531635053948 
0.097410670311155495 
-0.54732231919782726 
-0.081226528193703823 
0.041081225358964343 
-0.060733611372263997 
0.10344778393034967 
0.36934494803531942 
0.072937756538349385 
0.01921522268038765 
-0.061822726619003648 
0.27395540527691742 
0.056202943075581192 
0.0055235113496037861 
-0.068096381850247287 
0.037964146696423492 
-0.055120847339129864 
0.0065779050101870224 
-0.044165452967474067 
-0.024469220864509849 
-0.11957533165690513 
0.14741996206493352 
-0.0072976358034059089 
0.18588477828904507 
0.25077194983454704 
-0.0080272147856653431 
0.084244744922325629 
-0.12309439363799457 
0.23946102787969134 
-0.030624544869442216 
-0.031536720308870163 
-0.0071180068040130441 
0.056849660105264793 
0.40118667614104453 
0.0086259152341224693 
0.030244330748781904 
-1.9215286563146854e-06 
-0.038132851435348614 
0.14361921156961327 
0.09383934380340439 
0.04225268625847256 
-0.079528341774341094 
-0.048386348258341164 
0.056140384090857379 
0.091771253326494398 
0.11568495983746714 
0.086580873407142531 
-0.58983795057379262 
0.37970920956573317 
-0.061206265567621952 
0.089763135072089426 
0.10017075548891143 
0.0052201521048748914 
0.1124413084744173 
0.025700788341546574 
0.14681949981160697 
-0.43050300337442893 
0.01444975883882727 
-0.012144214558931559 
-0.19045926164103169 
-0.013086356936214552 
-0.2499427098809632 
-0.058647546001708774 
0.19669106483671731 
-0.05632477711030754 
0.14300554815243857 
-0.055030499918461782 
-0.099619370740606922 
-0.013981669426135941 
0.035575837693514085 
0.22533375913465009 
0.13111723868485628 
0.10794242458679627 
0.44283860522928059 
0.065035364149238328 
0.099745605399363599 
-0.11569597106992797 
-0.43449218085361291 
0.12465033648594646 
-0.17134191475072805 
-0.073657675784760707 
-0.10805732340818355 
-0.2049929181050516 
-0.19525745456382534 
-0.097653243470923703 
-0.091436603036899683 
0.17305700647007069 
0.045188702606590428 
0.35867525143711604 
0.084571132111743053 
0.040246274660948184 
-0.028078116967267711 
0.018724141437902426 
-0.055459183097573139 
0.067060682167507393 
-0.0055481218687153623 
0.014638232084338799 
-0.18116533865258785 
-0.049842290971860784 
-0.11917667167197472 
-0.20474438680453844 
0.10646339504628641 
0.021568941719686537 
-0.22979231248618417 
0.098917713190262047 
-0.42751622805000261 
0.0051645286117949409 
-0.020913489315134971 
-0.118469823980595 
-0.0047156553883912662 
-0.082369460168412539 
0.026071184809493532 
-0.11599733197123349 
0.10551509584975041 
-0.038360743800009027 
-0.20539107399605286 
-0.49315764352855512 
0.061685890859791148 
0.07374217453749006 
0.036763332069454084 
0.10255373372236626 
-0.12680699846092838 
0.1063657807679538 
-0.0037124504892109772 
-0.026512533330423242 
0.0035327649054250209 
-0.12575360489176909 
0.10646591202052361 
0.015877153152319867 
0.033839422767272295 
0.27136480714465172 
0.42432962868383517 
0.07882569247125841 
-0.087859738825476943 
0.014202355465389907 
-0.049088627764362382 
0.069012227328401454 
-0.12649867211627516 
0.15713340423189975 
-0.19277212556479992 
0.34605533551071421 
-0.11800705521111156 
0.00015587186942188358 
-0.056985758608553753 
0.010714706666716431 
0.1289454065358249 
0.087428167303868889 
-0.0098165394060047532 
-0.022823602823026916 
-0.093528735168044469 
0.125521980422625 
-0.047680093083458185 
-0.018206733415130991 
0.07696635652205884 
-0.070464694086317128 
0.0667579061929751 
-0.044975295724120012 
0.11388229779359915 
0.13728425207789186 
-0.0091561510108613096 
0.0046094405227092268 
-0.13139573770992863 
0.0020822733615922127 
0.25961296507187087 
-0.14011939246039895 
0.047665801911649278 
0.09833119853777704 
0.14587935894583989 
-0.1873144572597287 
-0.050099102351515934 
-0.45502849054981798 
-0.028299429886150761 
0.18234786264818217 
-0.022581063728748157 
0.247984990579417 
0.073479919906869334 
0.72274236677423065 
0.078338193843252898 
0.18206106739746178 
0.2016277854112675 
0.37515886058172043 
-0.12645842750974767 
-0.031096996433591772 
0.02426838397318706 
0.14853765559867607 
-0.13663772218506598 
-0.2236787683818513 
0.017588435882871352 
0.053475633868813086 
0.12800550559350352 
-0.015532257912331426 
0.01867790466317755 
0.033153417914510985 
0.067287115055265481 
0.082298660513752286 
-0.049234693001042051 
-0.077777770440227156 
0.028547750482300564 
0.062343169706518285 
-0.025362690977508675 
-0.07465376695939184 
0.52416449927874165 
0.070787517985813828 
-0.11114368508335622 
-0.2033524765648177 
0.62248601246219137 
-0.11481255452363795 
0.10512939606867036 
-0.10029111168069411 
0.065036902220240347 
0.12161291004501899 
0.063543033196524462 
-0.089934415116297406 
0.066332684789414675 
0.10822642276881408 
0.20643556262077278 
0.19134986420192793 
0.43055481660870065 
-0.072102964236867365 
-0.28881051391431745 
-0.10601262321709033 
-0.050968800156597383 
0.02549055323597189 
-0.13041814617336051 
0.20450641007131767 
-0.025467399330044275 
-0.17634323254823733 
-0.0065698198096952641 
-0.14695443292988472 
-0.45449169098037823 
0.080848458418912111 
-0.05702031930584045 
0.14398605145917776 
-0.039625052884610525 
0.040695456410175364 
1.2149214557644985 
0.034488988446066481 
0.20059464890939649 
0.1413786861164561 
-0.13447122929740105 
0.053164202383315116 
0.10953117457457315 
-0.019548391732447556 
-0.052831145939334377 
0.19786234905819014 
-0.071526316379872945 
-0.045007406156384808 
-0.071981471454466539 
-0.034803920134068925 
0.034415537875666979 
0.25592655803412179 
-0.13094770602336894 
-0.081220373254610331 
0.039887344277953707 
-0.026889331106308235 
-0.096209078971968287 
0.61093098777786337 
-0.10199634061808195 
0.074598246019900047 
0.053590587696833829 
-0.12628047153580427 
0.030436481963742622 
0.099293656730775975 
0.018711513434726802 
0.28481405828703699 
-0.3800280855035606 
-0.058363642658621165 
0.053155602537846298 
-0.068926286851506299 
0.11899687360015788 
0.040436931129289366 
-0.054756645703628079 
0.11240162833073455 
0.010378698469395993 
-0.18394997377686428 
0.064204411672315873 
-0.01545675828021407 
0.11544215971209001 
-0.046049481230704847 
0.013430436626957247 
0.008348297709334377 
0.18418615873201447 
-0.072004119975481076 
0.10150455072328855 
-0.080546458779167412 
0.51331048616429842 
0.33000743766486762 
0.14771791159244149 
-0.12524551377410859 
0.15438150327155922 
0.39006652944031178 
0.013817540082081688 
0.046374041163984081 
0.093508845170619775 
0.21613831689707311 
0.019743762576166501 
-0.073059543127045407 
0.1016761270270899 
-0.040714098654885789 
0.2604349727694511 
0.029017224982338049 
0.025420164489878758 
0.12272898899128475 
1.0264699202995744 
0.1136176357583739 
-0.029447260694382846 
-0.025070050861804315 
0.2581324633526445 
0.05504488533881937 
0.0068901736136026282 
0.0035388549594530068 
0.062538880231872401 
0.081439916759624684 
-0.3067387244571072 
0.015355176373149766 
-0.070488515341983693 
0.22074787194974738 
0.1136475054989536 
0.02930003502003892 
0.039190344989225086 
0.024731255997452326 
-0.0090996933185609648 
-0.12420979761888425 
0.16710875204629905 
-0.25661514697979992 
0.19278130015344355 
-0.06149311783253792 
0.2739005614655794 
-0.11317933437816548 
0.53552429551269376 
-0.23808094570651306 
0.040963770198940333 
0.097833492517359108 
0.0059141078727693759 
0.051486221195649218 
-0.029757616258063387 
-0.061791884104848913 
-0.056925902689718727 
0.32335127568578459 
0.11474565694236896 
0.12151864158635618 
-0.015343965774132863 
0.027083087360285533 
-0.13181502464130121 
-0.033232306731951648 
-0.0064011027358719021 
-0.13000980620715158 
-0.053733078813581248 
0.028501794364125341 
0.08945148444896911 
0.083844372076873133 
-0.042541619928936701 
0.087859817946227145 
0.5003404449216996 
-0.035442205447621944 
0.0091456541986466404 
0.10317112543402683 
0.10055621779999317 
-0.086968231230595716 
-0.25541437042775289 
0.00022342223148933836 
0.29002398814077973 
-0.013703677799753133 
-0.037770999428262599 
-0.015543486417724227 
0.12491359748067896 
-0.10363330223315544 
-0.078660801186775917 
-0.0027144168320841046 
0.16850207916216628 
-0.058279080117314086 
0.099402712217807707 
-0.042807150153287905 
0.18537414064757768 
0.04912663004051717 
0.029830229763877392 
0.03742185650220161 
-0.10677188868323041 
0.081628062653554878 
0.57460777991131862 
0.148412067591496 
-0.89119787751461843 
-0.18468921312986225 
-0.14834168645862825 
0.13974711528489281 
-0.072992010155197101 
0.077286252272107073 
0.50943207370306776 
0.32580515882125455 
-0.05775729714373927 
-0.092434762430710776 
-0.020692448356040862 
0.041892900245977055 
0.44383395028500405 
0.17717368524707058 
-0.18161754810290553 
0.044444260257744554 
0.035862811032665247 
-0.061723594264795283 
0.98428999016313112 
0.50275430040496949 
0.042826047948688065 
0.051083625215687475 
1.8246037028154618 
0.28595364701798848 
0.017375790396258094 
0.028103261627848909 
-0.071805904187185424 
-0.60067872998858096 
-0.055839482948716518 
-0.034791199618264476 
-0.088720906843935382 
-0.092904383261981166 
-0.0073707105052367907 
-0.14890728765489195 
0.094416656946774868 
0.097171570335652185 
1.0344793258657687 
-0.048966526523114562 
0.050470097803462843 
0.039621752767723048 
-0.1972131026525874 
0.019160206154405991 
0.20115217063384822 
-0.0046891171085990417 
0.23019290723816171 
-0.072955554049934729 
0.26969689984698986 
-0.12518634238251225 
0.01556462092515935 
-0.039176605099455357 
-0.093807906319968243 
0.021785229093596089 
-0.19971845575919603 
-0.12929955698460066 
0.11890438007717964 
0.037352734097986014 
-0.085582170985914682 
0.016509932186149955 
0.026025271477462475 
-0.29757035499251422 
0.28596020842447778 
-0.47157960533066662 
-0.12166791699763377 
-0.061417457947939284 
0.077199402739706172 
-0.11923413918432182 
0.036927852131064323 
0.055401986612841313 
-0.086011190243536428 
-0.16727731200141993 
0.083884440321952955 
0.0035659184178297764 
-0.025574387555244278 
0.2862275944991734 
0.017260452661282365 
0.049870261949308291 
-0.051054205982917829 
0.006431345101941612 
0.062793902113622971 
0.129108422076784 
-0.055952918435421523 
-0.32139148584092542 
-0.069845716876424116 
-0.21658437752498957 
-0.22357372672176476 
0.035125066077933864 
-0.49272108259817055 
0.030364203812112443 
-0.6868981083873793 
0.13954342550120344 
-0.089109345922883818 
-0.052503697753998414 
-0.10870081032956605 
-0.17505114785478959 
0.16255089095149036 
0.089003059873046866 
0.21408964643591505 
0.65421636239162229 
-0.094548729876419366 
0.057434525788447377 
0.038587424253552112 
0.11443768986380118 
-0.61103115988170009 
-0.092354854426175428 
0.12373414631649851 
-0.41153596627439365 
0.13504125811244194 
-0.0024406669983636211 
0.12352519389686575 
-0.24854537052745931 
0.046971579847685255 
-0.19217283955939668 
0.0085800352845118461 
0.10210374432392309 
-0.077889922115628049 
-0.24754196633079351 
-0.08809194311224236 
-0.21685371000283996 
-0.16645725538003048 
0.10743769936811753 
0.071048696648331869 
0.49106644247793751 
-0.039693570851826884 
0.05362971610810003 
0.23171282933963205 
0.034594617456090701 
0.15693394345080244 
-0.26446444390847396 
-0.033251367998421745 
-0.057257468032928069 
0.011492164992067512 
0.16400474260757697 
0.018039473059813731 
0.03799886756853426 
0.037445802342753652 
-0.024439767068125801 
-0.050131117145071041 
-0.085287787422736377 
-0.16946442443145618 
0.039002618617675282 
-0.14097472684442969 
0.01120814484732565 
0.0024908485882234079 
-0.040224568276668468 
-0.49390744984784862 
0.057053463762834974 
0.022055972862469068 
0.38706013028828545 
0.062878183881361904 
0.10291450626970297 
-0.086454440060794432 
0.08586987952075581 
-0.30399863728310006 
0.05772101269383053 
-0.030431246195221324 
0.012802309401203296 
-0.030139032587609776 
0.043396654760852318 
-0.0015639629022177052 
-0.060989583414010035 
-0.089318725823154227 
-0.20109651065481274 
-0.021189413397531526 
-0.00018027591354503013 
0.12895362193999158 
-0.040374046297274785 
-0.032181645978323965 
0.021479651463984967 
-0.0073132376687444437 
-0.046434283246501243 
0.29242237325933884 
0.083086748141122838 
-0.07264272990490199 
-0.1434024078242972 
0.1381494101081201 
-0.016778094092654704 
0.13799827772211701 
0.013457697128184089 
0.10556407703043591 
-0.035326442923256006 
0.066726502849264041 
0.0054683937495644923 
0.018391416545774326 
-0.010304267971957701 
-0.066760984337045567 
-0.078805079631835834 
0.029628664708760782 
-0.10365064402174344 
0.016066184926685136 
0.080854203513596248 
0.046270286082048626 
0.033551068618672637 
0.19620141439870259 
0.078440920110969717 
0.06675594425630986 
0.15607335894683619 
-0.66361577103369929 
0.43527696634288127 
0.017483381138104419 
0.059873595024929539 
-0.026845488274567033 
-0.034924087629280877 
0.039102720802062813 
0.051787383961712861 
-0.023248952620177531 
-0.025575885908791184 
0.10647403809408434 
0.058367510742884293 
0.30347869215457007 
0.00052426037280076956 
-0.023379775210215163 
0.14320325327856148 
-0.12967468406306634 
-0.46680074474927891 
0.38202410870102643 
0.0083932129513088483 
-0.011020645529623939 
-0.47737373816374823 
-0.076180830428092636 
0.097687445654625574 
-0.058863152634243722 
-0.28544199433434159 
-0.1526683786072118 
0.22446012059835241 
0.082613509361050413 
0.047176595180026031 
-0.04873510606530098 
0.18312324361656057 
0.052949384632915673 
0.84178405916679189 
0.13469166927533779 
0.24684844117112531 
-0.41416885797857017 
-0.11765560524883011 
0.18027982556412953 
-0.0017505906720985025 
-0.17881173162969677 
0.054769219897705022 
0.091599933530066235 
-0.034978822274713828 
-0.0073182142829559486 
-0.048025383526521484 
0.37213908194980688 
0.20446732636502221 
-0.062229373323715961 
0.031939486221834498 
-0.1554007078444728 
-0.0037786752393062705 
-0.11194034145759325 
0.055781930948194676 
0.0093510643841793507 
0.15693949767369292 
-0.055142757289805146 
0.12924619384263628 
-0.13413294099681886 
0.048355765015505335 
0.12361958183291898 
-0.083006193106918605 
-0.056116985663021146 
0.077844590844572431 
0.027232105859473027 
0.15195560848169978 
0.02919305738898962 
-0.12753472571890864 
0.017673943295636152 
-0.098937746565237447 
0.10416150536617162 
-0.023063542913060276 
-0.12555107727860143 
0.36152144490814137 
-0.027789848000920565 
0.69661011508582749 
-0.042249584949723744 
0.58706758052175767 
0.57231294704836677 
-0.068639074241610615 
0.15973020047607159 
-0.0023216893288298232 
-0.041023343619678167 
-0.65470153841873724 
-0.064202803821631793 
-1.4127305352561892 
-0.0076418875744943418 
-0.061763292163948581 
-0.15123356983274594 
0.67001048060462531 
-0.52919541263473258 
0.21988425759062444 
0.13085497161888376 
0.016261230004139829 
-0.15352380839862423 
0.064437877094679255 
-0.5344471369961582 
0.10587930649968054 
-0.1997174494414975 
-0.18728415649637425 
-0.17518014906632118 
0.090484829837115657 
-0.029594248072994281 
0.063153073250712663 
1.0133264019751576 
0.18107687130867428 
-0.10424212231918616 
0.039281962078858874 
-0.66877811319773517 
-0.074932882195112349 
0.13073953306045785 
-0.48787505605135179 
0.36917792298051832 
0.036838752365099821 
-0.091305697420585016 
-0.02332512221752012 
0.67023653030945529 
-0.076246720422347619 
-0.044961487712384091 
0.06758915363397662 
0.11608676683613171 
-0.042256683164112553 
0.47512401475605726 
0.16359668281999376 
0.24820595544634852 
-0.0099242890305415651 
0.035905521026667941 
0.035861425125953889 
-0.085497199378786845 
0.12795508971149586 
-0.049317262235023931 
0.30499235796996976 
-0.045858078090755386 
-0.010739664028217976 
0.027868916747728619 
-0.1233690636319438 
0.54986014909136838 
0.12176053660836926 
-0.012762957756182794 
0.2422933446996054 
0.40127224068911971 
-0.014479455116583483 
0.11032587467243224 
0.066905578483457656 
-0.25391288577214538 
0.15825856810685654 
0.23129924620216283 
0.010074856679225388 
0.16928232693768466 
-0.192776198408705 
-0.19555695399575423 
-0.032814992145158019 
0.00087327450158999377 
0.030756928367708929 
-0.17668862827156082 
-0.11744177107714417 
1.2663499843673061 
0.11500846022639789 
-0.02941336563864675 
-0.097077303946762977 
0.022035893024455945 
0.07403223548717025 
-0.04124015057571212 
-0.0047001651206338979 
-0.075003615635595294 
0.061897674032145814 
-0.0088046910390907514 
0.021491966326643058 
0.03350224043322262 
0.33736122579112565 
0.13370516664219259 
-0.080199266571605171 
0.14954028717368689 
-0.14669689537817895 
-0.02103889021218246 
-0.022952103554918762 
-0.082082411503552971 
0.10295118706471558 
-0.069672164860383426 
0.10753437539060562 
0.027666212412232188 
1.9822340807560823 
0.036100687831456167 
0.060850310214838457 
-0.41452577474858987 
0.12214867308694663 
0.0059195406930913266 
-0.072469582657439108 
-0.080884051747545968 
-0.010548982164372424 
0.74667982949111666 
0.15736109030197426 
0.10090791050889709 
-0.074662883588178922 
-0.099485646709992867 
-0.020310226778975 
0.12516566305245824 
0.23477213088453516 
-0.050393485563950131 
-0.50276683205999995 
0.10804869456716309 
0.36906398045623151 
-0.024989171937393286 
0.028046079913715726 
-0.19864122569917539 
0.052947722968181302 
-0.095048289593993904 
-0.3439079770245404 
-0.13215369758887188 
-0.017422032768233234 
-0.23183892386014446 
-0.039208202348101837 
0.030786338982698298 
1.2981913717766222 
0.20214962377242354 
-0.10315144934908548 
-0.060694152559799437 
0.057356143223240966 
0.19159644420671315 
0.034500397922647495 
-0.049717477984931674 
0.070083098300540575 
0.12089924527382939 
-0.0020596308244474988 
-0.15356028485371437 
-0.04630872117033593 
-0.11236252334150625 
0.35230507044434023 
0.10105027435687983 
-0.10974835292695453 
-0.099400824080864564 
-0.047284620085062234 
0.19896601190573754 
-0.048728169909588726 
0.037381847244098515 
-0.01358517392168138 
-0.013985887250100647 
0.21349122051734851 
-1.0031129432711297 
-0.09146988647054477 
0.1320266299305938 
0.020802990037376005 
0.016516834389600232 
-0.024531040906537269 
0.081687980151679343 
-0.14082434006995553 
-0.053984620637089517 
-0.024954254803232843 
-0.039824187614639572 
0.065095639630348603 
0.095593632377652504 
0.11576719349581842 
0.067063511147624461 
-0.050526663168306347 
0.031623466096491859 
-0.068076707297278702 
0.083750766422173079 
-0.068421735611526868 
-0.03560274502113861 
-0.060926001133285043 
-0.18772975514405579 
0.080617963597243408 
0.71490989630330815 
-0.03405791893124132 
0.14306181958272016 
-0.25817789460142299 
-0.018895199742628595 
0.028648025601634222 
-0.15144384000014022 
0.022001818827868391 
-0.1654282912818322 
0.51268616157355085 
-0.077547084390515122 
-0.0082589287000714162 
0.086671082643929073 
0.52712513651624071 
-0.58663340216642701 
-0.43097606268402022 
-0.073683702434817824 
0.11956171984417011 
-0.12453092893893644 
0.40508528377115438 
0.56950600518932004 
0.15182423536728984 
0.020112140300457923 
-0.038652938119905875 
0.19517185535574016 
-0.2416462300706147 
-0.033299584187778196 
-0.86518085852256188 
0.097858632487457298 
-0.14086596414525407 
0.049646790122012591 
0.084352025825082333 
-0.10759424832824528 
0.12727649669613983 
-0.036560579900310794 
0.34732296093089937 
0.019568877208180291 
-0.16038125175965207 
0.0030833816010719193 
0.0096554269363446996 
0.083336895479301967 
-0.066611012565447242 
0.13858444580918236 
0.10387350248793702 
-0.10675553349973251 
0.0014934356677654291 
-0.10383570372667184 
0.013304124474241881 
-0.080075200306295793 
-0.052494713007915035 
-0.087707448776977462 
0.48303555056286829 
0.4014641078473814 
0.007340245614134806 
0.18496345725915528 
0.18274776655975847 
0.00128399787088799 
0.14635917660318612 
0.12555073695465657 
-0.086324546795868165 
0.075704444521902059 
-0.0085397614930419162 
-0.065813488656334143 
0.15693216042510061 
-1.587861398782584 
0.048961575894141046 
0.10008509478005509 
-0.11947238823545445 
-0.0050638659962224785 
0.065093022705132661 
0.68987133422532043 
0.11474376837454711 
-0.14016262966360124 
-0.5208200072399225 
0.15707976261180551 
-0.12478111391483547 
0.070971645044510007 
-0.13100485449321489 
-0.23124862816579958 
-0.028036605789233462 
0.055651491377226595 
0.053404963690461153 
0.093623432435278778 
-0.025142254160478467 
-0.52020147122431581 
0.051150021723947892 
-0.047346739440942441 
-0.011804858864450544 
0.25011204950295118 
0.17947478060936081 
-0.048455473492351603 
-0.19661533340236675 
0.011486491887052832 
0.063637652666901509 
-0.60142966669457476 
-0.068618378313756057 
-0.11925693159851916 
-0.099590778224254772 
-0.016383364840675325 
0.11471934487825045 
0.0024490908327530576 
0.24074342473245927 
0.25863584006560514 
-0.15904536665892585 
-0.038125368061715195 
-0.11993435631507424 
0.071211966536760846 
0.0037313505641828207 
0.1237808282137956 
-0.026910803934984209 
0.69838293368221638 
0.035380028504253758 
-0.063306953289247486 
-0.20362541937312609 
-0.23578246833197716 
0.0092572481190209017 
-0.060085762907528685 
-0.10787141254237323 
0.1099948252197271 
0.063203224163125224 
0.23313079161905803 
0.77503268221335697 
-0.1319439842458664 
0.34003203802332954 
-0.11285809594906078 
0.10140267393109297 
0.29190257324943991 
-0.05189818105612052 
-0.16340844326858814 
0.095808863003753381 
0.17759757007694568 
0.0064224324000743474 
0.03810573373194865 
0.02036322811670032 
0.067378369401525737 
0.051493743179964899 
-0.086494647589425766 
0.23753193144867854 
-0.44467795802224486 
0.069281371618360621 
-0.018672724541330649 
-0.22853771174881532 
0.12917142774694645 
0.12994155315399303 
-0.17765038566435812 
0.1509998447316358 
-0.13417652114445519 
-0.21885005268327651 
0.051226992917774238 
0.25928121887119726 
-0.32875499548570919 
0.099308153413751418 
0.22850282732853841 
0.0075465006662278336 
-0.070472970370277263 
0.062132388358292122 
0.13624350141644456 
0.02759686679789488 
-0.1602916700183982 
0.0070237798538922962 
-0.061350319559071595 
-0.0060606741100462051 
0.078324323677877478 
1.0693777326042573 
-0.011173290735707643 
0.05532674127345049 
-0.072816575733782973 
-0.27483796749578043 
0.30052946549056947 
-0.079975954963414475 
0.6138305725805886 
-0.19581005107438765 
0.10710520436201861 
-0.0037928991923870522 
0.043021100653002763 
0.09186397484863551 
-0.0044464306684916001 
-0.069983066055867016 
0.049281399718164594 
-0.02124327237328133 
0.023231870960189333 
-0.026777210568159782 
-0.0010884228410350796 
0.079716501815721971 
0.77112127950789744 
-0.063369195240435008 
-0.38530291420928608 
0.0054110469719444486 
-0.22643787769269882 
-0.010894870114048466 
-0.3068663201092145 
0.13713536336842927 
-0.033861729044011413 
0.22215970673460952 
-0.0152513186673718 
-0.011262097200230123 
0.12015295286366177 
-0.056465164106690467 
-0.03857499572655701 
0.0087660166860567164 
0.037465815149213301 
-0.1199438362553148 
-0.0385910793871286 
0.22358330305864169 
0.0077794758372178707 
0.15170731465347873 
0.083868103722809645 
-0.23221588372508292 
-0.05709347322917066 
0.07852550929777595 
0.75798332694190795 
-0.095013450871877958 
0.2345003732873413 
-0.059306580740199011 
0.25711984836051693 
0.046074125141795409 
0.37120062455776115 
-0.066892805724006493 
-0.19220014579376557 
-0.11419783628445318 
-0.023262018175337955 
-0.081043098092563812 
0.053082781733485171 
0.28814806710877278 
0.59839448068384993 
0.20054579776132347 
0.27852764273764735 
-0.093987945837120612 
0.039501187335979383 
0.011600334965893255 
-0.10781511783614864 
0.15179189258780851 
0.13071762396945838 
0.052822752566948822 
0.0076431459508011952 
0.098861548733379934 
-0.011868578532566926 
0.062418500259825718 
-0.0083605938749604768 
-0.18987908809048956 
0.065721304710838035 
-0.062780766488104572 
-0.03996539579278139 
0.1006307321000374 
0.89463389287642958 
-0.023987884521953592 
0.094173424359925956 
-0.011662876504332976 
-0.16580218127967039 
0.050227055227110712 
0.061918034552145472 
0.027879538132842378 
-0.15755590910473591 
-0.026197699361056023 
0.022355299776648394 
-0.012041248357048694 
-1.6059893353762225 
-0.099343275829917949 
-0.62662458466099247 
-0.55589965766788474 
-0.08683860491873939 
-0.034379723917713323 
0.10957532538243275 
0.057874659883232822 
0.70866189971842708 
0.04553327789600177 
0.012692733444179986 
0.13299735800556325 
0.12020785583223595 
0.14532721501579449 
-0.055995363325374026 
0.026275103579373776 
0.087698802069995252 
-0.0088164373666826494 
0.056388733430265015 
0.0018447147799481598 
0.17379810758245043 
-0.032013962641801626 
0.095246942340217883 
-0.093780909765568243 
0.13318070238484736 
-0.056144719030198527 
0.17463255043092119 
-0.16038081995255873 
0.0057289023566145826 
0.054267423502531414 
0.70287941555089117 
0.067619126506029706 
-0.21129485637150566 
-0.21089438640070138 
-0.10741114139359649 
0.17616691399314904 
-0.62328116743815498 
0.060841303387190543 
0.12578496150022975 
0.54126733201095478 
0.16585599418253152 
-0.074087001818557027 
-0.012746687377140214 
-0.13247638400896927 
-0.023690058078558118 
-0.096026731514075703 
0.025194918580222474 
-0.51128238159808892 
0.01624106535856161 
0.0044230162176393858 
-0.14059763546173984 
0.0099973195178120859 
0.37915389538159794 
-0.053147441005655882 
0.087499235919194576 
0.17767320005514436 
-0.040179058964192632 
-0.11042654884360156 
-0.3176584184319059 
0.16270908647407673 
-0.049972169697603784 
0.14730994562612432 
0.17747104683618389 
0.1643526203882052 
-0.044724185636514334 
0.29223934088083248 
-0.19006250601221769 
-0.04178319341532187 
0.038504052716556124 
-0.037763719650071408 
-0.003927164870189355 
-0.21520163931673292 
-0.085513157823041128 
-0.23215077303564924 
0.63433720119089954 
-0.16982227912501327 
0.13691515503594215 
0.16007029694839459 
-0.11666427980414984 
0.067768811523347697 
0.10957826041499674 
0.0485452770557223 
-0.19662922073732639 
-0.028613610078540797 
-0.074598299852465313 
0.30732644736249171 
0.052486644846485353 
-0.35715798301290191 
-0.049012710028905351 
0.049146714237839166 
0.10726734851355993 
0.089071804902509252 
-0.23815075273424519 
-0.076720523895057874 
0.023033541592072396 
0.060591335708004582 
-0.21954383245787931 
-0.069143318686456567 
0.062947676317598372 
0.043559846677263758 
-0.23571764526498343 
-0.064512841524889133 
-0.070958439228782921 
-0.087651602653981253 
-0.00737970207581357 
0.0079555935303119198 
-0.24785928314959596 
-0.031200968942244618 
-0.15824118238923701 
-0.086110585795674377 
0.030701923598305758 
-0.025722503899393529 
0.017170576967835374 
0.11123585031620882 
0.051940360415437092 
-0.038448298611814057 
-0.11442320789381866 
-0.11432543089522634 
-0.022414007008694718 
0.45601626297896442 
0.10141618595552626 
-0.069287803575903889 
0.25028788967265486 
0.029747171431056083 
0.15876000375110394 
0.16637241862171617 
-0.16804271314676322 
0.036579651105760523 
0.12436947475442511 
0.021433018225717172 
0.087075204440996229 
-0.20247560682587853 
0.11351411914845798 
0.012126639798656132 
0.034405838068097036 
0.01207196978970115 
0.017475117417427449 
0.22616260691784293 
-0.17922201751526864 
-0.12392500730251256 
-0.038976490390928702 
0.35265087306570286 
-0.7305380064122533 
0.531087373276658 
-0.033625942707030579 
0.24857999327831848 
0.010970314117828518 
0.057831770304093033 
-0.024028166078432448 
0.87647590900983219 
-0.14920944909845796 
-0.078230379089855057 
0.22287436948343975 
0.046031144982515516 
-0.099728697180155576 
-0.018545052786241821 
0.045104674462423923 
0.21224167120923179 
-0.057376011322954994 
-0.19465630561427977 
0.11697007557911232 
-0.11017319327400713 
0.04712537136332888 
-0.0027642332842798571 
0.092349215264011048 
-0.078187383636806745 
-0.086477374063184176 
0.13638594467709766 
0.054283956910939644 
0.089242758759809152 
0.042101888445000499 
-0.028735499752729984 
-0.25142618329913319 
0.10389911472928151 
0.12493029124952901 
0.061989607891604119 
0.2433138220957009 
0.11239133526083481 
-0.04799346652484178 
0.08652350323789286 
-0.79221384439926124 
0.02046168088908553 
0.076960112183901155 
-0.0010763970842407353 
-0.12552456744473803 
0.065455199210026946 
-0.20845478599323916 
0.090412815560311943 
0.035830617727390511 
0.15080582138178278 
0.3371895326073347 
0.10798485541105232 
0.023536968510402351 
0.10552248103873133 
-0.24417168467021141 
-0.066320570964334261 
-0.10139561619267558 
0.004025706370133145 
0.055766512856985029 
-0.12880920930104567 
-0.16603602874615273 
0.067606638988076728 
0.26905846244122172 
0.2724263607774095 
-0.005741751893703486 
-0.078376125593144913 
-0.076060544888516324 
0.024594788422344274 
0.067186531314987627 
-0.052036252444410486 
-0.0045495790868473069 
-0.51387366234576526 
-0.21954002199646483 
0.1153286735911313 
0.0075442723275159478 
-0.058487470004603768 
0.13699498923553219 
-0.10527204868437844 
0.044196085682669688 
0.54428601144491462 
-1.2076139725499782 
0.12195829173455627 
0.097302782107282271 
0.025068607426170536 
-0.11761242043645094 
0.013330048605215259 
-0.010234094019892342 
-0.042994786051866039 
-0.036594026208092358 
0.017806773101818742 
0.050434928511020494 
0.14782833566864081 
-0.15346482894540495 
-0.044938386802470268 
0.2726947782161166 
0.28030001971659146 
0.031004396759840354 
-0.027069237807789574 
-0.1150867890688189 
-0.057984181994384563 
0.10145154103452401 
-0.2592498747113699 
-0.37694906854022653 
0.033122733237122733 
-1.4248246308089483 
-0.019112770900736518 
-0.046040103056518934 
-0.056791392907988889 
0.089229292739278376 
-0.052392991436183166 
-0.066463096921454412 
-0.02639800835350482 
0.069334882728778816 
-0.13234476180317453 
0.010621329385355217 
-0.061263406071705398 
0.090562326073855823 
-0.21572533227886342 
0.4614469380531076 
-0.3665166687285924 
-0.0031520541973299732 
-0.10680069578927204 
-0.065039891367595984 
-0.029919623716231969 
0.02091113666473713 
0.1559718131218483 
-0.36017194164127647 
-0.1813463724835026 
0.16492629804625639 
0.043102979237406962 
-0.096407801638463617 
0.01814937272655958 
-0.23200533571867038 
0.031865311844759506 
0.19986593918437506 
-0.070853146198932154 
0.16923836693188957 
-0.018409476220504619 
-0.063877229870161922 
-0.0074827765347451206 
-0.015347087298227544 
-0.072964468583849418 
-0.046297130598542312 
-0.20193971398495542 
-0.035520911224811144 
-0.30401707075810425 
-0.029380256143537568 
0.071060037914788654 
0.31023592525204263 
-0.049897620388587388 
0.0063558223529760491 
0.085572606507076529 
-0.025683016698189509 
-0.015533778948703655 
0.056549364639236134 
0.001797774300102645 
-0.0450169089544828 
-0.13126936817316104 
0.072196028621516764 
-0.011363432734834674 
-0.21350035948351839 
0.053260091807471766 
-0.11804448536279312 
0.027704774730334503 
-0.082077081958405823 
-0.020256939898093778 
0.3080511612838428 
0.042017323443183444 
-0.0090955257669371042 
-0.10793147220596783 
0.0020908336931279611 
-0.014578921035027928 
0.045060592457696322 
-0.023836852725147319 
0.22060452015950099 
-0.52621233287395652 
-0.056675693331386959 
-0.015502798748450206 
-0.024811931055002175 
0.68725605697986947 
-0.038317676099709784 
-0.077238270684811428 
0.14407354015246809 
0.14418396451776855 
0.11499399743330994 
0.069492238427783182 
-0.11650438937307286 
0.070336366722536528 
-0.051511015834691483 
-0.072499540778588417 
-0.059595074181182831 
-0.094399748545418549 
-0.083427349051083302 
-0.0098829139923167289 
0.19336463195359282 
-0.088466423000685246 
-0.01736504292951329 
-0.0051059592281030557 
-0.17170734157308626 
0.33962830442360925 
-0.061556948152361714 
-0.032774149505530703 
-0.32486383975758792 
0.14184054621925099 
-0.092472055437955808 
-0.17320993761866654 
0.11764747153544347 
-0.11855654419217 
-0.14401786007951506 
0.080026708414500547 
-0.12562387230272953 
0.32614256434464189 
0.12796317526173834 
-0.22686673235645427 
-0.13048120263862345 
0.041613134344936943 
0.077686150027387185 
0.043011193596525013 
-0.048753755556827032 
0.18245221241749465 
-0.36257456149493683 
-0.18067383892843922 
-0.002030877406662984 
-0.069567842904562818 
0.077382006494408101 
-0.057298269869037945 
0.0016093909759200215 
0.13011265267218103 
0.37984397324123081 
-0.012516748234096545 
-0.093832127686357805 
0.11422620437041001 
-0.12938631012166851 
-0.39899338646266652 
0.41397871216564502 
0.030432730880549284 
0.063001749543250163 
0.27047075053949099 
0.0915524408588273 
-0.15291120706261621 
0.034459456096931476 
-0.070506747045430654 
-0.14340561753495651 
-0.060202877068278655 
-0.035337380939181887 
0.134775352071167 
0.037343692135733818 
0.026325900081323138 
-0.14621363156641631 
-0.048753004627801293 
0.01427610050937158 
-0.018325854729687632 
-0.094675882438913436 
-0.090821859907452646 
-0.22217057069291052 
0.015439205345695373 
-1.0364717954333247 
0.070451880621068524 
0.013582660417301178 
-0.23720627828662155 
-0.27079753896046677 
0.032826908892877753 
1.6534596029051356 
0.40512998612543794 
-0.46427563658247367 
-0.10776689314310503 
-0.004009260091577942 
-0.17668477941009061 
-0.1250970972129736 
-0.024481374844609837 
0.13783667263663932 
0.027586705936214068 
-0.056882847993083012 
0.013306932924153839 
0.27798734559028626 
0.066750140923394929 
-0.58740338703847439 
0.47767050086897817 
0.45858982382488622 
0.21710730116642118 
-0.063591322816128573 
0.17498415262628705 
-0.001415159080664275 
-0.011866885654730605 
-0.034107358308955962 
0.037017976178500819 
0.084413142534479332 
-0.13393788387364669 
0.022220455904345193 
-0.25502775330166727 
-0.083561836847316995 
0.088236417163713721 
0.15475460236508429 
0.13587398649860466 
-0.12973046379530226 
0.04823620556905199 
-0.092380213836989453 
0.1308461279573595 
0.10066650757995096 
0.19321220661701469 
-0.10707674732995631 
0.11679126465974449 
-0.040789209392304154 
-1.0002895626298318 
-0.19170149460329164 
0.3368229427765152 
0.069194526492597608 
0.024032301697271979 
-0.14941508804041256 
0.077495010958657032 
0.15797775092217153 
0.1465660060420709 
-0.080370953204321194 
-0.26667369355004361 
0.36742840424655454 
-0.17813341567153351 
0.21415501948540003 
-0.26934341906115256 
-0.014467280582152435 
0.083686754717012118 
0.11786287917497584 
-0.016910437373054719 
0.071137260708814959 
-0.028319412509667529 
-0.052575150128650744 
-0.62519138046716649 
-0.30935238153797689 
0.0155034076831322 
-0.10396230397477485 
0.0036307055605280828 
0.19137747495482954 
-0.050222895759435039 
0.024915667089770221 
-0.071284454268249989 
-0.13201839491198689 
0.11214992036352554 
0.091205409827968695 
0.070411665814248778 
0.10408245747596358 
0.60877895786551528 
0.10030116325419436 
0.55949399176744952 
0.063618944344269304 
0.2019481341029131 
-0.056468413568050019 
0.10484426891618871 
0.0025197112684324863 
-0.098199693343607758 
0.10679736044613754 
-0.0041086398574693454 
-0.056935227409023764 
-0.069808741188975829 
-0.16258136180049165 
-0.053112368751317598 
0.0065497352324556269 
-1.3668030484383127 
-0.21840162980079394 
0.076897988081676028 
0.099722004257801006 
0.17951031059621944 
-0.52127290206401222 
-0.15160525478185571 
-0.047168068241824762 
0.1170467959064958 
-0.096019259531927817 
-0.092146128432468111 
0.18170730718092748 
-0.41135930106368213 
-0.1160289060927914 
-0.20405847814826278 
0.013507960415249425 
-0.178033437136707 
0.10228434703254889 
-0.015405838580301742 
-0.011281337234960909 
0.068079057946417942 
-0.040835490044674932 
-0.03807759374591476 
-0.11683529099016263 
-0.0066700747382838583 
-0.032156053711580396 
-0.0066541827957364835 
-0.10252764781411657 
0.13420858499145868 
-0.041370569358947194 
0.037539606294829615 
-0.014120783256131756 
-0.12127755772498776 
0.11329839029473979 
-0.1257939822945513 
-0.45907123086994112 
0.061609671183711454 
0.015907004769740284 
0.15332254152414102 
0.040514176541945855 
0.67066132826434566 
0.048571770493742325 
-0.055653753168676552 
0.19950244201936487 
0.022966035038018008 
0.16200825963485793 
-0.1470932546139723 
0.094147583046475081 
-0.01855446570358012 
-0.21063524752691562 
-0.11926426833723737 
-0.026071735686488427 
0.071425783380396304 
-0.19879410379592308 
0.39169169068835663 
0.39111459565520917 
-0.25455895367651288 
0.014515285492273721 
-0.51390532583564896 
0.17723236822502847 
0.077875217440302277 
-0.057211001362186376 
0.075154624203119622 
0.18994191523611431 
0.06476966176772804 
-0.016008584416438668 
-0.21440956360660388 
0.03006942093903503 
-0.27504513157291571 
-0.11616384515017007 
0.10029213754237412 
0.080502696047447003 
0.099540158785851207 
-0.22649982314884151 
0.05208473550697109 
0.11917716557572104 
-0.00069055985038788922 
0.016720520537536032 
0.12612325207607661 
0.18285617907809215 
-0.01807211286382825 
-0.1310393918310058 
0.13854316429946165 
0.08510782977557306 
-0.14061191531182701 
0.57084744863847237 
0.096189304194703312 
0.086864806939510139 
0.015447551280684006 
-0.019780343929292135 
0.40114403901792478 
0.19256217217473634 
0.0086937643478857147 
-0.16893262655742147 
-0.03821213072031783 
0.037128949744240559 
-0.18267099828535951 
0.12770983950376619 
-0.048243457023132111 
-0.11715167836332253 
-0.074070652689597824 
-0.06127421509415 
-0.13946332064486577 
-0.083715134872236294 
-0.16447992970474246 
0.20233598299555261 
-0.19429259131211313 
-0.031282381882582824 
0.11135401263761568 
0.16033273407984158 
0.0042249040167390735 
0.23784608133243193 
-0.041731377362822342 
0.33435808713968707 
0.09141558376594397 
0.35026644960651698 
0.16578972146913151 
0.16225547225635581 
0.020521050595633451 
-0.10230193694236459 
0.0028086293561097979 
-0.013830151273520979 
-0.069092649033554721 
0.052510881734639955 
-0.053691569405798042 
0.096769490257273716 
0.14396767633350643 
-0.012051809121878573 
-0.84296792489105266 
-0.058999072434719399 
0.058367054490061632 
0.15551669270342924 
0.10614794949104601 
0.01971799329282635 
0.050194402834216827 
0.0303731305639732 
-0.090518815242170161 
-0.028049301265734107 
-0.020621589144085902 
0.14459136379396209 
0.10979299186893364 
-0.15106894910871588 
0.053104784122026447 
-0.058715169447621056 
-0.30898301206036555 
0.039180466279981389 
-0.15730714140061164 
0.058431601567807599 
-0.0070756249293483214 
0.07197628007339385 
-0.69739942114924935 
0.43348583061454804 
0.00017027757906102237 
-0.12659190364758893 
0.038128107830600069 
0.10920826914655915 
0.27918959492130291 
0.18833210030248912 
-0.021448280306118343 
0.032654202518998733 
0.0031555472190815627 
-0.2588844885801192 
-0.39819356019998159 
-0.20324300301579873 
0.0079970377097412053 
-0.019732943118865833 
0.16541770445101237 
-0.11420879369012624 
0.20101352505064385 
-0.033534694586059857 
0.028356369077357547 
0.057075547547865174 
-0.061056056416345664 
0.11463595413326499 
-0.13635667494463449 
0.15795722825650302 
0.078883429202306857 
0.16197449786549536 
0.11540249086478283 
0.036606352649330147 
-0.0061070091974939128 
0.18591160043210136 
0.017050294916986595 
-0.020208980808900601 
0.15274494555999163 
0.03583595281082666 
-0.015584390742993276 
-0.081657533385724165 
0.067644993565514927 
-0.14912976876841902 
-0.027272106689910567 
-0.10057295689916898 
0.27554558436255544 
-0.075922077462916723 
0.064506063633142277 
-0.063653672031293282 
0.14179466945888061 
-0.43175189773936651 
0.070358320548019687 
0.024000050922174294 
-0.049500259090893985 
0.087196050312948484 
-0.1908662763906307 
-0.33533209504999412 
-0.1997687793323433 
-0.03312090554527964 
0.0587123736046814 
0.48808271716591173 
0.10156712128116423 
-0.050326834913989607 
0.077725164367459562 
-0.21381709321649953 
-0.0037462915500671053 
0.01990543752014368 
-0.10705495675598438 
0.060801580052941215 
0.020346122543288988 
0.057732432743391189 
-0.062085245341044266 
-0.27696722958264725 
0.20751544662771954 
0.59596492089372721 
0.044805977909780088 
0.14837637426804323 
0.082403475799146086 
-0.028078467442275441 
-0.016791153574732459 
0.17470393825147576 
0.046672389736197389 
0.085104315716938633 
0.091000502807053366 
0.077046637986722247 
-0.21365786839746076 
0.48865766362920632 
-0.034447541125284822 
-0.0016641419252531411 
0.05916151382496633 
-0.15857408407160295 
0.078060057394902627 
0.021562507892832428 
0.26758863949424078 
0.031398633942759074 
-0.078985113796833858 
-0.10758261792742883 
0.013665999327952165 
-0.012404395639603239 
0.3060341777783912 
-0.16883299024843246 
0.27766709523467542 
0.053085817827487676 
-0.055463389410696083 
-0.16750970619625302 
0.064496995846896943 
-0.031450388375362064 
-0.088422877346378506 
0.18837957815885661 
-0.055020711590053048 
-0.037176119167773664 
0.0077037569771507917 
-0.13991999124535456 
0.12723412489127423 
-0.18698746534418409 
-0.57173244682460167 
0.011730377403126224 
-0.092905641104849612 
0.0262805523757281 
-0.057734693093497276 
0.066139356569435995 
0.073900403333933856 
-0.01397011858257945 
-0.16573018495967737 
-0.0090326625758646584 
0.010319931129810112 
0.47013769027866492 
-0.49668596135529902 
-0.31899462651558225 
-0.39324591663701591 
0.1543192184961919 
-0.2326829705926152 
-0.67518859499114636 
0.10870924282896464 
-0.061563630045419017 
0.16592594961400522 
-0.030158681517578226 
0.019994151243991821 
0.11083386656884395 
-0.08658585705774513 
-0.023451329158985724 
-0.0051114099135140126 
0.68309434435726069 
-0.091984463356694815 
0.076256490014701625 
0.02239821778483609 
0.03263653841877151 
-0.026514770523692624 
0.032677755451069102 
0.1196140772128416 
-0.34852578033610498 
-0.23202663715170757 
-0.1579274932763573 
-0.07011376329179772 
0.033944397964969578 
0.026716976862219851 
0.0911940303371509 
0.009150580323225516 
0.059393509495880563 
0.029595353122267937 
0.23558634294955647 
0.10415076711946644 
-1.6046338778774327 
0.10946630140558991 
0.026573099452721072 
-0.080487412660302168 
-0.38623971673561569 
0.11654284303115944 
0.11443157080033274 
-0.027247072945123352 
-0.070704627898644221 
-0.10334124591568324 
0.079815302611389347 
-0.53236963763764189 
-0.023249103219374703 
0.018343846958078273 
0.043720422952380655 
-0.021281663153133502 
-0.1241897459317603 
0.014461383428127883 
-0.013251693722155492 
-0.039162482074015563 
0.059794650622472641 
-0.16503876489393385 
0.036364713001479074 
0.02415882309900183 
0.090670543515405502 
0.43254271312717685 
0.074633102228773479 
0.0016865483324244902 
0.00072043388756037278 
0.13693035190481576 
0.096910192541933241 
0.026286851026001392 
-0.019253468203658079 
0.010359908794687322 
-0.029644504123614777 
-0.27044480062510101 
0.11307650008245665 
0.13220322241794272 
-0.15148850014969537 
-0.036019907546950468 
-0.12850730330244314 
0.2661169425406219 
0.044164015287590348 
0.16449457493030781 
-0.062385425562587374 
0.15791818050509521 
0.13732381871287527 
0.13295774257507029 
0.033463719279184095 
-0.13947482772843928 
0.28687824517804861 
-0.05253270051502873 
-0.078198573392498555 
0.020162588655613843 
-0.1538442733503522 
-0.070125475123521644 
0.06904041173987982 
0.071533300400171335 
0.29557031892849045 
-0.16546316693831242 
-0.06660010965081474 
0.029308159866074712 
-0.51614288695451882 
0.3872174655761505 
-0.1098883377548406 
0.38461073779177957 
0.014245511163179972 
-0.002275348405785802 
0.20476771290292187 
0.02415656998152468 
0.080817317836532232 
-0.055868595648048192 
-0.012509314834913309 
-0.13313036436769499 
-0.080288402222202876 
0.55631773512241256 
0.10925291020699238 
-0.077402885335463384 
-0.13276302888880351 
-0.11063390426574972 
-0.049465470054926901 
0.0013316614183642812 
0.049361222380914803 
0.16370425623608842 
-0.21711853763427216 
0.15624193739664097 
-0.11436037943378728 
-0.15391169325889964 
0.30937676605479209 
-0.20657077051186779 
-0.23950613992805503 
0.22309313206417886 
-0.3281992484300057 
-0.31831020450419734 
0.65837911760366319 
0.16773461712371696 
-0.063001674631718685 
-0.078306435897016441 
0.054421178997326208 
-0.087078942120820527 
-0.12504473077816047 
0.021625835400394467 
-0.077925768160563041 
-0.029495568668077943 
0.092404864935213077 
-0.13789833817007141 
0.039861760189354362 
0.020544369262129537 
0.18347008719732619 
0.074658585679891962 
0.21695187163760787 
1.1784131251596177 
-0.067189444023434089 
-0.15319496463981397 
0.11007200054049648 
-0.22754562973083145 
0.043736052666445271 
0.15521585749428321 
-0.00063464517121619463 
0.076845812741992106 
-0.0058085785153530458 
-0.13376622848629241 
0.54038465016162629 
0.14247929579357252 
-0.010645756060902506 
0.1442507311378218 
0.14688680637096113 
0.066930479072521865 
-0.51847932260323815 
0.43289229586540162 
0.056174316920128149 
-0.060418909415835942 
-0.039773985870017639 
0.17059063510347189 
0.047941664109013335 
-0.011072713916236179 
-0.21433600726635421 
0.50675821620043382 
-0.050693936344321656 
-0.011970145410192361 
-0.27335439986522919 
0.0024010948136791201 
0.16896761779581079 
-0.15061438949077652 
-0.29774750690266871 
0.15631957030553056 
-0.092852829565029549 
0.11845795212256226 
-0.025414170637140684 
0.20994153837619578 
-0.36028026278450748 
0.1124227888556522 
-0.071951319161003557 
-0.044216401683061804 
-0.11266603575463471 
0.026704870444233392 
0.10705526797059682 
0.23359241740344064 
0.11064175228347051 
-0.048626450330619755 
-0.069488948490655011 
-0.051354108883994685 
0.077883904515650748 
-0.094524196683344275 
0.1505537285011059 
0.16500393916444395 
-0.097815808721401359 
-0.016159218639305264 
-0.05631537676316576 
0.11653809583553823 
0.1347277105084918 
-0.36517355868500828 
0.079484159076514224 
0.23339948212675934 
-0.08879942408254661 
0.0099221306631370118 
0.07939577106687512 
-0.088532824030436066 
0.4935404615069785 
0.11590923906812432 
-0.082038164978712094 
-0.025148884123667035 
-0.015994247511537708 
-0.18994479486846222 
-0.11456877391405006 
-0.026627184547075782 
0.010050469247998531 
0.099772925635477114 
0.10271941179369502 
-0.049775553619101416 
-0.043694237888314877 
0.15662312439851825 
0.052340178070841133 
0.065561210526038916 
0.058520880966245206 
-0.033973520067566522 
0.046636159893531648 
-0.0019957760814488905 
0.17301041686501684 
0.1390368712401257 
0.032361915214790191 
-0.068717744820397428 
0.16766133293384916 
0.52222710418303397 
0.082095771173892759 
-0.10128084756064343 
-0.1388021350846359 
0.056393939916082776 
-0.24481395367973632 
-0.16419748303749179 
0.24790833390915468 
0.036935300868603714 
0.070281278959351282 
0.097502251034596393 
0.013313639095440951 
0.024155005399326697 
0.12868393445155765 
-0.14153076345856594 
0.058877046547168084 
-0.030959223603869376 
-0.28143257043161479 
-0.11761010550497522 
-0.073331924455737704 
0.087608805272645335 
-0.063688754572103531 
0.0217019934684194 
0.054654689132212081 
0.076299560202936531 
-0.042711374076783125 
-0.035322976996266242 
-0.047743805083047264 
0.022878863564889881 
-0.04955705409879458 
0.084360310180632975 
-0.026688968073463607 
0.025588246121214481 
-0.43378959522919364 
0.13063367870011741 
0.074894350111240682 
0.26323008134317227 
0.13925285866294684 
-0.071685181512663343 
-0.068209647799036141 
-0.10892914877473765 
-0.12865883449495011 
-0.074377259821372166 
-0.091520519191149979 
0.063289462930246676 
0.00037422384929704754 
-0.19673247226447155 
-0.20158696461965384 
-0.011827213977046006 
-0.03735195727208844 
-0.097983841744748057 
0.087380175382179209 
-0.58896684591425297 
-0.054876803796528699 
-0.095991694087599694 
-0.037196186820710228 
0.1414100177667931 
-0.050937463344871946 
-0.10943929820957829 
0.069154282785190757 
-0.55764531294933994 
0.064921074938691078 
0.018653860445498594 
-0.11250532843317396 
0.24726653630385534 
-0.21042806282364795 
0.063081366896627133 
-0.76590116623754467 
-0.063726985863619051 
-0.052066345150257293 
0.080764823275058129 
0.094432311214749626 
0.18546929341419757 
-0.11150863134506921 
0.08327802935282741 
-0.22016034320630165 
-0.0053950169887598915 
0.015396982373910016 
-0.31656843100918214 
-0.017021910935686849 
0.11321083089995516 
0.092745822422527394 
-2.1896174257169747 
0.12598213433235206 
-0.063826149578404712 
-0.12841841068839235 
0.034060542799574961 
0.12754054121133732 
0.47284119754384835 
0.066681260905181797 
-0.14830386219646255 
0.22598922012060807 
-0.13199170067538218 
0.64439777493704242 
0.007479028830847387 
-0.11140965221794479 
-0.14749842980202046 
0.079059550700908962 
0.048805063891328528 
0.18634949387213168 
-0.078565789663077007 
0.037583248666993981 
0.027652314583967077 
0.075861313625458379 
-0.067785159832159658 
0.0080699059620828496 
-0.12221402857893483 
0.061895066521558642 
0.12508714123493744 
0.00090419572963791345 
0.094537864792284654 
0.11028912684229997 
-1.0935503098705477 
0.19029624767729614 
0.019376003940804538 
-0.084855235032789619 
-0.13101790557977666 
-0.10885155434098086 
0.23173920505003626 
-0.06455958826788806 
0.0069064306681808144 
0.082097905383307329 
-0.051663199480428065 
0.018280701249337106 
-0.0099839014108978053 
-1.039037215156253 
-0.070105941918604572 
0.19805133915365519 
-0.026934459903837304 
-0.15860183381639156 
0.17159391433402965 
0.060569246511493487 
-0.025847085896021263 
-0.037881875023825375 
-0.054667245458442183 
0.13819554372854514 
-0.29614208003681097 
-0.056805724226782192 
-0.087928033430491936 
-0.030087702031130915 
-0.18547841754375258 
0.078773861193126918 
-0.092746255362460658 
0.17070446636353473 
0.083774101341317103 
0.11876677885591948 
0.16302436441063989 
-0.10549939691137315 
-0.020406048688750685 
0.080510492119274413 
-0.098377178260978096 
0.15271970267249971 
-0.058772624530310527 
0.23713925494483987 
-0.47020978958174237 
0.070924973560337695 
-0.24804614882208423 
0.25633572296011065 
-0.7905735339233031 
0.48334523113514277 
0.19491319728441384 
0.056306003995670199 
0.025866780822823673 
-0.84832439051664732 
0.14967463409847367 
-0.031309964547204479 
-0.18859538087348771 
0.10395546050660112 
0.19578059956174815 
0.083234421815021595 
-0.20979486013641593 
0.25840167895101507 
0.38074427576405306 
-0.019122058913956155 
0.009267932926814066 
0.008740036493738005 
0.047758681264313756 
0.17427497029571995 
0.028984248435231331 
-0.089865684416119945 
0.063120053982007082 
0.046663233016466681 
-0.10781609154057226 
0.072312608901895808 
0.1012545818239778 
-0.062190180707936249 
-0.096282446994594456 
-0.11318766891224083 
0.07809297133467448 
-0.046882033596830436 
-0.013786366684367108 
0.013679807388415606 
0.17606334595676332 
0.10061747379926667 
0.35204762152104152 
0.92812438739857295 
-0.020456013333935038 
0.22137479677733357 
-0.31398446711545031 
0.01628725606670698 
-0.20570818267555246 
0.0080780709901372323 
-0.015425727433417408 
0.019623426649280153 
0.03247742876334439 
0.019029753739085883 
0.15144289132566438 
-0.079845308388775099 
-0.51471782576996827 
0.30452948492270826 
0.051676120027130595 
-0.087945291609134391 
-0.031476649737063114 
0.7271434089589649 
-0.23509120094154931 
-0.014728207641170154 
0.065566088079237556 
-0.013016460757452997 
-0.28086810579451493 
-0.078510651427306358 
-0.017376783921537072 
0.12608475384618956 
-0.13766260026225419 
0.35500411991543701 
0.2513611287173243 
-0.069133473432872197 
0.17059708123674555 
0.058345236253551425 
-0.23175310653763151 
0.33261752186922255 
0.047419346860438603 
0.063558644627267888 
-0.064012559729680119 
0.18517446211316202 
-0.001803238244552243 
0.13953545675280848 
-0.018586903304761655 
0.042176997077633942 
-0.057488157037604001 
0.16084335907354796 
-0.039552687455334905 
0.010767860768344224 
-0.10194067394240823 
0.023848721471522963 
-0.083289151241618911 
-0.05694073038152344 
-0.23835636925180601 
0.04252009170243104 
-0.21530726344476755 
-0.28485064909170138 
0.026207363014334177 
0.068769900230391035 
-0.082200317981395696 
0.01251263694208451 
-0.21110432019728451 
-0.01898526762548975 
0.033814350605077821 
0.027408867853499799 
-0.25195201111799281 
0.20081530462180519 
-0.18655241763820082 
-0.017745021419637162 
-0.036066377750558543 
0.042367534468143363 
0.098042542830762483 
0.073950309948149773 
0.54476752609607049 
0.004780250472708315 
0.018691358199366386 
-0.06544344197026665 
0.88719118183635171 
0.4780884620569309 
0.30328359637280283 
0.12115783677826779 
-0.02761855673439776 
-0.11741403204669494 
0.030763205953070766 
0.01695964267226268 
-0.093800459705089836 
0.36969262298630512 
0.12565532400846621 
0.39737506102888542 
0.080620577575446051 
-0.77659953560341755 
-0.1083747551869412 
0.078599989404365661 
0.053538545270063173 
0.076846187050370593 
-0.063970941914105905 
-0.0050060205518049827 
0.26760514111142586 
-0.036279599125352252 
0.38497403181073259 
-0.84634291437678588 
-0.2510412259316116 
0.081870669056128997 
0.18042584591045138 
0.29611843721257408 
-0.1108017816557073 
0.031270173161050775 
-0.16364835626224877 
0.0031193336275256557 
0.0080315473171850872 
0.18050235369112244 
-0.029690183455058066 
-0.6230064054411627 
0.10476327785417476 
0.010480305410858861 
0.095906423569185995 
0.067221328304266581 
-0.097097758078888222 
0.0031474918544994717 
-0.27230337487984196 
0.11639954516541409 
0.028718617683242451 
-0.094948254204963986 
0.026453338170290216 
0.02897809508504786 
0.61132210815466037 
0.0030041442865312404 
-0.35290780763487023 
0.071369205993687915 
-0.00082048723956957171 
0.064848268766630551 
-0.13403938563114434 
0.13774159569781347 
0.10014611973150854 
0.004707157593421391 
-0.076280222852158117 
0.014942241101724945 
-0.038169874068274968 
-0.033554868303338842 
-0.62951772749605039 
0.24254965057007791 
0.0061410941900079587 
0.1529859820811319 
0.00085651364564920699 
0.23833629570334547 
-0.039314719483460221 
0.065447418379914329 
0.068839726316193076 
-0.037868749381589586 
-0.11469505159583826 
-0.0017466200264340472 
0.31463214545426466 
-0.22753899167739114 
0.32454448566187644 
-0.12966432624918819 
0.0082092415266656858 
0.089804024012188233 
-0.046743434943847757 
0.014361949204039791 
0.043572294017925117 
-0.19654655555603315 
0.04354877763697225 
0.031690756322344638 
0.80142949520648898 
0.18062967127339652 
0.022686143775550161 
0.12845601975497839 
0.27051005165259723 
0.052752053852033701 
0.20753672849873209 
0.1306700302541777 
0.01742373499059768 
-0.037377512363853685 
0.14098949656564261 
-0.13550960420206176 
-0.16348706457208906 
-0.01517012423989449 
0.032409233387837549 
0.0849839239797575 
-0.31680559493553651 
0.74943248769048199 
0.067481468809593603 
0.02321151786339247 
0.073483569007781496 
0.19925305962267501 
-0.046598204532214568 
-0.69814653010608307 
-0.012493817107633705 
0.045496625362883535 
0.016077943839460755 
-0.0096279477949355527 
0.20279042071312542 
-0.11252187798728762 
0.068209947880589886 
6.1846157622549511e-05 
-0.034702445262634468 
0.1475541400220173 
-0.2900193120671522 
-0.062024553684222494 
-0.0019432548062474284 
0.11781645843901581 
-0.041819429503850286 
0.01503253197333093 
-0.14465141425643663 
-0.18130000376171163 
-0.1705697006756787 
-0.014337959047823565 
-0.073783398067033656 
0.17627969641364144 
-0.35306314834683755 
0.019686679684999053 
-0.086147721501544705 
0.070733530173268042 
0.11380513825928183 
0.05515151112470508 
0.28850997039378951 
-0.013320143812797371 
0.029317998944002156 
-0.97616000755937249 
-0.035035035012339052 
-0.12169022948691519 
0.22308917965562056 
0.19487370831816625 
-0.055949624667190966 
-0.14226707202843866 
-0.076523055098222992 
0.021967870829448302 
-0.34104265672552575 
0.079131463873422805 
-0.039983412835167154 
-0.86698094789760949 
-0.057433542363802159 
0.059553552836571946 
0.13455505751526756 
-0.06423041007157243 
0.11879033319420612 
-0.087612375350108351 
-0.13159464889924094 
-0.079648035383146021 
-0.011769246326541746 
-0.044542959072243211 
-0.11702781332559345 
-0.17276267712467111 
-0.087839753900126244 
0.026681370371700413 
0.14456282352450409 
-0.020079385769704691 
-0.0053481720995358266 
-0.071500682370646926 
0.034189599117257365 
-0.1090095721643749 
0.0033380065172451739 
-0.18912670084322664 
0.63722748636791227 
-0.049034153539220027 
-0.1778915344052388 
0.053886459875028873 
-0.050805335668409342 
0.12719311344801273 
-0.027531874590672901 
-0.0099573792619584833 
-0.81136453644223061 
0.0048255238437614409 
-0.1275522936060626 
-0.10598987717489765 
0.032792188793507468 
-0.10785189825206021 
0.10430893686867836 
0.4841311545454266 
0.0046185660863814915 
0.31902795694085667 
0.051142921319633008 
0.072746545838087956 
-0.029914082672252391 
-0.082525484846267372 
0.028145923967109153 
-0.50997402442975648 
-0.12665378083101264 
0.10198474511945051 
-0.012869445330120098 
0.065782310746460612 
-0.10698387162936406 
0.67790021688725022 
0.043870150955748935 
0.0029952834908149152 
-0.078104213878086623 
0.075600003551870673 
-0.32463189216705546 
0.16136126224251177 
-0.24718016176692931 
0.077984453389522687 
0.25315863451926651 
-0.11501296573693687 
0.095879935049133322 
-0.0046406326731209214 
0.015687450111728146 
0.31041672795663705 
0.12047789958651603 
-0.1684316398235515 
0.060793232971021967 
0.016659284415214956 
-0.047903503663669397 
0.19872372816910211 
0.037326442248017969 
-0.028851342994001886 
-0.00049623482982639588 
-0.026370378421942505 
0.22782371596146891 
0.18539276438275709 
-0.38508231690100619 
-0.012781790616666809 
0.30945812417582491 
-0.054065181946369979 
-0.054466559521716106 
0.070841900065189783 
0.32735050364358909 
-0.1649929728863993 
0.079511289453659109 
0.08884108190111889 
-0.0047661878055951365 
0.12619228565013221 
4.6294433011535591e-05 
0.044341350183193594 
0.018865708061928027 
0.11281904943499421 
0.084280652610714088 
0.07294652659624698 
-0.053627636591129069 
0.062161200866680769 
0.15889697573614572 
-0.13455296961122715 
-0.13160700056321367 
-0.013323390296985323 
-0.15606665213868404 
-0.063466709071964306 
-0.060639429970572083 
0.31743331651313289 
0.3881562321474632 
-0.022980900555088057 
-0.51805728219653524 
-0.050560592224151372 
-0.030757615304359508 
0.062336413482740313 
0.0022688137255278615 
0.07256186025281533 
0.097437426337715849 
0.13544674597793036 
0.37141227552347078 
-0.023402145760462061 
-0.0057023833240545064 
0.11543812826444075 
-0.0026232317450616939 
-0.13220173433017673 
0.07029198734377344 
0.15547635905918064 
0.058755955780434445 
0.036170991876034758 
-0.1632138646603129 
0.041524039498462111 
0.10745568847250137 
0.15304554594937725 
-1.4104301585089305 
-0.069335669604631375 
-0.030880172881276917 
0.24030014381631912 
0.28088994102617171 
0.03681141287325216 
-0.012994375048782772 
-0.083798035025853659 
0.10782990113860402 
-0.20719813425418815 
0.068346819337120404 
-0.061439378931519906 
-0.32335803406466573 
0.26251361530602585 
-1.110392736968866 
0.159427231789839 
0.041103672164594991 
-0.19167215142905916 
-0.00088622571529903813 
-0.25389762865664767 
0.17674644124810363 
-0.013720726835018069 
-0.027540591214572023 
-0.080970103947602248 
0.13614311115181413 
-0.15886328064236135 
0.13547082225215593 
-0.20322532416869915 
-0.35967046905593597 
0.26356473347397363 
-0.11489341623956242 
-0.018830357164068195 
-0.24864606581230778 
0.030300547866053809 
0.066034518385413798 
-0.11949352033966543 
0.030137988206249609 
-0.2297865056690202 
0.12831638187018243 
-0.014638384394738829 
-1.7493000940470242 
0.061805949340542191 
-0.20221837795296371 
0.038922843488150866 
0.0071028458417578665 
0.097608241294120268 
0.70923548480755239 
-0.22841927447895549 
-0.11133152338841323 
0.071302617283429084 
-0.18018143824916039 
0.006657706599897859 
0.040820495773712905 
0.19001289599129223 
0.28854043952095998 
-0.23155763619969866 
-0.012061638353262188 
-0.063998566439786672 
-0.49044102699359099 
-0.076835878702271154 
-0.13172829949395082 
-0.23848434798386312 
0.069373876341936272 
0.065309255282128317 
-0.2409804527608734 
-0.060523299986245241 
-0.24139549268215832 
0.059230920214105684 
-0.03453637068025299 
0.2026867914224956 
0.2173698324650539 
-0.19513935054919446 
-0.11234962813085521 
-0.018953221837200652 
0.014565841769264754 
-0.1100916028162412 
0.085849702593166599 
0.01233435442715956 
-0.026303399103947477 
-0.0065080029398862042 
0.076140885063139666 
0.15192696530834662 
-0.014705934115214704 
0.075466693932911305 
0.11033758017953416 
-0.051684618844642656 
0.17110555821569012 
-0.02819087101824095 
-0.081390490683819108 
-0.49218588808584329 
0.11900589020704219 
-0.0025759879696839851 
-0.016342216078886182 
0.0068184935636215645 
-0.14458058402864468 
0.4711562965418522 
-0.09438016222884546 
0.011520664504148926 
-0.10934838911008182 
-0.16000879720710109 
0.019439314498505163 
-0.0021273279103756352 
0.50591771624175208 
-0.24556232181428872 
0.079925868380274212 
0.35326284737469377 
-0.36593918220295663 
-0.34433541374861942 
-0.025231423089688225 
-0.33975399426983444 
0.18708975328506017 
0.014042498394725178 
0.012431056496335481 
-0.22169793521378961 
-0.073496171743647365 
-0.1844474697966951 
-0.1123355278668319 
0.035816067102907377 
0.073815451919941988 
0.056156655700986269 
0.059298644997221955 
0.074770932759456787 
-0.097970332197290788 
0.02429934662701197 
-0.22113232801002641 
-0.018994095854894626 
0.092588458067268398 
-0.084498892084240357 
0.029642736770464619 
-0.10886471318721107 
-0.054609548261675592 
-0.062904326476928701 
-0.104821305385898 
0.12572503790214964 
-0.35379634325633358 
0.15771411833332427 
-0.51965991263895728 
-0.027490348417875031 
0.16425923899866335 
-0.034934590891663723 
-0.10205828596470821 
-0.016009688441737845 
0.06402027618267625 
-0.047948937707890049 
0.16373075905450626 
0.08055632258228132 
0.010890442861576224 
-0.02911072557758556 
-0.42132742151486935 
0.18873151627546603 
0.086157524135257263 
0.052412361513357181 
0.0098979800328439192 
0.077930909355484981 
-0.078323012678867543 
0.49658632459204599 
-0.076172326560347753 
-0.14101311777258696 
-0.073795690796416111 
-0.01039540835841507 
0.056112646710554007 
-0.022030181771859354 
-0.74604769170797258 
0.24283723533501572 
0.95400414953905088 
0.1001984179619818 
0.17653008532621531 
-0.039032824851286931 
0.081050554076128822 
0.17807015239917637 
-0.19108021960585697 
-0.087445324526766441 
-0.073921001444109971 
-0.14451810195982098 
-0.10148619853279929 
-0.013109876695637412 
-0.013392529991514766 
-0.00076049243363337333 
-0.021701694399760572 
-0.035193682030675418 
-0.021296366866656268 
0.029151382486263859 
-0.12707891478506464 
0.011011533482675494 
0.00076092204496436017 
-0.049847836353207144 
-0.022123079776221327 
0.046110332940248043 
-0.13019200222351054 
0.05309120129289558 
0.028324780085937147 
0.096708886246646864 
-0.086005765788672597 
0.11345706341090786 
-0.019954456651183693 
0.37344977501565679 
-0.034716635068278413 
-0.030195017852247871 
0.054302152244138271 
-0.028319354974912309 
0.61222634643597429 
-0.076726930161421028 
-0.13448113103877943 
0.062235094562072844 
-0.21626584817088337 
0.11417917760109218 
0.047278111408528702 
-0.24365967278872339 
-0.029424282206722222 
-0.057270027859663862 
-0.12045435325626416 
0.20759520138763143 
0.088808596630082628 
-0.15340861338967793 
0.19212016960226583 
0.24010847777134986 
-0.087678803699900679 
-0.21741223408758559 
-0.14666235867174782 
0.0025398692841091526 
-0.042994641975068977 
-0.28687209359790516 
0.10780258489108274 
0.015327267911904347 
0.068518880876609095 
0.25541536188944475 
-0.036248984599122902 
0.036653666367370011 
0.012704674001996411 
-0.32134410306186117 
0.11959412374797303 
0.075692455128823111 
-0.33999097143124007 
0.0056488460690539673 
-0.14329760108197143 
-0.025264284758364969 
0.02519295382459006 
0.087675846367342575 
-0.10473185478713705 
-0.10781792734156116 
-0.040876665086980415 
-0.036535630076114989 
-0.1461588309864211 
0.13799807403281125 
0.096298528993507673 
-0.052168356095453228 
0.6350515349946888 
0.15668810927509924 
-0.021480362193836595 
0.047662262798023977 
-0.058384136616397311 
-0.20445860145405298 
0.013122102821698498 
0.099584050173733341 
0.014640163601295494 
-0.035207731394194398 
-0.028968400832632229 
-0.024195947241785587 
-0.080859089937613454 
0.10730809509176299 
-0.067824688233406552 
0.024073215629074135 
-0.051365569245661651 
0.063391971623464133 
-0.2094999710148292 
-0.025013014809001644 
-0.0022909875761369693 
0.043268648950490596 
-0.044026570175962412 
0.019424234740644308 
0.029276664816609517 
0.39338629334078112 
0.067645347754200683 
0.27213861058293931 
-0.15018274301300291 
0.48758788013401655 
-0.021663165679041554 
-0.024888393532059922 
-0.53962036737014174 
0.0058976226387516331 
-0.068481451828475384 
0.022286669397347924 
-0.13831549085436098 
0.22782524833661205 
-0.14874419490449481 
0.10624327167186183 
-0.12614361398568513 
-0.50239736928473899 
-0.088268622367693866 
0.051346853476539014 
0.1797600293190981 
0.13552096490197216 
0.23237361569001755 
-0.10065698408992058 
0.094421319813248833 
-0.059086074626068762 
-0.032264297566538529 
0.045982443662875343 
-0.245849632483845 
0.028569887741056236 
-0.062980628975601929 
-0.18503821171121251 
-0.27506898532344337 
1.0259080823550777 
0.14844828825314788 
-0.071191425962738822 
-0.002703926640724396 
0.012459748714082045 
0.046115146290881148 
-0.1274099101758247 
0.052689326426013219 
0.14331727915425369 
0.31618610809427289 
-0.26115994196982478 
-0.066893335402523513 
0.12187295878594914 
0.03704599122508663 
0.12431388530885058 
0.062795348999388448 
0.18761973448695746 
-0.050732389679896156 
-0.093378806901562084 
-0.030457278971455021 
-0.099335266697591601 
-0.13783342842419025 
0.54362490854495382 
1.3917309197088739 
-0.10877145410268334 
-0.0066962691103262407 
-0.34124455709294543 
0.30709956352056261 
-0.75221974538587599 
0.0019067619803373903 
-0.084534650699122929 
-0.12322415146624144 
-0.26622591733324857 
-0.44539152388091025 
0.035741606093830543 
-0.057282784584238293 
-0.0088789340768973511 
0.011217840875788331 
0.09474737590116096 
0.069142210251785588 
-0.027343523937322645 
0.047078000733402209 
0.082489817452832126 
-0.065135752213358017 
-0.15754051292483026 
0.056152813259356019 
-0.50588296565280844 
-0.022068630749391163 
-0.16020403954762213 
0.10086281683459002 
-0.25494777095740778 
0.13205905456234926 
-0.010223416915515347 
0.063416812655019292 
-0.4197021901473893 
0.04148306672159454 
-0.4212058087552637 
-0.14741934213549512 
0.26103133337478424 
-0.57002232751671356 
-0.23190103926512676 
0.6342686060474505 
0.21303743059003794 
0.085101115693681756 
-0.016545828796757416 
0.0034204437832730389 
0.061433165596262634 
-0.015275102543306907 
-0.39097496517587449 
0.074178245826420575 
-0.010342904929849898 
0.21987060832880329 
0.52660813846760723 
-0.010260310974577677 
0.13105291247845952 
0.094906073715571512 
0.0049037509979589344 
0.016575966537780939 
-0.051451545119974462 
-0.003000363540925516 
0.037161248948533294 
0.075284686229618175 
-0.071130412089927153 
-1.1839510480368962 
-0.079353533017370956 
0.09718729590222551 
0.12030357775613962 
0.080312091796936338 
0.5939459556958564 
-0.01489526587814911 
0.027992147212800605 
-0.1153751693748009 
-0.039889762924074444 
-0.16324044357773154 
0.034570381698141923 
0.28928885512346314 
-0.44745949622760783 
0.086639083490821597 
-0.045815293030665324 
0.04356543081668008 
-0.0097009429154399883 
0.21034126356740482 
-0.038107987141576143 
-0.7457688269880286 
-0.16777792980817843 
-0.035952663145225279 
-0.071332510074299443 
-0.038863284230545803 
0.09530302371761025 
-0.49694436349415733 
0.88817038857427288 
-0.066575887988362809 
0.10272416442100012 
0.058530716061486042 
0.020295217616631226 
-0.02862273521454535 
0.14952690183183664 
0.020950483249572976 
-0.0006678182960139379 
0.096013790762593365 
0.15715984212954862 
-0.08614255292052439 
0.15494755520388512 
0.11620418841423952 
-0.052911087567247675 
-0.026686609814244987 
-0.0040203068615774894 
-0.20801542783042071 
-0.12926439497957198 
-0.026492762124487576 
0.035357862238358122 
-0.050451716677541739 
-0.15713240323506264 
0.030571600966457873 
-0.05897060141894065 
0.086163847490274142 
-0.15976666071961793 
0.18001875540698192 
0.025424505071311412 
-0.042378089457151207 
0.032760309482804541 
-0.12588206635294247 
0.05793457700197753 
0.0079236099392065856 
0.048985939912048797 
0.13791567947807659 
-0.16595809898147354 
0.037913070176598493 
-0.26293687203906208 
0.085178398640833736 
-0.023460668942978331 
-0.066465653324394136 
0.28593217857626363 
0.17108580344410931 
-0.021507120199778237 
-0.12055644990219574 
-0.39545982840119565 
0.023936208343365312 
0.24753178325133521 
-1.3532865239050353 
0.057798226680300366 
0.024576294713860563 
0.054916192239488466 
-0.11981491654848292 
0.07635366841982856 
-0.10240623368415022 
-0.05042364953005906 
0.056260754791642484 
0.18791070137272256 
0.09508911147263413 
0.36063164469344605 
0.11712551662657365 
0.069633044508792083 
0.0079333912875448279 
0.011578678182579879 
0.30261062184359427 
0.051696697885064577 
-0.10515776793989876 
0.21736960170674899 
0.12478197798653995 
1.0035707550146227 
-0.13022949283333257 
0.21535796794872361 
-0.094721405230419276 
0.024219212673915157 
-0.1041142132736378 
0.22264431894966946 
0.12781203538939079 
0.13215502140860705 
0.035253687465279689 
0.15251792270578265 
-0.024492087355404368 
-0.0030191578551089634 
-0.031204843563979373 
-0.071852635233195961 
0.015052990683266832 
-0.23474070570504385 
-0.048645696778798847 
-0.099616270951897359 
0.032286953624215006 
-0.10338817710017756 
-0.25334352658600018 
-0.17836058770940424 
-0.22131595867128986 
-0.074347825189213998 
0.068228082609026838 
-0.066090389746511269 
0.01749520082286592 
0.074106610449293162 
-0.11463575977753061 
0.010030539335016884 
0.28950101147716162 
-0.073749475750674032 
-0.013270366930656842 
-0.027131925142145265 
0.48872749648747094 
0.084151458831426412 
0.050316077444861058 
0.022663412247608372 
0.021239008739314578 
-0.053245132797022296 
0.012675291593817417 
0.22174513317195232 
0.11390914277953794 
-0.030092496580013534 
-0.22335389742901435 
0.082353772263931965 
-0.0037583967397252583 
-0.32205888592921467 
-0.0068331906635744431 
-0.059575433257450662 
-0.15294239763879175 
-0.031473262462797025 
-0.03515041049571286 
-0.039564343520021097 
0.031879976121276903 
0.11128344075694761 
0.069124022859539058 
0.16156308643896478 
-0.017328073864847655 
-0.18219310582220344 
-0.097635274279379264 
0.30630577278149784 
-0.03924825878987457 
-0.081652429470225482 
-0.015525632836986799 
0.10586180937211526 
0.51485099866366557 
0.13130915490551276 
0.11217303329127769 
0.30966601269881616 
0.030249855226416766 
-0.113274588576196 
0.13902639000372721 
0.33824959906894408 
0.009193054398578801 
-0.075565475116545502 
-0.089188339118216886 
0.27447235838900519 
0.070722081102932891 
-0.034454565183540835 
0.86728839897794785 
0.029763546382074235 
0.017765350033033939 
0.16219070732547894 
0.26181673146932555 
0.12152105195806233 
-0.055857142699393222 
-0.12791978941619275 
0.18088315488278117 
0.0042845093020768693 
0.092442048126103377 
-0.17532406520859375 
0.6390398468232924 
0.087667108394548804 
0.021089616085986005 
0.13070437712636435 
-0.15555306161066601 
0.10346298525580362 
0.060591435985747684 
0.08300454375229567 
0.080188289227394197 
-0.050107188677448171 
-0.099883183658446131 
-0.1286704828676348 
-0.047684996481997984 
0.087622416190062336 
0.048752240715826158 
-0.087307112250788035 
-0.21549106998338413 
0.078722090020452704 
0.12218153703121115 
0.067075045892730653 
0.071206995533507692 
0.067586093919597315 
-0.066159521181613723 
-0.13199776992262729 
-0.084694256994368305 
0.54681418292476902 
-0.16204775054335002 
0.14653912257979046 
-0.021950686728548691 
0.072580766202208907 
-0.043718833497214511 
0.025600940422875983 
0.10514662474220707 
-0.31680852426356709 
0.19595308301100323 
0.49222280292956783 
0.031108664915129824 
0.14407096089440624 
0.41342658175626923 
-0.19127684328458402 
0.10232846125106645 
0.16316735240483138 
-0.036785268349577849 
0.055052535110620957 
-0.15336248359750873 
-0.046434229879759807 
-0.23646467773387031 
0.56925402059193586 
-0.015160453914262167 
-0.10399872442163911 
-0.091683173725669392 
-0.18818624377674323 
0.039823548901591017 
0.0078757154328608237 
-0.020081474612163443 
-0.26948409817353253 
0.020386165936318687 
0.10250469530064341 
-0.19767935484633556 
-0.015398432438288081 
-0.30829668988928527 
-0.00077721796979478806 
0.14742647563585423 
-0.26801238911788239 
0.039123284019137554 
0.018946923777748814 
-0.45621699580542374 
0.072023006970660094 
0.055310768198167805 
-0.04897820489374264 
-0.0019897404442985283 
-0.1080987650657179 
0.056458067031152998 
-0.047356365957313074 
-0.067773834109928557 
-0.026120589821376172 
0.10765608998629565 
-0.13031074090760508 
-0.020596063289888132 
-0.31997985556839786 
0.35097743019882044 
0.84230921409253345 
-0.020226135626710613 
0.10382770636924313 
0.013919475265130002 
0.10468924850730875 
0.62211119343351651 
-0.15165150143799561 
0.036700719758868135 
-0.044987210061383023 
0.23054585499876862 
0.12697607417788098 
0.016391148217936177 
-0.033872919786776819 
0.022121902850052132 
-0.030405196939943292 
0.0013514961730921107 
0.13266391147474346 
0.25817152015004069 
0.021060592048233254 
-0.020210739463687746 
0.01537744652503022 
0.069291284876834378 
0.074123386669992242 
0.19833749605675874 
0.093353101894091212 
0.063402582756401149 
0.12912895543622532 
0.40328311801750677 
-0.078701387713016754 
-0.17660727692557424 
-0.23999889027475038 
-0.53327729392447021 
-0.16498283163226837 
1.417059854848679 
0.027162808971620375 
0.020644657695725536 
-0.13519073558982173 
0.02841370441974608 
-0.15149121541740626 
0.00047249760082847291 
0.13726888772703619 
-0.023133506359444053 
0.17548108611228877 
0.0076149970958947245 
0.0027022225447316016 
0.02989173168743766 
0.099237659454251503 
0.5207858795333784 
-0.78372904530943532 
-0.052183441753330513 
-0.12981761699725883 
0.094641233581841941 
0.37631864831042455 
-0.0091805471458717806 
-0.3340099342057441 
-0.10849226015279466 
0.087794733067479841 
-0.33630969782218662 
0.036816103290939442 
0.034988449041406161 
0.16970767457401295 
0.0091041268747840808 
0.039754457366705506 
0.10704358274206111 
-0.28498982057881966 
0.17574023224744525 
-0.060294642931604921 
-0.51817593277118645 
0.460478730155369 
0.23316166850972184 
0.16416131538369924 
0.12943646152563612 
0.0063699987275473227 
0.34394055755247166 
0.032422625299517067 
-0.021613938335952973 
0.11193185253790627 
-0.57869609356145535 
-0.088949674913364654 
0.049938465758480377 
-0.072778462496961432 
0.090503671215356268 
0.072885665884480491 
0.0042508433777477895 
-0.018249390319883343 
-0.017297998636185322 
-0.12178966022869107 
0.21868116006483107 
-0.036893470895809535 
0.02687852575182138 
0.11039399559299248 
0.11856528012180528 
0.11335076174313305 
-0.013495697751450228 
0.50833515446375999 
0.26156836753531043 
-0.90583798054645759 
-0.044917583113484982 
0.031654067107971938 
0.0055988168572900874 
-0.15885719046285376 
0.13853046988544454 
0.083719485917852388 
-0.040770512193415945 
-0.0014817592059693675 
0.082198080865041517 
-0.047803824867113903 
-0.57896963653368616 
0.21162120847369731 
0.51833577568276512 
-0.20509073579844536 
-0.10183340874123886 
0.12822641944069588 
0.18725026988495869 
0.0096197860106886756 
0.07889592673071065 
-0.027520021837764478 
-0.064287052864025626 
-0.070808099418108228 
-0.040650085670527192 
-0.17670364823470602 
0.17707906889590191 
-0.093951962798218658 
0.10960821511470926 
-0.020825703164915249 
-0.51883750659731576 
0.0063268827116037506 
-0.099982989350113557 
-1.2515266468947617 
-0.075557684545149106 
-0.060178295575910243 
0.1001529102760535 
0.043621715075738574 
0.10421403119486977 
0.21269685745433198 
0.19219276824158871 
-0.0029044079724634903 
-0.15714614363072135 
-0.13667806228737353 
-0.059774141565409035 
0.16956944231437532 
0.06261625270231673 
0.36812046753457434 
-1.0994721543290207 
0.13598418854473393 
0.39537865318977122 
-0.088585899541456375 
-0.054363993739541698 
0.070805443590077621 
0.16174928860460472 
0.042063497364728669 
0.093761241947732166 
-0.066381820984917933 
0.72505168297124656 
-0.12650085998091742 
0.063408437270726828 
0.058129974965571006 
-0.13989702411872248 
-0.11250529855379408 
-0.01585631232811895 
0.064808038377363569 
-0.061064927078978995 
-0.24967892057823107 
0.074355731397121275 
0.043406980079905635 
0.28696483340746792 
0.0023195594533591472 
-0.095109869501178834 
-0.1906342220525909 
0.11891512388672555 
-0.25785121445287362 
0.76466499367527807 
-1.2441972142348627 
0.062359657693924091 
0.021032824110897134 
0.13271791794181856 
0.13986272141237693 
0.088822934462024508 
-0.63266577387742828 
0.12124971070326777 
-0.62208571515517097 
0.16681926838933436 
-0.0055136147219838564 
-0.14490027857066559 
1.3273770877878559 
0.12634414211339504 
-0.20351490056690349 
0.080945949339298107 
0.099423436715442529 
-0.13378866511680362 
0.023747548992957578 
0.13630135809479679 
-0.025396349731922743 
-0.065672334236669322 
0.13864145758799634 
0.045619936371432676 
0.6465261894112323 
0.58116325067535313 
0.19991418326695823 
0.030774067320266923 
0.32595295708116817 
-0.058076692261322248 
-0.054825295837211865 
-0.0053902577846905476 
-0.066841906557314174 
-0.14919453880964231 
0.034472097633450396 
0.071615832655649816 
-0.0026127695024956801 
0.15829041460889212 
-0.044041519357457787 
0.066924749852873083 
-0.86288124710811609 
0.053592863824631659 
-0.0093562452126718411 
-0.030095019238681811 
0.025662697495774565 
0.021074588760349514 
-0.12010738690232578 
-0.12275519666670588 
-0.046443725359866191 
-0.43639530442397384 
-0.96990973752621856 
0.11892714403764437 
-0.19146790787311635 
0.024415421382123999 
0.010312778339762492 
0.23636681248426897 
0.12945896567420709 
-0.031350498607781552 
-0.018883215174266707 
0.038679298823908304 
-0.052219664310886073 
0.079803835460884279 
0.14053034719198373 
0.01344813909377798 
0.1630490540797063 
0.053429802086218045 
-0.11423249158866559 
-1.1983034576635714 
0.20427859005529425 
0.075538453718452234 
0.18844863550382659 
-0.080728001962670409 
0.019362294382073229 
-0.014985770400138522 
0.042788057284594047 
-0.06532515118568015 
0.11509149384618277 
-0.095029387511484126 
-0.12415082145751519 
0.044276386704356546 
-0.29031836805807726 
0.27915394016122802 
0.011149105510742035 
-0.10238861827984973 
-0.053468733178359026 
-0.057010883692825226 
0.18790061343966361 
0.28857987647593647 
0.0036944812203005893 
0.1365428808319665 
-0.10246848632477262 
0.032426499050824398 
0.1358413078757775 
-0.097593277293695727 
-0.11513589452954617 
0.20692278332619821 
-0.53612597150626906 
-0.088136727185480435 
0.063198439008703214 
-0.068586446866386402 
0.20216685197961443 
-0.01048892384556374 
0.0011207371635562182 
-0.035659483094789786 
-0.10218001303814278 
0.13663254312156017 
0.054746182657238497 
0.1680986973113022 
0.10213395012243494 
-0.036964287535186477 
0.020843951438924303 
-0.11510861251541428 
-0.023520059664196975 
0.04139485157841305 
0.0067341006599962346 
0.021117831780588948 
0.5550957540912862 
0.038523330395503347 
-0.16880602229742467 
-0.0542756634844032 
-0.089977181484409002 
0.034890096930783501 
-0.048421782288234183 
-0.0419579579397533 
-0.055383326023203741 
0.2690468033211928 
-1.3271106650464164 
-0.036879883551431472 
-0.075170392284490226 
-0.90993583566747316 
0.075076063072207738 
0.026360492540653455 
0.10839092711154483 
0.09747369053351064 
0.017468556559479417 
-0.14247961599363609 
-0.062467798857429577 
0.13562565441794866 
-0.019360491110053019 
0.065982137798320198 
-0.10178458646194086 
-0.044470123915939137 
0.030713268049946941 
0.075856912101514851 
-0.23402974042788799 
-0.038705133142980311 
0.013601770141164152 
0.18966411442711192 
0.04120997968024942 
0.12399271707145841 
-0.45919171661093827 
-0.25666028684989217 
0.013591570821560213 
-0.64983627776303121 
-0.0318090809263522 
0.11200869419775285 
-0.014391220834883941 
0.11126159954842403 
0.037726247794775701 
0.052474227980923015 
0.07620082977124161 
0.14849158898771703 
0.10395062429577849 
0.12067639631030504 
-0.1343575651220133 
-0.24576967127344412 
-0.033881833467513001 
-0.018084219950025914 
-0.024648231758859666 
-0.032340763953694653 
-0.26269798850821452 
-0.062481276274332545 
0.61720351522687433 
0.065667240094157656 
0.015519669601010977 
0.075871681915054764 
-0.18078002062240306 
0.5219365967481927 
0.13750876498346645 
-0.060221381564463612 
0.092765647373332344 
0.13530270002273559 
-0.046787867302398131 
0.13638462593514997 
0.11981470603183218 
-0.13941059978562106 
-0.023262794465955274 
0.13504293730914271 
-1.1111410728705773 
-0.071588152565014287 
-0.033476988925291148 
0.067251926997315553 
0.012028801565649987 
9.692249303796998e-05 
0.10488020767494083 
0.07174336293345572 
0.001993498557809701 
-0.038007663348792103 
-0.13788425308119726 
-0.14257713941343303 
-0.087249831014453633 
0.0020917774345845571 
-0.15066546908839518 
-0.0018398672528210053 
0.019652707302262006 
-0.22599719449541439 
-0.10960177504394436 
0.099867778573698246 
0.11160390923891393 
-0.054090816510635763 
-0.98887583520964739 
0.34351730603312414 
0.029383769063398471 
-0.25620472074642692 
-0.053844004107679949 
-0.23823151821796595 
0.074323777328078974 
0.011124955581164686 
0.19542865661119843 
0.18761812284682203 
-0.017711212914078046 
-0.0002297833271682208 
-0.42249260657386151 
0.22320371102065484 
-0.12711082772285495 
0.11000907136216995 
0.10885432389051165 
-0.01298558521809483 
-0.035346340533694162 
-0.11533349530438626 
-0.65289371127600171 
-0.23074699029021023 
0.095677243601675996 
0.012819729184315062 
-0.10824240265129165 
-0.20777847993706136 
-0.1439133165183778 
-0.098264420126953425 
-0.25667376944955239 
0.10630668470417753 
-0.57299782826792989 
0.098201553110014231 
0.022241234342699021 
-0.085324435006767549 
0.088083766027510654 
-0.06692100886680831 
0.0071915882902963673 
-0.081829171303943057 
-0.29209364917426278 
0.12223945735750941 
0.0071177358952250087 
-0.10283237566598658 
0.5490743371987018 
-0.080833983865752176 
0.14284941897858802 
0.15642861623731322 
0.11185900642857324 
0.067241591860241326 
0.06044255475754063 
-0.090391822599688462 
0.31057043637917325 
-0.012535923323582181 
0.15098689896762707 
0.13516359566702824 
-0.14800239738743667 
-0.0093183325545897807 
-0.026448901748498701 
-0.011414710085528242 
-0.12193133085261669 
-0.070306645194213355 
0.15774770068874869 
-0.06061364898701177 
-0.21517029307164282 
0.044372333372811205 
0.052061363600635492 
0.09057943005054217 
0.20709317038963906 
0.25720667308603079 
0.22023710897385668 
0.16770085871265877 
0.72564584789057063 
-0.16037292097939512 
0.097704961174891622 
0.11604178563147338 
0.1734998553772879 
-0.01641196825261132 
0.5279990088697768 
-0.3108651015662478 
-0.076885727192280248 
-0.0037908379937914589 
-0.23129712179185299 
-0.088104443883652225 
0.19117176091034346 
0.0076450966521662287 
-0.043759750519048915 
0.2829848478593931 
-0.06219079328210058 
0.010431343850417605 
0.1413832722110992 
0.41153167557478809 
0.35864291698851902 
0.020704670163800475 
-0.064972832119212412 
0.1537615549144547 
-0.100195051668407 
-0.13895662606614609 
-0.33503767235881615 
-0.085306720236879352 
0.30925430535919274 
0.2241085514795268 
-0.043573805717858342 
-0.1501791664264065 
0.026184680296693956 
0.077709837986540464 
0.070605634255028416 
-0.042094259060364299 
0.041529164629665584 
0.025175562323498005 
-0.13960271263766763 
-0.045601477373013309 
0.16074617008084449 
-0.16106352010737982 
-0.071300572052045055 
0.28098160744794304 
0.052487994871110874 
0.040792095811794521 
0.15319103093641998 
-0.25981573298216243 
-0.092898594138627846 
0.11426008992489912 
-0.13132444087965139 
-0.019258487788470308 
-0.069399145618428235 
-0.11906756936238769 
-0.10806232499114111 
0.12471587901203635 
-0.011505298941257961 
0.31675305520707364 
0.082870475760854642 
-0.1012538642428689 
0.04105041109570113 
0.052881248113227648 
-0.01827745100915678 
0.21828144835586419 
0.061821042578397614 
0.15508059961460394 
0.23115011542139299 
-0.11568951903929006 
-0.21971739776001392 
-0.14170148680938247 
0.097574604072810781 
-0.069624516949533088 
0.1749777428159566 
-0.016773637913415206 
0.21104279543784712 
0.21644619721405217 
-0.18708509951917254 
-0.23326723176345282 
0.043875036855036659 
-0.048321102413675973 
-0.11919652761504468 
-0.019833844796865001 
-0.71612303525974097 
-0.023225732493678111 
-0.10060266632325035 
0.024578727696131362 
-0.13111413638985031 
0.078397231657523936 
-0.23457731811987081 
-0.068357986893333333 
-0.065752258874872058 
0.019622132580953369 
0.34687409804963537 
0.0470545508297881 
0.58770248130851721 
0.31622108089580392 
-0.012438421858835074 
0.018686207590072876 
-0.041097600614078127 
-0.20952826018835768 
0.035378198812225828 
