FANN_FLO_2.1
num_layers=3
learning_rate=0.001000
connection_rate=0.500000
network_type=0
learning_momentum=0.000000
training_algorithm=2
train_error_function=1
train_stop_function=0
cascade_output_change_fraction=0.010000
quickprop_decay=-0.000100
quickprop_mu=1.750000
rprop_increase_factor=1.200000
rprop_decrease_factor=0.500000
rprop_delta_min=0.000000
rprop_delta_max=50.000000
rprop_delta_zero=0.100000
cascade_output_stagnation_epochs=12
cascade_candidate_change_fraction=0.010000
cascade_candidate_stagnation_epochs=12
cascade_max_out_epochs=150
cascade_min_out_epochs=50			 
cascade_max_cand_epochs=150	
cascade_min_cand_epochs=50			  
cascade_num_candidate_groups=2
bit_fail_limit=3.49999994039535520000e-001
cascade_candidate_limit=1.00000000000000000000e+003
cascade_weight_multiplier=4.00000005960464480000e-001
cascade_activation_functions_count=10
cascade_activation_functions=3 5 7 8 10 11 14 15 16 17 
cascade_activation_steepnesses_count=4
cascade_activation_steepnesses=2.50000000000000000000e-001 5.00000000000000000000e-001 7.50000000000000000000e-001 1.00000000000000000000e+000 
layer_sizes=11 101 3 
scale_included=0
neurons (num_inputs, activation_function, activation_steepness)=(0, 0, 0.00000000000000000000e+000) (0, 0, 0.00000000000000000000e+000) (0, 0, 0.00000000000000000000e+000) (0, 0, 0.00000000000000000000e+000) (0, 0, 0.00000000000000000000e+000) (0, 0, 0.00000000000000000000e+000) (0, 0, 0.00000000000000000000e+000) (0, 0, 0.00000000000000000000e+000) (0, 0, 0.00000000000000000000e+000) (0, 0, 0.00000000000000000000e+000) (0, 0, 0.00000000000000000000e+000) (6, 3, 1.00000000000000000000e+000) (6, 3, 1.00000000000000000000e+000) (6, 3, 1.00000000000000000000e+000) (6, 3, 1.00000000000000000000e+000) (6, 3, 1.00000000000000000000e+000) (6, 3, 1.00000000000000000000e+000) (6, 3, 1.00000000000000000000e+000) (6, 3, 1.00000000000000000000e+000) (6, 3, 1.00000000000000000000e+000) (6, 3, 1.00000000000000000000e+000) (6, 3, 1.00000000000000000000e+000) (6, 3, 1.00000000000000000000e+000) (6, 3, 1.00000000000000000000e+000) (6, 3, 1.00000000000000000000e+000) (6, 3, 1.00000000000000000000e+000) (6, 3, 1.00000000000000000000e+000) (6, 3, 1.00000000000000000000e+000) (6, 3, 1.00000000000000000000e+000) (6, 3, 1.00000000000000000000e+000) (6, 3, 1.00000000000000000000e+000) (6, 3, 1.00000000000000000000e+000) (6, 3, 1.00000000000000000000e+000) (6, 3, 1.00000000000000000000e+000) (6, 3, 1.00000000000000000000e+000) (6, 3, 1.00000000000000000000e+000) (6, 3, 1.00000000000000000000e+000) (6, 3, 1.00000000000000000000e+000) (6, 3, 1.00000000000000000000e+000) (6, 3, 1.00000000000000000000e+000) (6, 3, 1.00000000000000000000e+000) (6, 3, 1.00000000000000000000e+000) (6, 3, 1.00000000000000000000e+000) (6, 3, 1.00000000000000000000e+000) (6, 3, 1.00000000000000000000e+000) (6, 3, 1.00000000000000000000e+000) (6, 3, 1.00000000000000000000e+000) (6, 3, 1.00000000000000000000e+000) (6, 3, 1.00000000000000000000e+000) (6, 3, 1.00000000000000000000e+000) (6, 3, 1.00000000000000000000e+000) (6, 3, 1.00000000000000000000e+000) (6, 3, 1.00000000000000000000e+000) (6, 3, 1.00000000000000000000e+000) (6, 3, 1.00000000000000000000e+000) (6, 3, 1.00000000000000000000e+000) (6, 3, 1.00000000000000000000e+000) (6, 3, 1.00000000000000000000e+000) (6, 3, 1.00000000000000000000e+000) (6, 3, 1.00000000000000000000e+000) (6, 3, 1.00000000000000000000e+000) (6, 3, 1.00000000000000000000e+000) (6, 3, 1.00000000000000000000e+000) (6, 3, 1.00000000000000000000e+000) (6, 3, 1.00000000000000000000e+000) (6, 3, 1.00000000000000000000e+000) (6, 3, 1.00000000000000000000e+000) (6, 3, 1.00000000000000000000e+000) (6, 3, 1.00000000000000000000e+000) (6, 3, 1.00000000000000000000e+000) (6, 3, 1.00000000000000000000e+000) (6, 3, 1.00000000000000000000e+000) (6, 3, 1.00000000000000000000e+000) (6, 3, 1.00000000000000000000e+000) (6, 3, 1.00000000000000000000e+000) (6, 3, 1.00000000000000000000e+000) (6, 3, 1.00000000000000000000e+000) (6, 3, 1.00000000000000000000e+000) (6, 3, 1.00000000000000000000e+000) (6, 3, 1.00000000000000000000e+000) (6, 3, 1.00000000000000000000e+000) (6, 3, 1.00000000000000000000e+000) (6, 3, 1.00000000000000000000e+000) (6, 3, 1.00000000000000000000e+000) (6, 3, 1.00000000000000000000e+000) (6, 3, 1.00000000000000000000e+000) (6, 3, 1.00000000000000000000e+000) (6, 3, 1.00000000000000000000e+000) (6, 3, 1.00000000000000000000e+000) (6, 3, 1.00000000000000000000e+000) (6, 3, 1.00000000000000000000e+000) (6, 3, 1.00000000000000000000e+000) (6, 3, 1.00000000000000000000e+000) (6, 3, 1.00000000000000000000e+000) (6, 3, 1.00000000000000000000e+000) (6, 3, 1.00000000000000000000e+000) (6, 3, 1.00000000000000000000e+000) (6, 3, 1.00000000000000000000e+000) (6, 3, 1.00000000000000000000e+000) (6, 3, 1.00000000000000000000e+000) (6, 3, 1.00000000000000000000e+000) (6, 3, 1.00000000000000000000e+000) (6, 3, 1.00000000000000000000e+000) (6, 3, 1.00000000000000000000e+000) (6, 3, 1.00000000000000000000e+000) (6, 3, 1.00000000000000000000e+000) (6, 3, 1.00000000000000000000e+000) (6, 3, 1.00000000000000000000e+000) (6, 3, 1.00000000000000000000e+000) (6, 3, 1.00000000000000000000e+000) (6, 3, 1.00000000000000000000e+000) (0, 3, 1.00000000000000000000e+000) (51, 3, 1.00000000000000000000e+000) (51, 3, 1.00000000000000000000e+000) (0, 3, 1.00000000000000000000e+000) 
connections (connected_to_neuron, weight)=(10, -1.94907426834106450000e-001) (8, 2.54758548736572270000e+000) (9, 4.12268877029418950000e-001) (0, 1.60511600971221920000e+000) (5, 2.53248167037963870000e+000) (1, -4.62083786725997920000e-001) (10, -1.72434985637664790000e+000) (9, -3.83165813982486720000e-002) (8, -5.32164871692657470000e-001) (6, -1.82567968964576720000e-001) (7, 1.45611810684204100000e+000) (4, -2.07965746521949770000e-001) (10, -2.59807199239730830000e-001) (0, -4.11361664533615110000e-001) (2, 5.22956907749176030000e-001) (1, 9.96850132942199710000e-001) (4, 2.08230376243591310000e+000) (8, -5.49740886688232420000e+000) (10, -1.32839822769165040000e+000) (8, -3.09211277961730960000e+000) (4, 4.92659950256347660000e+000) (3, -1.35655391216278080000e+000) (2, 7.77960717678070070000e-001) (5, -1.55954194068908690000e+000) (10, -3.19408631324768070000e+000) (9, -8.91124010086059570000e-001) (6, -1.40986680984497070000e-001) (5, -1.37033951282501220000e+000) (1, -1.24109029769897460000e+001) (3, 5.03478348255157470000e-001) (10, -2.74486756324768070000e+000) (3, 1.30843505263328550000e-001) (1, 2.23053145408630370000e+000) (7, 2.60645598173141480000e-002) (5, -9.41355675458908080000e-002) (8, 1.16064500808715820000e+000) (10, 5.22648513317108150000e-001) (7, 9.10458087921142580000e+000) (6, -4.97369956970214840000e+000) (3, 1.83844585418701170000e+001) (4, 1.02989702224731450000e+001) (5, 2.56391191482543950000e+000) (10, -4.43947744369506840000e+000) (4, -3.37368583679199220000e+000) (1, 1.99376833438873290000e+000) (8, -1.35901784896850590000e+000) (5, 3.92005729675292970000e+000) (6, -3.90643048286437990000e+000) (10, 2.53052854537963870000e+000) (7, -1.62139141559600830000e+000) (5, -1.00333442687988280000e+001) (1, -5.18579101562500000000e+000) (0, 8.66019058227539060000e+000) (6, 5.10027313232421870000e+000) (10, 4.34730291366577150000e+000) (8, 1.24095454812049870000e-001) (6, 7.33583307266235350000e+000) (1, -1.90398544073104860000e-001) (5, 5.29647350311279300000e-001) (4, 1.39842109680175780000e+001) (10, -5.19272470474243160000e+000) (4, 2.19896674156188960000e-001) (1, 3.63365292549133300000e+000) (9, 2.02746295928955080000e+000) (5, 3.03086310625076290000e-001) (3, 4.95946407318115230000e+000) (10, -2.89105963706970210000e+000) (4, 2.40291023254394530000e+000) (6, 7.94264793395996090000e-001) (3, -3.01230144500732420000e+000) (8, -6.29210233688354490000e+000) (2, -7.14568376541137700000e-001) (10, -2.01046422123909000000e-001) (7, 6.79482936859130860000e-001) (8, -1.60786956548690800000e-001) (2, 7.01547637581825260000e-002) (5, 2.23248880356550220000e-002) (0, 4.31379199028015140000e-001) (10, -4.83512431383132930000e-001) (1, 3.86816173791885380000e-001) (7, 6.91410660743713380000e-001) (9, -2.53390580415725710000e-001) (4, 3.61151397228240970000e-001) (6, 2.00264025479555130000e-002) (10, -3.70391756296157840000e-001) (7, 2.75097221136093140000e-001) (3, 1.71298846602439880000e-001) (0, 1.83428108692169190000e-001) (5, 4.65262442827224730000e-001) (6, -2.03415259718894960000e-001) (10, 1.44182932376861570000e+000) (2, 3.02586741745471950000e-002) (8, 1.93406593799591060000e+000) (3, -2.37125897407531740000e+000) (6, -2.20357251167297360000e+000) (0, 1.07044184207916260000e+000) (10, 2.92126035690307620000e+000) (9, -8.47926616668701170000e+000) (8, 3.03690004348754880000e+000) (0, 8.25637149810791020000e+000) (1, -5.03027248382568360000e+000) (3, 1.75990492105484010000e-001) (10, 1.44574892520904540000e+000) (5, -3.93506050109863280000e-001) (3, 1.12992458343505860000e+001) (7, 9.61042165756225590000e-001) (4, 1.17889032363891600000e+001) (6, -3.72496396303176880000e-001) (10, -4.63206589221954350000e-001) (5, 1.72855877876281740000e+000) (2, 6.60727396607398990000e-002) (8, 5.25538158416748050000e+000) (3, 5.88752590119838710000e-002) (4, 1.75296217203140260000e-001) (10, -2.02793931961059570000e+000) (6, 2.39118456840515140000e-001) (4, -7.71271824836730960000e-001) (8, 3.57136279344558720000e-002) (7, 2.87601321935653690000e-001) (3, 1.32381927967071530000e+000) (10, -5.52153348922729490000e-001) (2, -3.00915527343750000000e+000) (9, 6.78321063518524170000e-001) (4, 2.61381578445434570000e+000) (6, 1.67850005626678470000e+000) (0, 7.57209718227386470000e-001) (10, -5.34825384616851810000e-001) (6, -1.27866947650909420000e+000) (7, 1.13843882083892820000e+000) (3, -7.22656488418579100000e-001) (1, -5.77675282955169680000e-001) (8, 3.52083182334899900000e+000) (10, -4.38235282897949220000e+000) (5, -1.73131763935089110000e-001) (2, 3.02600955963134770000e+000) (4, 7.73881494998931880000e-001) (7, 8.17109271883964540000e-002) (8, 4.50806379318237300000e-001) (10, -8.80118012428283690000e-001) (1, -1.52365040779113770000e+000) (4, -2.37168312072753910000e+000) (3, -1.10732853412628170000e+000) (9, 2.59378480911254880000e+000) (6, -5.19396007061004640000e-001) (10, -4.85215783119201660000e-002) (1, 1.43394017219543460000e+000) (6, -1.15563523769378660000e+000) (3, -5.82257091999053960000e-001) (2, 5.93929052352905270000e-001) (5, 1.18506348133087160000e+000) (10, 2.63714718818664550000e+000) (5, -1.09643971920013430000e+000) (8, -3.84159350395202640000e+000) (4, 2.06231045722961430000e+000) (7, -9.66124475002288820000e-001) (6, -1.19405913352966310000e+000) (10, -1.09667100906372070000e+001) (9, -1.46077588200569150000e-001) (3, -3.86831212043762210000e+000) (8, 8.16524028778076170000e+000) (6, 1.10002267360687260000e+000) (7, -3.27993417158722880000e-003) (10, -1.55532503128051760000e+000) (7, 3.30600619316101070000e-001) (8, -1.52762436866760250000e+000) (2, 3.03855419158935550000e-001) (5, 8.40077042579650880000e-001) (9, 2.11114451289176940000e-001) (10, 1.20621398091316220000e-001) (8, -7.91589260101318360000e-001) (2, 1.74405491352081300000e+000) (0, 4.57436293363571170000e-002) (9, -1.03672409057617190000e+000) (1, 1.32255375385284420000e+000) (10, 6.13646745681762700000e+000) (4, -1.78502120971679690000e+001) (1, -2.20118522644042970000e+000) (2, 2.63987278938293460000e+000) (6, -2.92146468162536620000e+000) (3, -3.08671417236328130000e+001) (10, -2.54703712463378910000e+000) (7, 1.71756887435913090000e+000) (1, -5.39115607738494870000e-001) (2, 1.08089959621429440000e+000) (4, 5.24078905582427980000e-001) (5, 3.91313403844833370000e-001) (10, 3.05616497993469240000e+000) (1, 3.52561259269714360000e+000) (5, 1.91017135977745060000e-001) (3, 5.49924433231353760000e-001) (8, -1.01183533668518070000e+000) (4, 1.69368350505828860000e+000) (10, -2.06733179092407230000e+000) (7, 6.44524288177490230000e+000) (4, 3.58729267120361330000e+000) (6, -1.51250362396240230000e+000) (0, -9.38085079193115230000e+000) (9, 1.11722421646118160000e+000) (10, -4.70428168773651120000e-001) (3, -3.93340253829956050000e+000) (6, 8.41010761260986330000e+000) (8, -5.21060447692871090000e+001) (7, 7.08714962005615230000e+000) (1, -1.53050124645233150000e+000) (10, -2.05580294132232670000e-001) (3, 2.45414328575134280000e+000) (8, 2.00763773918151860000e+000) (7, 4.54226398468017580000e+000) (9, 3.99911284446716310000e+000) (4, 3.09816288948059080000e+000) (10, 5.22320508956909180000e-001) (6, -2.17859435081481930000e+000) (3, -1.01774466037750240000e+000) (5, -2.32583069801330570000e+000) (1, 1.75134861469268800000e+000) (0, -6.81630551815032960000e-001) (10, -4.73476946353912350000e-001) (1, 2.90407150983810420000e-001) (8, 2.84841567277908330000e-001) (3, 6.07257723808288570000e-001) (4, -4.75580096244812010000e-001) (6, -6.23066902160644530000e-001) (10, -1.44677734375000000000e+000) (3, 3.19496840238571170000e-001) (7, 5.06361961364746090000e-001) (4, -5.54306358098983760000e-002) (5, 9.77041661739349370000e-001) (1, -1.96296125650405880000e-001) (10, 1.41453385353088380000e+000) (3, 4.76469576358795170000e-001) (2, 1.31094443798065190000e+000) (5, 4.51282310485839840000e+000) (6, 3.53793811798095700000e+000) (9, 4.09788084030151370000e+000) (10, 2.77432441711425780000e-001) (0, 1.03191149234771730000e+000) (6, 5.21076321601867680000e-001) (3, -3.31049084663391110000e-001) (5, 2.25758910179138180000e+000) (1, -2.57677584886550900000e-001) (10, -1.77747571468353270000e+000) (6, 3.92731833457946780000e+000) (4, 1.83926832675933840000e+000) (0, 7.75656461715698240000e-001) (2, -1.40286946296691890000e+000) (7, 4.06440854072570800000e-001) (10, -2.81676083803176880000e-001) (6, 2.58636586368083950000e-002) (9, 3.57328772544860840000e-001) (2, 3.58119249343872070000e-001) (5, 6.99850201606750490000e-001) (8, 1.33179044723510740000e+000) (10, -8.21864545345306400000e-001) (2, 9.73239541053771970000e-001) (7, 1.58201253414154050000e+000) (0, 7.40301704406738280000e+000) (5, 2.25711870193481450000e+000) (4, 2.48562788963317870000e+000) (10, -4.33029747009277340000e+000) (7, -2.23314785957336430000e+000) (5, 2.25581392645835880000e-001) (4, 4.54047620296478270000e-001) (6, 4.05736827850341800000e+000) (2, 1.31320512294769290000e+000) (10, -3.68298411369323730000e-001) (5, -3.23007375001907350000e-001) (4, -2.06237539649009700000e-001) (1, 6.31691575050354000000e-001) (2, 3.98662447929382320000e-001) (8, -4.45204913616180420000e-001) (10, 3.19391787052154540000e-001) (5, 3.14227771759033200000e+000) (0, 3.94238781929016110000e+000) (3, 2.47965359687805180000e+000) (2, -1.73754858970642090000e+000) (6, 3.43547320365905760000e+000) (10, -3.24460804462432860000e-001) (7, 4.37795877456665040000e-001) (4, -5.64890680834650990000e-003) (1, 1.66128560900688170000e-001) (5, 1.96521595120429990000e-001) (0, 1.72800928354263310000e-001) (10, 8.29069793224334720000e-001) (8, -1.38803482055664060000e-001) (3, 6.67958796024322510000e-001) (1, 2.51485633850097660000e+000) (4, 4.63546752929687500000e+000) (7, 2.44020771980285640000e+000) (10, 1.10188491642475130000e-001) (3, 9.24246087670326230000e-002) (5, -1.11783012747764590000e-001) (8, -1.66482865810394290000e-001) (1, 3.12678575515747070000e-001) (0, -5.82258477807044980000e-002) (10, -4.65634971857070920000e-001) (4, 2.98525714874267580000e+000) (3, 7.63585388660430910000e-001) (9, -3.54209280014038090000e+000) (1, 9.79778841137886050000e-002) (2, -9.10276651382446290000e-001) (10, -6.18036448955535890000e-001) (2, -3.81654947996139530000e-002) (8, -2.07016658782958980000e+000) (0, -1.66509822010993960000e-001) (6, 5.15000998973846440000e-001) (1, 9.00729954242706300000e-001) (10, -1.08358383178710940000e+001) (5, 8.88224983215332030000e+000) (2, 6.50201916694641110000e-001) (3, 5.51950454711914060000e-001) (6, 1.04138624668121340000e+000) (7, -1.33539482951164250000e-001) (10, -3.25760412216186520000e+000) (0, 1.55056285858154300000e+000) (7, 1.92077207565307620000e+000) (6, 3.97256404161453250000e-001) (9, -1.81273460388183590000e+000) (2, 2.18221068382263180000e+000) (10, -1.78428888320922850000e+000) (5, -9.01306450366973880000e-001) (7, -1.62989541888237000000e-001) (9, -1.45990699529647830000e-001) (2, 1.05896544456481930000e+000) (3, -6.28612488508224490000e-002) (10, -1.96429955959320070000e+000) (5, 1.46233618259429930000e+000) (4, 6.22479534149169920000e+000) (9, -6.76462888717651370000e+000) (7, 6.52359962463378910000e-001) (6, 1.17642917633056640000e+001) (10, -1.61351394653320310000e+000) (2, 4.50917005538940430000e+000) (3, 3.51642775535583500000e+000) (5, 3.44611793756484990000e-001) (1, 9.32271289825439450000e+000) (8, 5.72840499877929690000e+000) (10, -7.11411356925964360000e-001) (1, 2.51547574996948240000e+000) (3, -2.70598959922790530000e+000) (4, 2.47286105155944820000e+000) (5, -1.23361691832542420000e-001) (6, -4.14761543273925780000e+000) (10, -1.09584999084472660000e+001) (1, -5.28704881668090820000e-001) (6, 1.22758996486663820000e+000) (4, -2.44653081893920900000e+000) (7, -2.71012242883443830000e-002) (5, 7.11488580703735350000e+000) (10, -2.64917683601379390000e+000) (6, -2.64915108680725100000e-001) (2, -1.40842914581298830000e-001) (4, -5.04720568656921390000e-001) (8, -9.20662045478820800000e-001) (3, 1.52260613441467290000e+000) (10, 1.75050199031829830000e+000) (5, -3.81715559959411620000e+000) (6, 3.23644661903381350000e+000) (8, -2.91768097877502440000e+000) (7, 4.65578973293304440000e-001) (0, -8.87503772974014280000e-002) (10, -2.19252991676330570000e+000) (3, 4.18663233518600460000e-001) (1, 1.97755590081214900000e-001) (9, -1.09217381477355960000e+000) (5, -6.45606458187103270000e-001) (2, 1.11752176284790040000e+000) (10, -3.04102361202239990000e-001) (6, -7.67850542068481450000e+000) (8, -1.50915660858154300000e+001) (1, 1.10748660564422610000e+000) (2, 7.27215290069580080000e+000) (7, 1.49827420711517330000e+000) (10, -6.84888064861297610000e-001) (7, -4.20135927200317380000e+000) (6, 1.53417778015136720000e+000) (5, 1.49435210227966310000e+000) (8, 2.08831048011779790000e+000) (9, 5.18761873245239260000e+000) (10, -1.80127918720245360000e-001) (7, 6.09327077865600590000e-001) (9, -3.19751590490341190000e-001) (1, 1.06587983667850490000e-001) (2, -2.31627285480499270000e-001) (3, 6.07135772705078130000e-001) (10, -2.73203396797180180000e+000) (2, -4.84478145837783810000e-001) (4, 2.56185126304626460000e+000) (3, 2.21832060813903810000e+000) (1, 5.85632443428039550000e-001) (9, -1.96910130977630620000e+000) (10, -2.34340026974678040000e-001) (1, 6.08295023441314700000e-001) (9, 8.22103738784790040000e-001) (4, 4.03294658660888670000e+000) (3, 2.73891901969909670000e+000) (8, -1.96977043151855470000e+000) (10, -9.94606494903564450000e-001) (1, 4.14604932069778440000e-001) (0, 3.61193157732486720000e-002) (2, -7.24656581878662110000e-001) (9, -4.02888345718383790000e+000) (4, 3.32256221771240230000e+000) (10, -8.20073664188385010000e-001) (1, 9.75960493087768550000e-001) (0, -1.90653890371322630000e-001) (6, 6.98968601226806640000e+000) (4, -1.84996891021728520000e+000) (8, -3.89582252502441410000e+000) (10, -1.56149935722351070000e+000) (2, -2.42091581225395200000e-001) (3, 1.22561693191528320000e+000) (4, 1.71191051602363590000e-001) (6, -1.30902696400880810000e-002) (9, 1.12265181541442870000e+000) (10, -8.79374146461486820000e-001) (2, 4.14116525650024410000e+000) (1, 2.39007616043090820000e+000) (5, -8.82015749812126160000e-002) (6, 1.12352979183197020000e+000) (7, 6.70398414134979250000e-001) (10, -1.32024419307708740000e+000) (0, 2.20419096946716310000e+000) (5, 1.15462088584899900000e+000) (8, 1.21553409099578860000e+000) (6, -2.40191921591758730000e-001) (4, 9.42931413650512700000e-001) (10, -7.85486996173858640000e-001) (2, 2.22271037101745610000e+000) (7, 2.86381387710571290000e+000) (5, 3.94910097122192380000e-001) (6, 4.50610183179378510000e-002) (8, -1.32810306549072270000e+000) (10, -1.88247632980346680000e+000) (8, 1.19921159744262700000e+001) (7, 1.67731809616088870000e+000) (3, -9.83955383300781250000e+000) (1, -3.84781312942504880000e+000) (5, -3.22279047966003420000e+000) (10, 2.00840258598327640000e+000) (0, 1.70349168777465820000e+000) (1, -5.12386381626129150000e-001) (7, -3.70664834976196290000e+000) (6, 4.61827516555786130000e+000) (8, 6.99710035324096680000e+000) (10, -3.33240818977355960000e+000) (7, 1.41969597339630130000e+000) (1, 3.23691654205322270000e+000) (0, -1.00954687595367430000e+000) (3, -1.83942568302154540000e+000) (2, 6.49059152603149410000e+000) (10, 1.10203826427459720000e+000) (1, 5.60861253738403320000e+000) (4, 7.61968672275543210000e-001) (8, 1.52993530035018920000e-001) (2, 7.06106376647949220000e+000) (3, -1.65046527981758120000e-001) (10, -2.91103577613830570000e+000) (2, 1.31988954544067380000e+000) (3, -1.90546762943267820000e+000) (7, 8.24516594409942630000e-001) (5, -1.76282370090484620000e+000) (8, -2.97268241643905640000e-001) (10, -1.59804010391235350000e+001) (3, 3.18367695808410640000e+000) (6, 7.96116113662719730000e-001) (9, -1.86924904584884640000e-001) (8, 1.79198539257049560000e+000) (2, 5.18740117549896240000e-001) (10, -8.79820644855499270000e-001) (1, -2.08492374420166020000e+000) (2, 3.37376266717910770000e-001) (7, 1.23404896259307860000e+000) (5, -4.94349241256713870000e-001) (6, 4.18709099292755130000e-001) (10, -5.32254755496978760000e-001) (4, -2.42579445242881770000e-001) (0, -4.89666089415550230000e-002) (8, 1.34745150804519650000e-001) (1, 3.52064102888107300000e-001) (3, 3.89171421527862550000e-001) (10, -3.50037193298339840000e+000) (9, -7.89482817053794860000e-002) (4, 2.62936878204345700000e+000) (5, 4.67959016561508180000e-001) (8, 7.92790889739990230000e-001) (0, 1.19389438629150390000e+001) (10, -1.09840755462646480000e+001) (7, 1.18101799488067630000e+000) (4, 3.33484840393066410000e+000) (1, -5.75090825557708740000e-001) (5, 9.86902713775634770000e+000) (8, 3.79235816001892090000e+000) (10, -1.51611506938934330000e+000) (3, 1.98190307617187500000e+000) (5, -1.48004043102264400000e+000) (6, 5.98093032836914060000e+000) (1, 3.95695209503173830000e+000) (2, -4.04388993978500370000e-001) (10, -3.54126513004302980000e-001) (2, 1.44167751073837280000e-001) (6, -2.03606143593788150000e-001) (1, 4.15082365274429320000e-001) (7, 3.41603070497512820000e-001) (4, -3.18600177764892580000e-001) (10, 1.21991552412509920000e-001) (9, -3.04282933473587040000e-001) (1, 3.38769078254699710000e-001) (5, 4.96125102043151860000e-001) (0, 3.69158834218978880000e-001) (2, 7.65275895595550540000e-001) (10, -3.54463887214660640000e+000) (3, 4.03776264190673830000e+000) (1, 4.88150805234909060000e-001) (9, -5.39060473442077640000e-001) (5, -6.13642990589141850000e-001) (6, -1.11444044113159180000e+000) (10, -5.35010039806365970000e-001) (4, 2.21331734210252760000e-002) (5, -6.31332993507385250000e-001) (0, 1.68198895454406740000e+000) (6, 1.97331696748733520000e-001) (3, 2.84144091606140140000e+000) (10, -2.42445850372314450000e+000) (2, -3.63597184419631960000e-001) (9, 9.83358860015869140000e-001) (6, -7.21291184425354000000e-001) (4, 3.63729286193847660000e+000) (3, 1.28015029430389400000e+000) (10, -5.23892760276794430000e-001) (7, -1.10763740539550780000e+000) (2, -8.14947485923767090000e-001) (4, 1.78492355346679690000e+000) (1, 2.16409325599670410000e+000) (6, 2.66453599929809570000e+000) (10, -4.04282712936401370000e+000) (1, 8.40642070770263670000e+000) (7, -4.03368425369262700000e+000) (6, 1.54212379455566410000e+000) (4, 2.72956180572509770000e+001) (5, -6.54887104034423830000e+000) (10, -4.87095266580581670000e-002) (6, 1.09384894371032710000e+000) (7, -1.34268403053283690000e-001) (4, 6.60905659198760990000e-001) (5, -3.22293460369110110000e-001) (3, 1.11338484287261960000e+000) (10, -7.99712371826171870000e+000) (6, -1.22028446197509770000e+000) (3, -1.11110210418701170000e+000) (7, -3.44670116901397710000e-001) (1, -1.05631895065307620000e+001) (8, -3.00330251455307010000e-001) (10, 4.15222024917602540000e+000) (5, -1.70480365753173830000e+001) (1, 7.11134052276611330000e+000) (2, 5.72439432144165040000e+000) (7, -1.16748819351196290000e+001) (8, -1.25328292846679690000e+001) (10, -1.70012581348419190000e+000) (7, -6.75677776336669920000e+000) (1, -7.15568590164184570000e+000) (8, 8.47273540496826170000e+000) (5, -4.11601924896240230000e+000) (9, 4.90126609802246090000e+000) (10, -1.58936986923217770000e+001) (1, -1.23391485214233400000e+000) (7, 9.69914495944976810000e-002) (6, 7.89244353771209720000e-001) (3, -1.36229305267333980000e+001) (2, 4.66337203979492190000e-001) (10, -2.16943264007568360000e+000) (1, 1.47715747356414790000e+000) (5, 9.23660844564437870000e-002) (7, 2.46878528594970700000e+000) (9, -2.96799874305725100000e+000) (4, -3.13976556062698360000e-001) (10, -3.58507156372070310000e+000) (4, 1.83469092845916750000e+000) (7, 3.50016057491302490000e-001) (8, 5.97783327102661130000e+000) (1, -3.64723056554794310000e-001) (5, -1.44707113504409790000e-001) (10, -5.32372295856475830000e-001) (1, -1.07853397727012630000e-001) (4, 8.30490529537200930000e-001) (5, 1.54492509365081790000e+000) (8, 1.21755242347717290000e+000) (0, 8.24175894260406490000e-001) (10, -1.09091348648071290000e+001) (4, 3.18497157096862790000e+000) (8, 4.45323944091796870000e+000) (1, -4.53847885131835940000e-001) (7, -4.06157113611698150000e-002) (2, 3.92314612865448000000e-001) (10, -2.54891896247863770000e+000) (1, 4.18432742357254030000e-001) (2, 2.40423989295959470000e+000) (8, 2.73399186134338380000e+000) (6, 1.57995641231536870000e+000) (9, 1.28649091720581050000e+000) (111, 9.17191710323095320000e-003) (11, -1.70585691928863530000e-001) (12, -1.55848965048789980000e-001) (13, -1.10324107110500340000e-001) (14, -1.28760725259780880000e-001) (15, 2.89661467075347900000e-001) (16, -4.02582615613937380000e-001) (18, -1.67548134922981260000e-001) (22, 3.03271114826202390000e-001) (24, -6.34700730443000790000e-002) (28, 1.81480556726455690000e-001) (30, -6.97570800781250000000e-001) (32, 1.59920901060104370000e-001) (34, -1.15094095468521120000e-001) (37, -2.10843399167060850000e-001) (38, -5.76452255249023440000e-001) (40, 1.16948783397674560000e-001) (41, -5.25364696979522710000e-001) (43, 2.84653455018997190000e-001) (51, 3.11136543750762940000e-001) (61, -7.90890157222747800000e-002) (62, 2.60259985923767090000e+000) (63, 2.08017691969871520000e-001) (64, 4.30446028709411620000e-001) (65, 1.11313514411449430000e-001) (67, -2.07150757312774660000e-001) (68, -4.83076244592666630000e-001) (71, 3.06254327297210690000e-001) (75, 2.87533313035964970000e-001) (77, -1.23123764991760250000e-001) (78, -1.22073054313659670000e-001) (79, -1.90738514065742490000e-001) (80, -3.27956706285476680000e-001) (81, -3.42938274145126340000e-001) (83, -1.19319602847099300000e-001) (85, 3.28658610582351680000e-001) (88, 1.24080004882812500000e+003) (92, 4.56407964229583740000e-001) (93, 2.32232466340065000000e-001) (97, -4.96715754270553590000e-001) (99, -1.88505604863166810000e-001) (100, 7.45430290699005130000e-002) (102, 2.47183501720428470000e-001) (103, 1.33854731917381290000e-001) (104, 1.48356214165687560000e-001) (105, -6.60533130168914790000e-001) (106, -2.17434138059616090000e-001) (107, 2.84832626581192020000e-001) (108, -5.31495027244091030000e-002) (109, 3.91081275939941410000e+001) (110, 1.64121404290199280000e-001) (111, 5.43323718011379240000e-002) (17, -1.46913409233093260000e-001) (19, -1.05758130550384520000e-001) (20, -1.29138052463531490000e-001) (21, 1.68923482298851010000e-001) (23, 1.92933127284049990000e-001) (25, 1.13023988902568820000e-001) (26, -8.31108242273330690000e-002) (27, -1.39580875635147090000e-001) (29, -3.40419799089431760000e-001) (31, -2.45483353734016420000e-001) (33, -1.83019387722015380000e+000) (35, 1.05731800198554990000e-001) (36, -6.77834451198577880000e-002) (39, -1.00009083747863770000e-001) (42, 1.66317403316497800000e-001) (44, -5.70328943431377410000e-002) (45, 1.55646249651908870000e-001) (46, -1.40452593564987180000e-001) (47, 1.47984236478805540000e-001) (48, 1.03213697671890260000e-001) (49, 1.59106999635696410000e-001) (50, 2.70073980093002320000e-001) (52, 1.10887855291366580000e-001) (53, 3.16550344228744510000e-001) (54, -1.41818240284919740000e-001) (55, 1.22374966740608220000e-001) (56, -3.28889608383178710000e-001) (57, 1.13919444382190700000e-001) (58, -1.21280267834663390000e-001) (59, 1.28916189074516300000e-001) (60, 2.36954644322395320000e-001) (66, -1.70355722308158870000e-001) (69, 6.82653605937957760000e-001) (70, -1.11765481531620030000e-001) (72, -9.81063917279243470000e-002) (73, 1.56847089529037480000e-001) (74, 1.05533994734287260000e-001) (76, -1.80672675371170040000e-001) (82, 2.09159001708030700000e-001) (84, 7.55356103181838990000e-002) (86, -1.50182276964187620000e-001) (87, -4.14996534585952760000e-001) (89, 1.06188274919986720000e-001) (90, 1.44094705581665040000e-001) (91, -3.68129670619964600000e-001) (94, 1.13921612501144410000e-001) (95, -3.63305360078811650000e-002) (96, 1.01178035140037540000e-001) (98, 3.04239660501480100000e-001) (101, 1.34604007005691530000e-001) 
